{"H":39,"h":0.05,"kappa":[2.0e-8,2.0e-8,2.0e-8,2.0e-8,2.0e-8,2.0e-8,2.0e-8,2.0e-8,2.0e-8,2.0e-8,2.0e-8,2.0e-8,2.0e-8,2.0e-8,2.0e-8,2.0e-8,2.0e-8,2.0e-8,2.0e-8,2.0e-8,2.0e-8,2.0e-8,2.0e-8,2.0e-8,2.0e-8,2.0e-8,2.0e-8,2.0e-8,2.0e-8,2.0e-8,2.0e-8,2.0e-8,2.0e-8,2.0e-8,2.0e-8,2.0e-8,2.0e-8,2.0e-8,2.0e-8],"q":[[0.0,0.55,0.0,0.5],[0.0,0.55,0.0,0.5],[1.6539171124418903,0.7607526510003969,-0.7802287413828279,1.0000000000765408],[1.6651985563530285,0.7191674121443794,-0.9205237874205784,0.8167847109866467],[1.6623240298687985,0.6842467931048877,-0.6351605553720523,0.7665558964706756],[1.7432431699428799,0.7622868533288364,-0.6440756346335179,0.8907425295982406],[1.712755928427788,0.8133729719184596,0.2738195321563662,0.7929128782221908],[1.7920895708610167,0.741030043882057,-0.350081891275884,0.7270211069941761],[1.962423590954015,0.9648100255665087,-0.4157590255372606,1.0000000000931921],[1.987941585599363,0.9835340577983606,-0.970639515834215,0.3293026155054864],[1.9784453029096627,1.0518122683752609,-0.7740793305418093,0.25],[2.046484998327926,1.1021986960552563,-1.277852753599544,0.5058001978845859],[2.114531369806838,1.0844510898930013,-1.7383379067408422,0.7367255623634055],[1.879057742836977,0.44036427744134854,1.4825137297504158,0.6888339141926465],[1.6569000996117398,0.09999999999998829,3.7040901620027933,0.9999999999999877],[1.6569000996117398,0.09999999999998829,3.7040901620027933,0.9999999999999877],[1.5411410391483107,0.18963551216459434,2.234088225957347,1.0],[1.8756022039983324,0.6572736790861824,0.9181717793931294,0.9999999992477676],[2.369673619877591,0.9669597592470539,0.38387652887866086,0.9889346425366352],[3.108524896607541,0.7128268628090678,0.6169186813193193,0.25000000000011113],[3.108524896607541,0.7128268628090678,0.6169186813193193,0.25000000000011113],[2.705254235159219,0.13097865986907772,-3.636258129523401,1.0],[2.705254235159219,0.13097865986907772,-3.636258129523401,1.0],[2.705254235159219,0.13097865986907772,-3.636258129523401,1.0],[2.8046046256180177,0.24516917029206534,-4.816246009093747,0.8070631602805551],[3.2428683409496597,0.36949388226760477,-3.0670210290370417,0.634716132651507],[3.2428683409496597,0.36949388226760477,-3.0670210290370417,0.634716132651507],[3.2428683409496597,0.36949388226760477,-3.0670210290370417,0.634716132651507],[2.959859009559084,0.9478845778559343,0.45585586720315235,0.9999999999992839],[2.339921202939574,1.1069961931345786,-0.9942464120811464,1.0000000000000044],[1.189115585865843,1.499270640456107,-5.504299568023733,1.0],[1.7524318014234903,2.751994528920916,-3.7503931454958614,0.7211220289091633],[1.7524318014234903,2.751994528920916,-3.7503931454958614,0.7211220289091633],[1.734845641775067,2.9898501557991315,-1.7757320621493409,0.5397845002243866],[1.1138160043788465,1.3935132360784503,1.3462066777315576,0.2500000000000046],[-2.3127850816539373,0.6562866638228025,1.1202417913564096,0.9999999999999999],[-3.811282163960433,0.2276413441822511,0.7804949302269397,0.2500000000001588],[-4.999364535380955,1.3110520818945035,5.132279201832257,0.25000000000000133],[-6.209055701035058,1.8888220278789905,9.055360274864263,0.9999999999986553]],"u":[[4.49291836448399,-3.7072333056929567,1.513253354408808,0.4329999390878399,-0.26296260593005855,0.14911928351535383,1.7556540743429678,0.7331217814191556,-1.2207740164848053,1.8379878783097925],[-3.922188043981557,0.516889892738091],[1.3994452255196839,0.06539716144005005],[-0.38741872052679494,1.766465464216244],[4.105481634406949,-0.5851573212584602],[-5.007481147111662,-0.8938720517607619],[1.7204024238415796,4.935691333886024],[-1.0435742859421027,-2.99771339577019],[2.4519182948262888,-0.22666455721291712],[-1.6694152941105462,0.9508862139747429],[-0.3444354732864596,0.2052144667065343],[10.378299651698532,-6.733983932423545],[-0.13499852054096273,4.046961206699746],[-19.026364685959287,6.596542598039008],[-5.630023557613393,0.12378909768332846],[-0.8792478339351533,-2.6318442073021853],[3.02883964292225,-1.866729318363562],[2.087957337480411,-11.061901482475522],[36.068600707175484,34.612400372400174],[-15.133095812311124,0.20154738032573],[25.335024449444834,35.39017866165739],[12.135358689223258,0.481989111932134],[-3.74538844663458,-1.7143724189562164],[9.201948191741343,-3.219138306286559],[21.237446650560873,1.2168708380316087],[34.313590587975355,13.701178035986239],[11.304226543879608,8.108151248919377],[-15.721625610697977,0.03944066282610681],[-8.591237434444551,14.350426049697354],[23.020957607522877,-23.274143769502828],[2.2012825365548228,11.373033762019936],[4.981729036235184,-2.6857271774857727],[0.40439540870032187,-37.24399024381818],[-10.837565010063292,67.85275076368276],[-30.019365105419865,-32.003002389246774],[12.733162036079683,-29.99493749585286],[4.151517321580501,-3.2301906400884874],[-35.85119213219515,-5.01504464681199],[24.027007889063235,20.38229589203828]],"w":[[],[],[],[],[],[],[],[],[],[],[],[],[],[],[],[],[],[],[],[],[],[],[],[],[],[],[],[],[],[],[],[],[],[],[],[],[],[],[]],"gamma":[[],[],[],[],[],[],[],[],[],[],[],[],[],[],[],[],[],[],[],[],[],[],[],[],[],[],[],[],[],[],[],[],[],[],[],[],[],[],[]],"b":[[],[],[],[],[],[],[],[],[],[],[],[],[],[],[],[],[],[],[],[],[],[],[],[],[],[],[],[],[],[],[],[],[],[],[],[],[],[],[]],"z":[[],[],[],[],[],[],[],[],[],[],[],[],[],[],[],[],[],[],[],[],[],[],[],[],[],[],[],[],[],[],[],[],[],[],[],[],[],[],[]],"theta":[[],[],[],[],[],[],[],[],[],[],[],[],[],[],[],[],[],[],[],[],[],[],[],[],[],[],[],[],[],[],[],[],[],[],[],[],[],[],[]],"iq0":[1,2,3,4],"iq1":[5,6,7,8],"iu1":[9,10],"iw1":[],"iq2":[1,2,3,4],"igamma1":[],"ib1":[],"nq":4,"nu":2,"nw":0,"nc":0,"nb":0,"nz":0,"nθ":0}