{"H":14,"h":0.05,"kappa":[2.0e-8,2.0e-8,2.0e-8,2.0e-8,2.0e-8,2.0e-8,2.0e-8,2.0e-8,2.0e-8,2.0e-8,2.0e-8,2.0e-8,2.0e-8,2.0e-8],"q":[[0.0,-0.10000001,0.0],[0.0,-0.10000001,0.0],[0.17032741465877096,-0.09851033221152139,-0.017198185403698163],[0.17032741466180815,-0.09773063526593763,-0.02794654026446353],[0.17032741441675409,-0.09752439870608404,-0.034002100616965056],[0.17032741440973698,-0.09783975248470018,-0.03665501364449497],[0.17032741440973698,-0.09872622898725497,-0.036854035081787306],[0.17032741443320798,-0.10018923571074827,-0.035295292166555685],[0.17032741443320798,-0.10211065966517177,-0.032490453159828674],[0.17032741443320798,-0.1044182160112603,-0.028814888403206184],[0.17032741461669829,-0.1070605635942467,-0.02454115633510736],[0.17032741500747056,-0.10990663279922287,-0.01984519119091667],[0.17032741565628756,-0.11287335175584315,-0.014753641283887023],[0.17032741619494216,-0.1163211657274165,-0.009139411590301526]],"u":[[2.2590584293814344,-4.0319581194053775],[-0.14199608134384967,1.2899660822061358],[-0.1146913886175378,0.9385586925654898],[-0.10431800812472636,0.6805294469838787],[-0.11422454478772881,0.4907783180475167],[-0.11530561482297141,0.3515531834921515],[-0.0916834461860403,0.24921921829907734],[-0.07722647833300611,0.1741451499790957],[-0.06695809556539123,0.11963358164134108],[-0.04074427037740369,0.08444665462525602],[-0.02412989250649389,0.07911698902662334],[-0.0962189615260578,0.1045359788280768],[-0.07440751395445577,0.029748540816955382],[-0.03937386144506422,0.0012283487164686392]],"w":[[0.0],[-0.0],[0.0],[0.0],[0.0],[0.0],[-0.0],[-0.0],[0.0],[0.0],[-0.0],[-0.0],[0.0],[0.0]],"gamma":[[1.8323427021507204],[8.152135014630348e-8],[6.437957081101335e-7],[5.586805082076868e-8],[5.910595905940508e-18],[4.795916658999625e-7],[2.1313466535286332e-19],[3.9492911165731753e-20],[1.725262871069199e-7],[5.957352550642133e-8],[6.274188397483311e-8],[4.463160596580533e-8],[1.0776027394312401e-8],[7.295071258227662e-20]],"b":[[0.10015183707912619,-0.07075662613318229,0.07075662613317979,0.1001518370791287,-0.07075662613318277,-0.10015183707912415,-0.10015183707912648,0.07075662613318055,0.9161699536677532],[0.0490081322672148,-0.01367984754753156,0.04977896323607875,0.047910721356307334,-0.008606033418283698,-0.001974603812820045,-0.010069657661955517,0.052008826060049196,4.074496182794276e-8],[0.02054337026838941,0.016737420715828837,0.024343442791080923,0.020325865702515458,0.020694600733476676,0.027472315255361045,0.021700283142963486,0.02484203776055553,3.214012137263579e-7],[0.02080473089792851,0.018417733017016276,0.02340710471357365,0.021598865220045057,0.021529530626575217,0.02536409964414027,0.02144191124029856,0.022771566084805336,2.7408873168731762e-8],[0.01763774313347452,0.01705724357694552,0.017500827740612783,0.01675528722643243,0.017446016333924185,0.018010102739405634,0.01763731161775978,0.01877793888825864,4.430405830613618e-18],[0.01751218142356226,0.01785246295174948,0.017931831547617003,0.01729665783895426,0.01735330325682244,0.017645582236266368,0.017992286946677368,0.018447178115437723,-2.2727615704523594e-7],[0.01709081671762725,0.01654487141162228,0.016657336796089186,0.015062297646716686,0.016143430524048655,0.016752562069242447,0.017317627424872802,0.01874447220721134,-1.0677909091324524e-19],[0.017816374717592055,0.017003257663907423,0.01841244136287518,0.01652239986593231,0.017153712530197596,0.01842678714235087,0.018535108320160205,0.019457402068821492,-1.971998580326418e-20],[0.018337581372417828,0.017496466329967385,0.020057346172017085,0.01807640466054384,0.018107910206029556,0.01988713822796341,0.019594235585420738,0.0198886232390568,-8.362192363433571e-8],[0.018366370233069647,0.017478116125859876,0.02102728869744635,0.018983317153219766,0.018513071305323613,0.020694076523956332,0.020155971272813926,0.019918410951688184,-2.8657088851462524e-8],[0.01868655441352555,0.017987498623434288,0.022449433134215577,0.02029374836571288,0.01924136826961968,0.021849757251972125,0.021085516757937114,0.020377420721896296,-2.533719744249185e-8],[0.019497945728060528,0.0191222094270275,0.0242988649245908,0.021943747303605605,0.020345541109380676,0.023357952428457205,0.022430480814429558,0.021321413502663523,-1.3260912298477709e-8],[0.020414998370275373,0.0203811036912282,0.02557758745990383,0.023320454707274906,0.021358072861808935,0.02440830255789561,0.023519055059987526,0.02209497735278958,-2.135111808513533e-9],[0.02150275600369399,0.02145543488710331,0.026457144143237396,0.024892023874555528,0.022690778614531868,0.025566624064935133,0.02429791807065843,0.022600313912107022,3.284436427427554e-19]],"z":[[0.17032741465877096,-0.09851033221152139,-0.017198185403698163,1.8323427021507204,4.8995020867731365e-11,0.12262500000000001,0.12262500000000001,0.12262500000000001,0.12262500000000001,0.9161713510753602,0.10015183707912619,-0.07075662613318229,0.07075662613317979,0.1001518370791287,-0.07075662613318277,-0.10015183707912415,-0.10015183707912648,0.07075662613318055,0.9161699536677532,0.48175868069658073,0.48175868069657957,0.4817586806965813,0.48175868069658023,0.0033816485991915984,-0.393468026799566,0.27798262196078743,-0.27798262196078743,-0.393468026799566,0.27798262196078743,0.393468026799566,0.393468026799566,-0.27798262196078743,-0.0033816485527600458,0.0,0.0],[0.17032741466180815,-0.09773063526593763,-0.02794654026446353,8.152135014630348e-8,0.0010534859291658795,0.12262500000000001,0.12262500000000001,0.12262500000000001,0.12262500000000001,4.076067507315174e-8,0.0490081322672148,-0.01367984754753156,0.04977896323607875,0.047910721356307334,-0.008606033418283698,-0.001974603812820045,-0.010069657661955517,0.052008826060049196,4.074496182794276e-8,8.553544177336444e-11,7.278110591797908e-11,9.991442289177354e-11,7.766536295735165e-11,0.21627517493572193,-6.978121933915817e-12,5.010602025629819e-12,-5.010602025629819e-12,-6.978121933915817e-12,5.010602025629819e-12,6.978121933915817e-12,6.978121933915817e-12,-5.010602025629819e-12,-0.21449962853772933,0.0,0.0],[0.17032741441675409,-0.09752439870608404,-0.034002100616965056,6.437957081101335e-7,0.0018766818872857612,0.12262500000000001,0.12262500000000001,0.12262500000000001,0.12262500000000001,3.2189785405506676e-7,0.02054337026838941,0.016737420715828837,0.024343442791080923,0.020325865702515458,0.020694600733476676,0.027472315255361045,0.021700283142963486,0.02484203776055553,3.214012137263579e-7,1.982216454964544e-9,1.6048064801911085e-9,2.5424184991557265e-9,2.1479270040348947e-9,0.12337370904086817,5.88190261663558e-10,-3.684089460653641e-10,3.684089460653641e-10,5.881902616635712e-10,-3.684089460653641e-10,-5.881902616635712e-10,-5.881902616635712e-10,3.684089460653641e-10,-0.12005780754004272,0.0,0.0],[0.17032741440973698,-0.09783975248470018,-0.03665501364449497,5.586805082076868e-8,0.0026371548678396483,0.12262500000000001,0.12262500000000001,0.12262500000000001,0.12262500000000001,2.793402541038434e-8,0.02080473089792851,0.018417733017016276,0.02340710471357365,0.021598865220045057,0.021529530626575217,0.02536409964414027,0.02144191124029856,0.022771566084805336,2.7408873168731762e-8,4.766528692198568e-10,3.875590040822008e-10,6.425976771959014e-10,5.241212239295716e-10,0.057852045778743706,2.0621707925141763e-11,-5.180936205238657e-12,5.180936205238657e-12,2.0621707925141763e-11,-5.180936205238657e-12,-2.0621707925141763e-11,-2.0621707925141763e-11,5.1809362052385536e-12,-0.05122138555455485,0.0,0.0],[0.17032741440973698,-0.09872622898725497,-0.036854035081787306,5.910595905940508e-18,0.0035445385533409476,0.12262500000000001,0.12262500000000001,0.12262500000000001,0.12262500000000001,2.955297952970254e-18,0.01763774313347452,0.01705724357694552,0.017500827740612783,0.01675528722643243,0.017446016333924185,0.018010102739405634,0.01763731161775978,0.01877793888825864,4.430405830613618e-18,-5.315181374857488e-19,1.5036654611111448e-19,-3.41228546290375e-20,6.401335693588617e-19,0.0209521552522455,1.684825873476077e-18,2.34323020820501e-18,-2.34323020820501e-18,1.684825873476077e-18,2.34323020820501e-18,-1.684825873476077e-18,-1.684825873476077e-18,-2.34323020820501e-18,-0.0009175790087456316,0.0,0.0],[0.17032741443320798,-0.10018923571074827,-0.035295292166555685,4.795916658999625e-7,0.004722159428889909,0.12262500000000001,0.12262500000000001,0.12262500000000001,0.12262500000000001,2.3979583294998126e-7,0.01751218142356226,0.01785246295174948,0.017931831547617003,0.01729665783895426,0.01735330325682244,0.017645582236266368,0.017992286946677368,0.018447178115437723,-2.2727615704523594e-7,5.880609136379805e-9,6.287955320542763e-9,5.351360616982228e-9,5.733786133319341e-9,0.047163948742688706,3.054933342974743e-11,1.59221554033371e-10,-1.59221554033371e-10,3.054933342974743e-11,1.59221554033371e-10,-3.054933342974743e-11,-3.054933342974743e-11,-1.5922155403336107e-10,0.0356834815665027,0.0,0.0],[0.17032741443320798,-0.10211065966517177,-0.032490453159828674,2.1313466535286332e-19,0.006140344538527781,0.12262500000000001,0.12262500000000001,0.12262500000000001,0.12262500000000001,1.0656733267643166e-19,0.01709081671762725,0.01654487141162228,0.016657336796089186,0.015062297646716686,0.016143430524048655,0.016752562069242447,0.017317627424872802,0.01874447220721134,-1.0677909091324524e-19,-4.15823693930407e-20,2.4621858113253422e-20,7.686162251842733e-21,7.450746649510141e-20,0.07436118255110358,1.6796036754738767e-19,2.4025874481908965e-19,-2.4025874481908965e-19,1.6796036754738767e-19,2.4025874481908965e-19,-1.6796036754738767e-19,-1.6796036754738767e-19,-2.4025874481908965e-19,0.061798842871263644,0.0,0.0],[0.17032741443320798,-0.1044182160112603,-0.028814888403206184,3.9492911165731753e-20,0.007791482219951922,0.12262500000000001,0.12262500000000001,0.12262500000000001,0.12262500000000001,1.9746455582865877e-20,0.017816374717592055,0.017003257663907423,0.01841244136287518,0.01652239986593231,0.017153712530197596,0.01842678714235087,0.018535108320160205,0.019457402068821492,-1.971998580326418e-20,-3.757054342215852e-21,3.6577926687094884e-21,1.6576699475562675e-21,9.072516958481608e-21,0.09613905360453126,1.757691593250414e-20,2.595672082676087e-20,-2.595672082676087e-20,1.757691593250414e-20,2.595672082676087e-20,-1.757691593250414e-20,-1.757691593250414e-20,-2.595672082676087e-20,0.08027038520255983,0.0,0.0],[0.17032741461669829,-0.1070605635942467,-0.02454115633510736,1.725262871069199e-7,0.009671174255351812,0.1226250000851812,0.1226250000851812,0.1226250000851812,0.1226250000851812,8.63116867551347e-8,0.018337581372417828,0.017496466329967385,0.020057346172017085,0.01807640466054384,0.018107910206029556,0.01988713822796341,0.019594235585420738,0.0198886232390568,-8.362192363433571e-8,8.204053438201132e-9,8.695735527681626e-9,7.565767721326857e-9,8.048370057747198e-9,0.1135186311574551,-1.7242195976963946e-10,6.45440972228359e-10,-6.260236915583417e-10,-1.7242195976963946e-10,6.45440972228359e-10,1.9183924043964356e-10,1.9183924043964356e-10,-6.260236915583417e-10,0.09319559170877662,0.0,0.0],[0.17032741500747056,-0.10990663279922287,-0.01984519119091667,5.957352550642133e-8,0.011680069103288008,0.12262500004108054,0.12262500004108054,0.12262500004108054,0.12262500004108054,2.981017379472916e-8,0.018366370233069647,0.017478116125859876,0.02102728869744635,0.018983317153219766,0.018513071305323613,0.020694076523956332,0.020155971272813926,0.019918410951688184,-2.8657088851462524e-8,3.1907937692309945e-9,3.0448516290427985e-9,3.1765565976120853e-9,3.1698516184089974e-9,0.1277300898377211,-7.537740101674084e-10,8.421425842865704e-10,-8.327781676789403e-10,-7.537740101674084e-10,8.421425842865704e-10,7.631384267750384e-10,7.631384267750384e-10,-8.327781676789403e-10,0.10220868911760941,0.0,0.0],[0.17032741565628756,-0.11287335175584315,-0.014753641283887023,6.274188397483311e-8,0.013740814298002564,0.12262500006092841,0.12262500006092841,0.12262500006092841,0.12262500006092841,3.1405663969215893e-8,0.01868655441352555,0.017987498623434288,0.022449433134215577,0.02029374836571288,0.01924136826961968,0.021849757251972125,0.021085516757937114,0.020377420721896296,-2.533719744249185e-8,3.2252431565583293e-9,2.9270544686745473e-9,3.5542864181764984e-9,3.3936423240748673e-9,0.14179534772582503,-1.2536067752950991e-9,1.396232470224189e-9,-1.3823436775045759e-9,-1.2536067752950991e-9,1.396232470224189e-9,1.2674955680146858e-9,1.2674955680146858e-9,-1.3823436775046023e-9,0.110414912184913,0.0,0.0],[0.17032741619494216,-0.1163211657274165,-0.009139411590301526,4.463160596580533e-8,0.01618709584476599,0.12262500005439492,0.12262500005439492,0.12262500005439492,0.12262500005439492,2.234680164444048e-8,0.019497945728060528,0.0191222094270275,0.0242988649245908,0.021943747303605605,0.020345541109380676,0.023357952428457205,0.022430480814429558,0.021321413502663523,-1.3260912298477709e-8,2.576833631670175e-9,2.360865412016033e-9,2.8804467883129836e-9,2.762548090486344e-9,0.1605660111929959,-1.023418731933931e-9,1.1832911173220983e-9,-1.170891652707078e-9,-1.0234187319339045e-9,1.1832911173220983e-9,1.0358181965489513e-9,1.0358181965489513e-9,-1.1708916527071045e-9,0.12234819766391089,0.0,0.0],[0.17032741634711085,-0.12014101731850536,-0.003376439215375477,1.0776027394312401e-8,0.018974818738027484,0.12262500001349248,0.12262500001349248,0.12262500001349248,0.12262500001349248,5.395702809699396e-9,0.020414998370275373,0.0203811036912282,0.02557758745990383,0.023320454707274906,0.021358072861808935,0.02440830255789561,0.023519055059987526,0.02209497735278958,-2.135111808513533e-9,7.272466489060078e-10,7.553581760137218e-10,7.54799894020427e-10,7.758422831987317e-10,0.1741752208769766,-2.8277699664201895e-10,3.433409563265425e-10,-3.4026531130928805e-10,-2.8277699664201895e-10,3.433409563265425e-10,2.858526416592734e-10,2.858526416592734e-10,-3.4026531130928805e-10,0.12654124580500678,0.0,0.0],[0.17032741634711085,-0.12415773821681955,0.00239267490313299,7.295071258227662e-20,0.021955521822747306,0.12262500000000001,0.12262500000000001,0.12262500000000001,0.12262500000000001,3.647535629113831e-20,0.02150275600369399,0.02145543488710331,0.026457144143237396,0.024892023874555528,0.022690778614531868,0.025566624064935133,0.02429791807065843,0.022600313912107022,3.284436427427554e-19,-9.939036957478677e-17,9.525690173174499e-17,1.0386640930543371e-16,2.756238063525001e-16,0.18585187647233056,4.3286091132275756e-16,5.964955039423941e-16,-5.964955039423941e-16,4.3286091132275756e-16,5.964955039423941e-16,-4.3286091132275756e-16,-4.3286091132275756e-16,-5.964955039423941e-16,0.12732968981555762,0.0,0.0]],"theta":[[0.0,-0.10000001,0.0,0.0,-0.10000001,0.0,2.2590584293814344,-4.0319581194053775,0.0,0.05,0.0,0.0,0.0],[0.0,-0.10000001,0.0,0.17032741465877096,-0.09851033221152139,-0.017198185403698163,-0.14199608134384967,1.2899660822061358,-0.0,0.05,0.0,0.0,0.0],[0.17032741465877096,-0.09851033221152139,-0.017198185403698163,0.17032741466180815,-0.09773063526593763,-0.02794654026446353,-0.1146913886175378,0.9385586925654898,0.0,0.05,0.0,0.0,0.0],[0.17032741466180815,-0.09773063526593763,-0.02794654026446353,0.17032741441675409,-0.09752439870608404,-0.034002100616965056,-0.10431800812472636,0.6805294469838787,0.0,0.05,0.0,0.0,0.0],[0.17032741441675409,-0.09752439870608404,-0.034002100616965056,0.17032741440973698,-0.09783975248470018,-0.03665501364449497,-0.11422454478772881,0.4907783180475167,0.0,0.05,0.0,0.0,0.0],[0.17032741440973698,-0.09783975248470018,-0.03665501364449497,0.17032741440973698,-0.09872622898725497,-0.036854035081787306,-0.11530561482297141,0.3515531834921515,0.0,0.05,0.0,0.0,0.0],[0.17032741440973698,-0.09872622898725497,-0.036854035081787306,0.17032741443320798,-0.10018923571074827,-0.035295292166555685,-0.0916834461860403,0.24921921829907734,-0.0,0.05,0.0,0.0,0.0],[0.17032741443320798,-0.10018923571074827,-0.035295292166555685,0.17032741443320798,-0.10211065966517177,-0.032490453159828674,-0.07722647833300611,0.1741451499790957,-0.0,0.05,0.0,0.0,0.0],[0.17032741443320798,-0.10211065966517177,-0.032490453159828674,0.17032741443320798,-0.1044182160112603,-0.028814888403206184,-0.06695809556539123,0.11963358164134108,0.0,0.05,0.0,0.0,0.0],[0.17032741443320798,-0.1044182160112603,-0.028814888403206184,0.17032741461669829,-0.1070605635942467,-0.02454115633510736,-0.04074427037740369,0.08444665462525602,0.0,0.05,0.0,0.0,0.0],[0.17032741461669829,-0.1070605635942467,-0.02454115633510736,0.17032741500747056,-0.10990663279922287,-0.01984519119091667,-0.02412989250649389,0.07911698902662334,-0.0,0.05,0.0,0.0,0.0],[0.17032741500747056,-0.10990663279922287,-0.01984519119091667,0.17032741565628756,-0.11287335175584315,-0.014753641283887023,-0.0962189615260578,0.1045359788280768,-0.0,0.05,0.0,0.0,0.0],[0.17032741565628756,-0.11287335175584315,-0.014753641283887023,0.17032741619494216,-0.1163211657274165,-0.009139411590301526,-0.07440751395445577,0.029748540816955382,0.0,0.05,0.0,0.0,0.0],[0.17032741619494216,-0.1163211657274165,-0.009139411590301526,0.17032741634711085,-0.12014101731850536,-0.003376439215375477,-0.03937386144506422,0.0012283487164686392,0.0,0.05,0.0,0.0,0.0]],"iq0":[1,2,3],"iq1":[4,5,6],"iu1":[7,8],"iw1":[9],"iq2":[1,2,3],"igamma1":[4],"ib1":[5,6,7,8,9,10,11,12,13],"nq":3,"nu":2,"nw":1,"nc":1,"nb":9,"nz":35,"nθ":13}