{"H":14,"h":0.05,"kappa":[2.0e-8,2.0e-8,2.0e-8,2.0e-8,2.0e-8,2.0e-8,2.0e-8,2.0e-8,2.0e-8,2.0e-8,2.0e-8,2.0e-8,2.0e-8,2.0e-8],"q":[[0.0,0.0,0.0,-0.10000001,0.0],[0.0,0.0,0.0,-0.10000001,0.0],[0.01684521808491245,-0.00712070487043826,0.09491756756381574,-0.08268517134681622,-0.016802859994833583],[0.03864622368231135,-0.015140850432946116,0.20999124265439495,-0.05907113849207177,-0.03638907399763008],[0.06146107798202023,-0.022086712481635698,0.32519759459150965,-0.03310065973739653,-0.054620665521117426],[0.08412987394404536,-0.027256182979179873,0.43684727636928455,-0.006123274016767883,-0.07032678537151918],[0.10826709359875132,-0.029293007020817326,0.543249985605487,0.023106461127749427,-0.0817182073424208],[0.1367815620570759,-0.025264782348156087,0.6390088855398767,0.057029972170430314,-0.0856008332554598],[0.17048595895207025,-0.0135545399103943,0.7249796521051299,0.0962145627780049,-0.0805211373860692],[0.2092719078891112,0.006836789277405777,0.8015295500923221,0.14034282877131748,-0.0656170278606721],[0.2525581362046942,0.036369452570025024,0.8686214304793648,0.18864388254569192,-0.04054444207179553],[0.299481682143261,0.07490685285210774,0.9266509790253626,0.240137201348021,-0.005585474267844227],[0.34902339916979547,0.12173044103193897,0.9766972011749937,0.2937806903649192,0.038369618473200355],[0.40007830985314036,0.17559257567941183,1.0204523467292534,0.34853524295265015,0.08989486947298539]],"u":[[4.000001380956597,-3.5680824723893725],[1.5670506320930127,-0.6363124632089168],[0.7055164153121574,0.23828697807212684],[0.41680027968279454,0.49931966875772105],[0.7044771116698039,0.9134192902228895],[1.2555696905513276,1.6587026351820113],[1.3804636688091447,2.0251352795353803],[1.303913994942345,2.25107613141269],[1.1254183335866692,2.3536451951302944],[0.8998341049840466,2.3123200685159837],[0.6601469325858851,2.1329553006531263],[0.42089718423878963,1.832487659737028],[0.18693613283061694,1.4169087886664755],[-0.016376452890412452,0.8558876226254739]],"w":[[],[],[],[],[],[],[],[],[],[],[],[],[],[]],"gamma":[[0.5149494816305181],[0.2838617799844244],[0.21152326993840942],[0.19274573219375107],[0.2435326402939168],[0.3479040565585584],[0.3999864763331007],[0.42484850523406975],[0.43212339781490466],[0.4248687079577729],[0.40535522155087134],[0.375342376920156],[0.3352926228862954],[0.2834384735302146]],"b":[[-0.05988149372574188,-0.013169243138932576,-0.026300963149656163,0.055384852693302275,-0.060823112155496614,-0.007731208270049186,-0.053123719590697165,0.03061197472957021,0.25747383131493234],[-0.06099249947618481,-0.006256009603708667,-0.03143973348599978,0.0526380643038925,-0.06030292790291762,-0.011080592975536374,-0.055360880666048294,0.026351386050295387,0.14193086069942698],[-0.06127431315605852,-0.0021636036942629952,-0.035927691149851386,0.049683233190667746,-0.05941661958889202,-0.015129043814890693,-0.05733163738499754,0.021732602384553983,0.10576157971860946],[-0.061287580750462436,-0.0017478792765708716,-0.04006840375307062,0.04640846551066442,-0.057966786368049195,-0.0199768448057195,-0.05901728237420513,0.016618755453932123,0.09637284994842332],[-0.06049535666268904,-0.009976668725200847,-0.04762447812936214,0.038615172120811385,-0.05584698049006234,-0.025304885667396936,-0.060671937756341776,0.008839597067057572,0.08808931332060045],[-0.05698316841019623,-0.022630518128707162,-0.05781535351088144,0.020410964033532392,-0.05323192819295261,-0.03042341306455488,-0.061239084732212574,-0.0029994821637828475,0.06297174990040066],[-0.053106918465070395,-0.03064111205371965,-0.061307390239557884,0.0007915325449256855,-0.050407845763343055,-0.034903748403299656,-0.05962703262903836,-0.014277239835357806,0.04351052967032237],[-0.04968600839221184,-0.035923852801753746,-0.05954362188401523,-0.014621208273366068,-0.047679620006162354,-0.038547068220438796,-0.056638626671420174,-0.0234795359150649,0.027352511964903015],[-0.04672477447740049,-0.03969909412239181,-0.05579622122258852,-0.02541661510283548,-0.04517980902946466,-0.041448853750259945,-0.0531543849967628,-0.030558697319891595,0.01540539242880691],[-0.044153050041862756,-0.04254093087832063,-0.05181620742648433,-0.03277656594671915,-0.04293310118085503,-0.043771811050166316,-0.04973238820846661,-0.03585961778326553,0.007804961125759263],[-0.04191198110533054,-0.04475051391658092,-0.04826080266602322,-0.037816895456949176,-0.04092253005325963,-0.04565708258255137,-0.04665415408808634,-0.039782063323418576,0.003874057539780341],[-0.03995525389310351,-0.046505917282505756,-0.0453156806887682,-0.041300263191202675,-0.0391180060581164,-0.04721233162961383,-0.0440316562960461,-0.04266656653278289,0.0028013843080208975],[-0.03824590583733863,-0.047921533178443644,-0.04303016536867917,-0.04367639549975498,-0.037481889677891456,-0.048521444757390106,-0.041910871674770915,-0.04475155293978387,0.004266065692838164],[-0.036753811970157625,-0.04907524793212605,-0.04157736175382415,-0.04506157613716323,-0.035940159287810504,-0.04967421467482359,-0.040411261655088945,-0.046110222125500915,0.010029176178158884]],"z":[[0.01684521808491245,-0.00712070487043826,0.09491756756381574,-0.08268517134681622,-0.016802859994833583,0.5149494816305181,1.6694428272788173e-9,0.061312500000000006,0.061312500000000006,0.061312500000000006,0.061312500000000006,0.25747474081525906,-0.05988149372574188,-0.013169243138932576,-0.026300963149656163,0.055384852693302275,-0.060823112155496614,-0.007731208270049186,-0.053123719590697165,0.03061197472957021,0.25747383131493234,0.1330371130901857,0.38677997804302156,0.5119799035246766,0.6277127518715833,0.00382648840510732,0.12993208665200492,0.028574892038888855,0.16591537225059494,-0.34938637245500925,0.5078933511459031,0.06455817763747888,0.5438766367444932,-0.31340308685641927,-0.0038264867411315537],[0.03864622368231135,-0.015140850432946116,0.20999124265439495,-0.05907113849207177,-0.03638907399763008,0.2838617799844244,6.980802992104344e-11,0.061312500000000006,0.061312500000000006,0.061312500000000006,0.061312500000000006,0.1419308899922122,-0.06099249947618481,-0.006256009603708667,-0.03143973348599978,0.0526380643038925,-0.06030292790291762,-0.011080592975536374,-0.055360880666048294,0.026351386050295387,0.14193086069942698,0.16380889297596377,0.5049021681825707,0.6234021783305086,0.7853172110553853,0.003651080896140879,0.1629539460928074,0.01671421005950683,0.258902990638314,-0.43346907710532767,0.6131372332576419,0.11266325460501342,0.7090862778031486,-0.33752003255982105,-0.003651080828557585],[0.06146107798202023,-0.022086712481635698,0.32519759459150965,-0.03310065973739653,-0.054620665521117426,0.21152326993840942,3.0040844586608685e-10,0.061312500000000006,0.061312500000000006,0.061312500000000006,0.061312500000000006,0.10576163496920471,-0.06127431315605852,-0.0021636036942629952,-0.035927691149851386,0.049683233190667746,-0.05941661958889202,-0.015129043814890693,-0.05733163738499754,0.021732602384553983,0.10576157971860946,0.16444733914733037,0.5317222528468378,0.6201947793744891,0.8002044683335798,0.003635834433464549,0.1643449175284789,0.00580303939827648,0.3115768056221095,-0.4308694094394904,0.6010173663662457,0.15303492749190706,0.7482492544598764,-0.28363752134585984,-0.0036358341431651712],[0.08412987394404536,-0.027256182979179873,0.43684727636928455,-0.006123274016767883,-0.07032678537151918,0.19274573219375107,3.132829895718648e-10,0.061312500000000006,0.061312500000000006,0.061312500000000006,0.061312500000000006,0.09637286609687554,-0.061287580750462436,-0.0017478792765708716,-0.04006840375307062,0.04640846551066442,-0.057966786368049195,-0.0199768448057195,-0.05901728237420513,0.016618755453932123,0.09637284994842332,0.15663565926336914,0.5287150387161816,0.5936236353305587,0.7793547861534122,0.004101682248958955,0.15657199776710376,0.004465324433433846,0.3455211848561854,-0.40019333142428243,0.56123065362482,0.19341451152251546,0.7501798407139016,-0.21124414433520086,-0.004101681946803199],[0.10826709359875132,-0.029293007020817326,0.543249985605487,0.023106461127749427,-0.0817182073424208,0.2435326402939168,7.603356552725672e-9,0.061312500000000006,0.061312500000000006,0.061312500000000006,0.061312500000000006,0.1217663201469584,-0.06049535666268904,-0.009976668725200847,-0.04762447812936214,0.038615172120811385,-0.05584698049006234,-0.025304885667396936,-0.060671937756341776,0.008839597067057572,0.08808931332060045,0.19314649994016983,0.5285864011993537,0.609216100238342,0.7830978641732737,4.3949341872104975e-8,0.19057233584925098,0.03142847779606698,0.4105794344653032,-0.3329085380776174,0.5549093517229354,0.2514355764121193,0.7749164503389875,-0.1129014394615651,-3.505886835691276e-8],[0.1367815620570759,-0.025264782348156087,0.6390088855398767,0.057029972170430314,-0.0856008332554598,0.3479040565585584,1.6223977697982038e-8,0.061312500000000006,0.061312500000000006,0.061312500000000006,0.061312500000000006,0.1739520282792792,-0.05698316841019623,-0.022630518128707162,-0.05781535351088144,0.020410964033532392,-0.05323192819295261,-0.03042341306455488,-0.061239084732212574,-0.0029994821637828475,0.06297174990040066,0.32530961495948907,0.5628877669849933,0.7023637999206587,0.8392444246805416,3.859037433423577e-8,0.30233922234828425,0.12007214038514583,0.5307817222345703,-0.18738565336498222,0.6097970160984123,0.34851464027143186,0.8382395159846985,0.041056846521303814,-1.828685890727295e-8],[0.17048595895207025,-0.0135545399103943,0.7249796521051299,0.0962145627780049,-0.0805211373860692,0.3999864763331007,3.595936017690211e-9,0.061312500000000006,0.061312500000000006,0.061312500000000006,0.061312500000000006,0.19999323816655035,-0.053106918465070395,-0.03064111205371965,-0.061307390239557884,0.0007915325449256855,-0.050407845763343055,-0.034903748403299656,-0.05962703262903836,-0.014277239835357806,0.04351052967032237,0.498020736794656,0.6594603446412576,0.8377711810535554,0.9427215100894241,6.947560501262593e-9,0.43136957376481067,0.24888740111443106,0.6594053855406918,-0.008513515379840943,0.6887704902590827,0.4769232128903123,0.9168063020349638,0.21952229639604037,-1.8866685886747783e-9],[0.2092719078891112,0.006836789277405777,0.8015295500923221,0.14034282877131748,-0.0656170278606721,0.42484850523406975,1.0053818190715232e-9,0.061312500000000006,0.061312500000000006,0.061312500000000006,0.061312500000000006,0.21242425261703488,-0.04968600839221184,-0.035923852801753746,-0.05954362188401523,-0.014621208273366068,-0.047679620006162354,-0.038547068220438796,-0.056638626671420174,-0.0234795359150649,0.027352511964903015,0.6900910864107218,0.8023597688583111,0.993026641125579,1.0740844479855682,1.8060753596647648e-9,0.5592313413085478,0.40433403513075633,0.7792115273660644,0.1913389463237304,0.7722264301155738,0.6243142211882727,0.9922066161730904,0.41131913238124684,-1.5556236237750733e-10],[0.2525581362046942,0.036369452570025024,0.8686214304793648,0.18864388254569192,-0.04054444207179553,0.43212339781490466,1.341496221385148e-9,0.06131250000651618,0.06131250000651618,0.06131250000651618,0.06131250000651618,0.21606169891092322,-0.04672477447740049,-0.03969909412239181,-0.05579622122258852,-0.02541661510283548,-0.04517980902946466,-0.041448853750259945,-0.0531543849967628,-0.030558697319891595,0.01540539242880691,0.8878602709866155,0.9686483431203616,1.1534479327983622,1.2167275314010848,2.3820746262375355e-9,0.6766168577997191,0.5748786692426595,0.8814991629227736,0.40154555734044417,0.8499499697019345,0.7797609743657139,1.054832274824989,0.6064278624634986,2.256870778082093e-10],[0.299481682143261,0.07490685285210774,0.9266509790253626,0.240137201348021,-0.005585474267844227,0.4248687079577729,1.296507920858433e-9,0.06131250000601476,0.06131250000601476,0.06131250000601476,0.06131250000601476,0.21243435398209023,-0.044153050041862756,-0.04254093087832063,-0.05181620742648433,-0.03277656594671915,-0.04293310118085503,-0.043771811050166316,-0.04973238820846661,-0.03585961778326553,0.007804961125759263,1.077544140728795,1.1378052749070175,1.30722542890839,1.3573274440899687,2.1867094881938927e-9,0.7759732624583062,0.7476408695567668,0.9615780548575045,0.6082503493286253,0.9153637826864477,0.933245661955965,1.100968575085646,0.7938551417278236,6.274701613930296e-10],[0.34902339916979547,0.12173044103193897,0.9766972011749937,0.2937806903649192,0.038369618473200355,0.40535522155087134,2.0010436324981824e-11,0.061312500000000006,0.061312500000000006,0.061312500000000006,0.061312500000000006,0.20267761077543567,-0.04191198110533054,-0.04475051391658092,-0.04826080266602322,-0.037816895456949176,-0.04092253005325963,-0.04565708258255137,-0.04665415408808634,-0.039782063323418576,0.003874057539780341,1.2461815588404361,1.2929890691078099,1.4442012898490644,1.4847793172174841,3.495386019257261e-11,0.851864431414679,0.9095578420690899,1.0177482620582246,0.7975018544806142,0.9639204190031547,1.0754416727126352,1.1298042496467002,0.9633856851241597,6.325654678386489e-12],[0.40007830985314036,0.17559257567941183,1.0204523467292534,0.34853524295265015,0.08989486947298539,0.375342376920156,6.46241982686806e-11,0.061312500000000006,0.061312500000000006,0.061312500000000006,0.061312500000000006,0.187671188460078,-0.03995525389310351,-0.046505917282505756,-0.0453156806887682,-0.041300263191202675,-0.0391180060581164,-0.04721233162961383,-0.0440316562960461,-0.04266656653278289,0.0028013843080208975,1.382216520569092,1.4205519741099173,1.555265590217116,1.589432747086597,1.185436785147258e-10,0.9007431114235264,1.0484199334721618,1.049920973144193,0.9568875907060862,0.9922754541896022,1.1975977951928283,1.1414533159102687,1.1060654524267524,-2.560229730187364e-12],[0.45147779210187483,0.2347338101396825,1.0602632804455279,0.4033866748851998,0.14705239980294407,0.3352926228862954,3.631190107041303e-10,0.06131250000002962,0.06131250000002962,0.06131250000002962,0.06131250000002962,0.16764631144316347,-0.03824590583733863,-0.047921533178443644,-0.04303016536867917,-0.04367639549975498,-0.037481889677891456,-0.048521444757390106,-0.041910871674770915,-0.04475155293978387,0.004266065692838164,1.4742452770917915,1.5083014285093959,1.631581833502405,1.6624179202464568,6.814668264247689e-10,0.9196142069783618,1.1522624905582635,1.0585518436218455,1.0744492512090857,0.9974274463275398,1.2912001272017473,1.1363650829710237,1.2133868878525693,-7.943983632817917e-11],[0.502015124637536,0.2967834473772993,1.1002622953914,0.4574690265512681,0.20724892166394498,0.2834384735302146,1.5705030750597767e-9,0.061312500000033486,0.061312500000033486,0.061312500000033486,0.061312500000033486,0.14171923676512513,-0.036753811970157625,-0.04907524793212605,-0.04157736175382415,-0.04506157613716323,-0.035940159287810504,-0.04967421467482359,-0.040411261655088945,-0.046110222125500915,0.010029176178158884,1.506670072737829,1.5421749137239673,1.664523608972231,1.6967284995158132,3.0695553597965284e-9,0.903174207740206,1.2059564908693454,1.0457829045962197,1.1334203017793179,0.9757103968302334,1.348565187725359,1.118319093686247,1.2760289986353315,-8.320523191619025e-10]],"theta":[[0.0,0.0,0.0,-0.10000001,0.0,0.0,0.0,0.0,-0.10000001,0.0,4.000001380956597,-3.5680824723893725,0.05],[0.0,-8.673617379884035e-19,0.0,-0.10000001,0.0,0.01684521808491245,-0.00712070487043826,0.09491756756381574,-0.08268517134681622,-0.016802859994833583,1.5670506320930127,-0.6363124632089168,0.05],[0.01684521808491245,-0.00712070487043826,0.09491756756381575,-0.08268517134681622,-0.016802859994833583,0.03864622368231135,-0.015140850432946116,0.20999124265439495,-0.05907113849207177,-0.03638907399763008,0.7055164153121574,0.23828697807212684,0.05],[0.03864622368231135,-0.015140850432946117,0.20999124265439495,-0.05907113849207177,-0.03638907399763008,0.06146107798202023,-0.022086712481635698,0.32519759459150965,-0.03310065973739653,-0.054620665521117426,0.41680027968279454,0.49931966875772105,0.05],[0.06146107798202023,-0.022086712481635698,0.32519759459150965,-0.03310065973739653,-0.054620665521117426,0.08412987394404536,-0.027256182979179873,0.43684727636928455,-0.006123274016767883,-0.07032678537151918,0.7044771116698039,0.9134192902228895,0.05],[0.08412987394404536,-0.027256182979179873,0.43684727636928455,-0.006123274016767884,-0.07032678537151918,0.10826709359875132,-0.029293007020817326,0.543249985605487,0.023106461127749427,-0.0817182073424208,1.2555696905513276,1.6587026351820113,0.05],[0.10826709359875132,-0.029293007020817326,0.543249985605487,0.023106461127749424,-0.0817182073424208,0.1367815620570759,-0.025264782348156087,0.6390088855398767,0.057029972170430314,-0.0856008332554598,1.3804636688091447,2.0251352795353803,0.05],[0.1367815620570759,-0.025264782348156087,0.6390088855398767,0.057029972170430314,-0.0856008332554598,0.17048595895207025,-0.0135545399103943,0.7249796521051299,0.0962145627780049,-0.0805211373860692,1.303913994942345,2.25107613141269,0.05],[0.17048595895207025,-0.013554539910394299,0.7249796521051299,0.0962145627780049,-0.0805211373860692,0.2092719078891112,0.006836789277405777,0.8015295500923221,0.14034282877131748,-0.0656170278606721,1.1254183335866692,2.3536451951302944,0.05],[0.2092719078891112,0.006836789277405778,0.8015295500923221,0.14034282877131748,-0.0656170278606721,0.2525581362046942,0.036369452570025024,0.8686214304793648,0.18864388254569192,-0.04054444207179553,0.8998341049840466,2.3123200685159837,0.05],[0.2525581362046942,0.036369452570025024,0.8686214304793648,0.18864388254569192,-0.04054444207179553,0.299481682143261,0.07490685285210774,0.9266509790253626,0.240137201348021,-0.005585474267844227,0.6601469325858851,2.1329553006531263,0.05],[0.299481682143261,0.07490685285210774,0.9266509790253626,0.240137201348021,-0.005585474267844226,0.34902339916979547,0.12173044103193897,0.9766972011749937,0.2937806903649192,0.038369618473200355,0.42089718423878963,1.832487659737028,0.05],[0.34902339916979547,0.12173044103193897,0.9766972011749937,0.2937806903649192,0.038369618473200355,0.40007830985314036,0.17559257567941183,1.0204523467292534,0.34853524295265015,0.08989486947298539,0.18693613283061694,1.4169087886664755,0.05],[0.40007830985314036,0.17559257567941183,1.0204523467292534,0.34853524295265015,0.08989486947298539,0.45147779210187483,0.2347338101396825,1.0602632804455279,0.4033866748851998,0.14705239980294407,-0.016376452890412452,0.8558876226254739,0.05]],"iq0":[1,2,3,4,5],"iq1":[6,7,8,9,10],"iu1":[11,12],"iw1":[],"iq2":[1,2,3,4,5],"igamma1":[6],"ib1":[7,8,9,10,11,12,13,14,15],"nq":5,"nu":2,"nw":0,"nc":1,"nb":9,"nz":35,"nθ":13}