{"H":25,"h":0.1,"kappa":[2.0e-8,2.0e-8,2.0e-8,2.0e-8,2.0e-8,2.0e-8,2.0e-8,2.0e-8,2.0e-8,2.0e-8,2.0e-8,2.0e-8,2.0e-8,2.0e-8,2.0e-8,2.0e-8,2.0e-8,2.0e-8,2.0e-8,2.0e-8,2.0e-8,2.0e-8,2.0e-8,2.0e-8,2.0e-8],"q":[[0.0,0.0,0.0,-0.10000001,0.0],[0.0,0.0,0.0,-0.10000001,0.0],[0.03780151073466458,-0.007729109453794147,0.17726705076246316,-0.05804656741421128,-0.03624482299367869],[0.0824637460299063,-0.010130258066247424,0.36866105656586917,-0.0024748657067421953,-0.06290745352352865],[0.1471308772586748,0.014010143935104328,0.5259289672873646,0.07154940188379286,-0.05146840930320457],[0.21342779591393402,0.0521596038457254,0.6600519926704298,0.1473114052590043,-0.02286454498525433],[0.2734026944119634,0.09671930806684612,0.7759188408613329,0.21642442542834714,0.014539767450248547],[0.32423328447161226,0.1433908796905798,0.8766038091168334,0.27581880308414136,0.055892090911313294],[0.3654371785072762,0.1895041177306361,0.9645002737576928,0.3249009139389459,0.09808852108330546],[0.39768981350999244,0.23330177922140202,1.0415287607595656,0.3643155916655636,0.13903534101021497],[0.42223273677028406,0.2736613967099545,1.1092526370265323,0.3953192273440352,0.17735115288597506],[0.4405114725182243,0.30997143596440563,1.1689638144836731,0.4193967830793591,0.21222600157469831],[0.45393615508107843,0.34203316308617426,1.221750355378237,0.4380105467560358,0.24330943212261769],[0.4637384060340826,0.3699502724494905,1.2685462755871735,0.45245011255351775,0.2705894426828985],[0.47091055235168944,0.3940129618708736,1.3101596533484177,0.463766776711029,0.2942684555454113],[0.476203314428073,0.414599368369078,1.3472484980350636,0.47276386246301677,0.3146585345703333],[0.4801850830196448,0.4321118640487981,1.3805811740241973,0.48007883783317185,0.33211191988600264],[0.48328598761692326,0.44692194106948313,1.4109829624792634,0.48621996886667446,0.34696499064537417],[0.4857974779520161,0.4593262840440943,1.43887104233166,0.49151792592430205,0.3594900340815385],[0.48795355419108083,0.4695946322708231,1.4647477313927504,0.4962555199038854,0.36993983738758063],[0.48993038698993446,0.47802390930510813,1.4890423083097013,0.5006509729598021,0.3786002247161806],[0.4918355176297197,0.4849810443069371,1.5120983942715387,0.504845576182414,0.3858309627945934],[0.4936399756217672,0.49079017558257343,1.533580388166476,0.5087769742372981,0.39194245785716375],[0.4951684135697586,0.49553246187095984,1.5520012998207868,0.5121920043894811,0.39699212786298566],[0.4963030788192288,0.4991938382139529,1.5662139341190575,0.5147273834129111,0.40090576567244685]],"u":[[4.999946885577326,-3.7663092564208815],[1.872792204489329,1.0055300963875595],[2.491469349048041,4.243185892448537],[0.6081398706453323,2.0974844497711382],[-0.33945705517516345,1.2331375923294496],[-0.7061053495907039,0.7440842283414071],[-0.8041954360039156,0.44082020397294386],[-0.7685212632666758,0.24278177915652144],[-0.6661528387050843,0.1171631389499268],[-0.5372515795244697,0.04861271450269555],[-0.40782668886311235,0.025359627615657132],[-0.2933388963900865,0.03492604525782994],[-0.20057319739901036,0.06459243696118833],[-0.1306587423286154,0.10369928540303519],[-0.0746768297978525,0.1450537584501994],[-0.02805108480803775,0.18254534305426873],[0.004160136484343324,0.21110754195749237],[0.03694984670495666,0.2349637747492359],[0.06905250133735574,0.2592015338998941],[0.09702533472897823,0.28860623739065083],[0.10079578291852176,0.3134528223044679],[0.075579903153276,0.31615176432085335],[0.032988259131165876,0.3098984133225038],[-0.05565969570283691,0.01807302434864333],[-0.01810955965459437,-0.00399678745197863]],"w":[[0.0],[-0.0],[0.0],[-0.0],[0.0],[0.0],[-0.0],[0.0],[0.0],[-0.0],[0.0],[-0.0],[-0.0],[-0.0],[-0.0],[0.0],[-0.0],[-0.0],[-0.0],[0.0],[-0.0],[0.0],[-0.0],[0.0],[-0.0]],"gamma":[[0.7307531857333593],[0.4589770109633467],[0.7719513146914151],[0.573031151485272],[0.47560082363890355],[0.434284297284176],[0.4178438853630407],[0.41281310796496445],[0.41331868276440725],[0.4166581735638281],[0.4214042448253712],[0.42662038791624457],[0.4315879525833911],[0.4358208519589574],[0.43882225674984127],[0.4397652424798077],[0.4381220505131977],[0.4332405968061008],[0.42454726070140963],[0.41266703129957627],[0.40123398527212345],[0.3945127493350579],[0.3939667683947184],[0.36390362774763246],[2.8463590432176676e-5]],"b":[[-0.11452210927331313,-0.043835796661736474,-0.07828967358408863,0.09438017606812033,-0.11906269548588079,-0.0293422079006396,-0.11471304130852511,0.04333369100932643,0.3653765928051245],[-0.11266597297116882,-0.0484073240340364,-0.09549506707757793,0.0769258262693143,-0.11378228281692943,-0.04572179665304883,-0.12041572384984577,0.023172052826494066,0.22948849787055264],[-0.10086568185540888,-0.0697352447081063,-0.12250190327101183,-0.005493086572621503,-0.10288476630138796,-0.0667204259885485,-0.11991144582630893,-0.025654153112240858,0.09584905389523267],[-0.09327305237913115,-0.07960545405303379,-0.11737598012428516,-0.03549323750453831,-0.09437528777406974,-0.07829556611718988,-0.11304409759697204,-0.04751760322463501,0.07397455169198458],[-0.08559691120425815,-0.08780694395686196,-0.11093623485563213,-0.05224980781262395,-0.08612350067563337,-0.08729051063665581,-0.10600482024662679,-0.06164307506196579,0.06625998233629685],[-0.07705235240137359,-0.09539300602949938,-0.10406459874514573,-0.06486485879850884,-0.0774129525287003,-0.09510060669687391,-0.09867208247274624,-0.07280598023420881,0.0634322058429356],[-0.06754553641235106,-0.10234496135060693,-0.09667352737001705,-0.07543951034804783,-0.06813245973485028,-0.10195517907195303,-0.09094668081768233,-0.08225321794636674,0.06306685478496436],[-0.05735116810043254,-0.10838696469056913,-0.08890584473336223,-0.08445496660971855,-0.058497772874690705,-0.10777245090752473,-0.08297985417299747,-0.09028418694987661,0.06412556637728205],[-0.04694767237903901,-0.11328197848528763,-0.08111618809181598,-0.09196224572472128,-0.048893303331948385,-0.11245592688665396,-0.07509131973097034,-0.09694423299034216,0.06615371449488514],[-0.0368605292397577,-0.11695380270788262,-0.07374987791330476,-0.0979685975809726,-0.03973397467269695,-0.11600905936568556,-0.0676539080880487,-0.10227335589284968,0.06893450939696874],[-0.027527290779219785,-0.11949535068265235,-0.06721997293119551,-0.10255908460780357,-0.03135544241578466,-0.11854841551974858,-0.06099034272627666,-0.10638171221266626,0.07236489852012144],[-0.019216709811458548,-0.12110990305897963,-0.06182425026251412,-0.10589925714553233,-0.023953732367529443,-0.12026266788168888,-0.055310515186379576,-0.10944239352000971,0.07641112750504164],[-0.012016039288015501,-0.122034852918276,-0.05772139567685804,-0.10819025393883315,-0.017580765771050912,-0.12135817746501383,-0.05069981221610827,-0.11165312183519362,0.08109247798345535],[-0.005878703470238362,-0.12248400436685511,-0.05491202539371983,-0.10964287485460718,-0.012181693203712941,-0.12201842846400887,-0.04712051856829411,-0.11321019070843118,0.0863603458112684],[-0.0006465307372160026,-0.12262329465041477,-0.05367068672070544,-0.11025582925955997,-0.00765113627389374,-0.12238607190844433,-0.044675789501720194,-0.11419704174189643,0.09306803322707283],[0.003832057408445327,-0.12256510729409142,-0.05449883908028231,-0.10984883692814378,-0.003907352975795376,-0.12256273074142938,-0.04356785415250743,-0.11462431031073236,0.10228001033373471],[0.0075823555191332,-0.12239034898982112,-0.0573749470719366,-0.10837437791093738,-0.0008979222255177372,-0.12262171029422148,-0.04368116291537824,-0.11458117754397272,0.11372630603045028],[0.010592419068858024,-0.12216664205773878,-0.06311624757922157,-0.1051343400966764,0.0013383386785105586,-0.12261769069729554,-0.045354805637808006,-0.11392906238857249,0.12940033972706425],[0.012634984961074012,-0.12197232346309796,-0.07184076942595358,-0.099377031783535,0.0027307600840214895,-0.12259459013684308,-0.048584003725276825,-0.11258989818507266,0.14964296330228496],[0.01352804319326283,-0.12187649996712348,-0.08206848887045558,-0.09111340562847085,0.0034089150295985617,-0.12257760473905017,-0.05269580900254573,-0.11072507239928515,0.17226263377041648],[0.013746406149601112,-0.12185206929282248,-0.09000048561238838,-0.08328747310638977,0.004000921084081122,-0.1225597127332052,-0.0558698677899723,-0.10915790601822045,0.19004089000110813],[0.014435574933316007,-0.12177234591286376,-0.0930096898064511,-0.07991300192312949,0.005159082591121294,-0.12251642435274052,-0.05656186158192176,-0.10880094767946269,0.1972562117863215],[0.01586319453131667,-0.1215946036682682,-0.09223290360824873,-0.08080830356282169,0.006738223545211587,-0.12243972418065031,-0.05525961345995572,-0.10946810100076644,0.19690996528440544],[0.014607784649474782,-0.11767951117480446,-0.08763259142915424,-0.08195952336155651,0.0065093557172720765,-0.12058528263212744,-0.05304489663023888,-0.10859068920334354,0.18195181170850364],[-0.01006384574678634,0.0008657747065965219,-0.00011593947984765739,0.009403861794391614,-0.00019822693539355875,-0.006666614973452943,0.010369675207004634,-0.0036341063885500275,1.4231384934322447e-5]],"z":[[0.03780151073466458,-0.007729109453794147,0.17726705076246316,-0.05804656741421128,-0.03624482299367869,0.7307531857333593,1.6457049957072484e-11,0.12262500000000001,0.12262500000000001,0.12262500000000001,0.12262500000000001,0.3653765928666797,-0.11452210927331313,-0.043835796661736474,-0.07828967358408863,0.09438017606812033,-0.11906269548588079,-0.0293422079006396,-0.11471304130852511,0.04333369100932643,0.3653765928051245,0.18445520953128441,0.3677437864850865,0.5368403916347957,0.6240267416312469,0.10789011321808054,0.1722666641331663,0.06593876508678456,0.2347852477219198,-0.283039537751421,0.5212449669713718,0.12845734867553804,0.5837635505601254,-0.22052095416266745,-0.10789011320058987],[0.0824637460299063,-0.010130258066247424,0.36866105656586917,-0.0024748657067421953,-0.06290745352352865,0.4589770109633467,5.639125214685972e-10,0.12262500000000001,0.12262500000000001,0.12262500000000001,0.12262500000000001,0.22948850548167335,-0.11266597297116882,-0.0484073240340364,-0.09549506707757793,0.0769258262693143,-0.11378228281692943,-0.04572179665304883,-0.12041572384984577,0.023172052826494066,0.22948849787055264,0.21671664669169896,0.432818006445089,0.5994092028449015,0.7068639998197935,0.07225675578890406,0.19911593766640864,0.08555084943773966,0.3370600173901448,-0.27151790141054133,0.5561846885146896,0.22349492916147579,0.6941287682384257,-0.13357382168680523,-0.07225675520399245],[0.1471308772586748,0.014010143935104328,0.5259289672873646,0.07154940188379286,-0.05146840930320457,0.7719513146914151,2.152855144035183e-9,0.12262500040953413,0.12262500040953413,0.12262500040953413,0.12262500040953413,0.3859756575790935,-0.10086568185540888,-0.0697352447081063,-0.12250190327101183,-0.005493086572621503,-0.10288476630138796,-0.0667204259885485,-0.11991144582630893,-0.025654153112240858,0.09584905389523267,0.5248358208150569,0.5902004831308842,0.8387583412918539,0.8811353625237476,4.0383429229558415e-9,0.43170579935420916,0.2984673157732522,0.5896080166213046,0.026438507080041918,0.7037346080474195,0.4563695330403475,0.8616368253145149,0.18434072434713725,-2.5720304835418814e-10],[0.21342779591393402,0.0521596038457254,0.6600519926704298,0.1473114052590043,-0.02286454498525433,0.573031151485272,1.0703501213044666e-10,0.12262500000371308,0.12262500000371308,0.12262500000371308,0.12262500000371308,0.28651557574475195,-0.09327305237913115,-0.07960545405303379,-0.11737598012428516,-0.03549323750453831,-0.09437528777406974,-0.07829556611718988,-0.11304409759697204,-0.04751760322463501,0.07397455169198458,0.6241860731092623,0.6678432491236695,0.8922297246054224,0.9232985611569754,1.9874451525042813e-10,0.47477871816852346,0.4052078756952394,0.6392559099644098,0.19330413072214186,0.686682463141621,0.569685067491126,0.8511596549375074,0.3577813225180284,-6.004036821710186e-11],[0.2734026944119634,0.09671930806684612,0.7759188408613329,0.21642442542834714,0.014539767450248547,0.47560082363890355,1.5876011861767128e-10,0.12262500000019488,0.12262500000019488,0.12262500000019488,0.12262500000019488,0.23780041181956282,-0.08559691120425815,-0.08780694395686196,-0.11093623485563213,-0.05224980781262395,-0.08612350067563337,-0.08729051063665581,-0.10600482024662679,-0.06164307506196579,0.06625998233629685,0.6244586558445243,0.661224445451697,0.8561506158895318,0.8833249863585783,3.351835085846127e-10,0.4358958788294477,0.4471503052795659,0.5981957219119796,0.281743936060361,0.6013022480486526,0.6094501483620978,0.7636020911311846,0.4440437791428929,-1.803198023881614e-10],[0.32423328447161226,0.1433908796905798,0.8766038091168334,0.27581880308414136,0.055892090911313294,0.434284297284176,2.263102823328973e-10,0.12262500000000001,0.12262500000000001,0.12262500000000001,0.12262500000000001,0.217142148642088,-0.07705235240137359,-0.09539300602949938,-0.10406459874514573,-0.06486485879850884,-0.0774129525287003,-0.09510060669687391,-0.09867208247274624,-0.07280598023420881,0.0634322058429356,0.5832788015392004,0.6142464227319363,0.7846324494291194,0.8079186767598978,6.086320628759745e-10,0.3665076761858929,0.45374693757668433,0.5212746792571411,0.324917491826741,0.4953371219358363,0.6085139406479326,0.6501041250070845,0.47968449489798926,-3.90767142824282e-10],[0.3654371785072762,0.1895041177306361,0.9645002737576928,0.3249009139389459,0.09808852108330546,0.4178438853630407,2.7469636947405753e-10,0.12262500000000001,0.12262500000000001,0.12262500000000001,0.12262500000000001,0.20892194268152034,-0.06754553641235106,-0.10234496135060693,-0.09667352737001705,-0.07543951034804783,-0.06813245973485028,-0.10195517907195303,-0.09094668081768233,-0.08225321794636674,0.06306685478496436,0.5259751684546229,0.5507373769927186,0.7017334375826448,0.7204801163563755,8.488138421250992e-10,0.28972293512470304,0.43898803898043204,0.4341832817767705,0.3388163751686271,0.38989459893650796,0.5834483856324996,0.5343549455885755,0.4832767218206946,-5.65087059863329e-10],[0.39768981350999244,0.23330177922140202,1.0415287607595656,0.3643155916655636,0.13903534101021497,0.41281310796496445,2.807824293739258e-10,0.12262500000000001,0.12262500000000001,0.12262500000000001,0.12262500000000001,0.20640655398248223,-0.05735116810043254,-0.10838696469056913,-0.08890584473336223,-0.08445496660971855,-0.058497772874690705,-0.10777245090752473,-0.08297985417299747,-0.09028418694987661,0.06412556637728205,0.46428780093355104,0.4829146011315542,0.6182398913095649,0.6323479367833024,9.38071372857085e-10,0.21714534344799105,0.41037916806993874,0.35012379686488293,0.33259560832848784,0.29492890318944187,0.5433576214868306,0.42790735660633383,0.46557406174537974,-6.338920383812561e-10],[0.42223273677028406,0.2736613967099545,1.1092526370265323,0.3953192273440352,0.17735115288597506,0.41331868276440725,2.7259337431630465e-10,0.12262500000000001,0.12262500000000001,0.12262500000000001,0.12262500000000001,0.20665934138220363,-0.04694767237903901,-0.11328197848528763,-0.08111618809181598,-0.09196224572472128,-0.048893303331948385,-0.11245592688665396,-0.07509131973097034,-0.09694423299034216,0.06615371449488514,0.40389124723528846,0.4170948088601697,0.5390999683494723,0.5490616685854379,9.4781355235884e-10,0.15463204051493237,0.37311803940781607,0.2759073680806244,0.31279898279754104,0.2149510971252074,0.4943933669735081,0.3362264246908994,0.4340743103632331,-6.393225644287424e-10],[0.4405114725182243,0.30997143596440563,1.1689638144836731,0.4193967830793591,0.21222600157469831,0.4166581735638281,2.680501289534462e-10,0.12262500000000001,0.12262500000000001,0.12262500000000001,0.12262500000000001,0.20832908678191406,-0.0368605292397577,-0.11695380270788262,-0.07374987791330476,-0.0979685975809726,-0.03973397467269695,-0.11600905936568556,-0.0676539080880487,-0.10227335589284968,0.06893450939696874,0.3475735143403955,0.3564675877607129,0.466582023370159,0.4732447335441949,9.466036932099948e-10,0.10447905157267091,0.3314988316230275,0.21438891840088642,0.28479208663777955,0.1511857965579189,0.44140869845124303,0.2610956633861344,0.39470195346599507,-6.282156039051329e-10],[0.45393615508107843,0.34203316308617426,1.221750355378237,0.4380105467560358,0.24330943212261769,0.4214042448253712,2.768507313592311e-10,0.12262500000000001,0.12262500000000001,0.12262500000000001,0.12262500000000001,0.2107021224126856,-0.027527290779219785,-0.11949535068265235,-0.06721997293119551,-0.10255908460780357,-0.03135544241578466,-0.11854841551974858,-0.06099034272627666,-0.10638171221266626,0.07236489852012144,0.2966376845660769,0.3024530478432168,0.4016255962852651,0.4059397121137293,9.766581358045803e-10,0.06659026956502759,0.2890668635995544,0.16579723324667334,0.25296071515417273,0.10269641801040927,0.3882738272812002,0.20190338169205502,0.3521676788358185,-6.295520486777683e-10],[0.4637384060340826,0.3699502724494905,1.2685462755871735,0.45245011255351775,0.2705894426828985,0.42662038791624457,3.0530815102020474e-10,0.12262500000000001,0.12262500000000001,0.12262500000000001,0.12262500000000001,0.21331019395812229,-0.019216709811458548,-0.12110990305897963,-0.06182425026251412,-0.10589925714553233,-0.023953732367529443,-0.12026266788168888,-0.055310515186379576,-0.10944239352000971,0.07641112750504164,0.2515340043507923,0.2554031241802976,0.3444103673108479,0.3472461686417496,1.0664590301216713e-9,0.039418193451861795,0.24842616830514266,0.12876743485806214,0.2205667775549823,0.06727758420202214,0.337775409711343,0.1566268256082225,0.30991601896118265,-6.626639775029467e-10],[0.47091055235168944,0.3940129618708736,1.3101596533484177,0.463766776711029,0.2942684555454113,0.4315879525833911,3.5945793652339446e-10,0.12262500000000001,0.12262500000000001,0.12262500000000001,0.12262500000000001,0.21579397629169556,-0.012016039288015501,-0.122034852918276,-0.05772139567685804,-0.10819025393883315,-0.017580765771050912,-0.12135817746501383,-0.05069981221610827,-0.11165312183519362,0.08109247798345535,0.21216361594435382,0.21500453141767345,0.2946019109118932,0.29665440252543795,1.2461016603327036e-9,0.020789939609978773,0.21114255388464373,0.10120580350525535,0.18969537064774145,0.04223712284688105,0.2915584177799203,0.12265298674215763,0.270111234543018,-7.492046678092206e-10],[0.476203314428073,0.414599368369078,1.3472484980350636,0.47276386246301677,0.3146585345703333,0.4358208519589574,4.472168246134542e-10,0.12262500000000001,0.12262500000000001,0.12262500000000001,0.12262500000000001,0.2179104259794787,-0.005878703470238362,-0.12248400436685511,-0.05491202539371983,-0.10964287485460718,-0.012181693203712941,-0.12201842846400887,-0.04712051856829411,-0.11321019070843118,0.0863603458112684,0.1781251565708486,0.1805951960402308,0.2514963181073162,0.2532517551275543,1.5678225674832167e-9,0.008539408556848186,0.177920346234264,0.08087133951161572,0.16147585277505652,0.024983902016055694,0.25025227718903154,0.09731583297082325,0.23380778372982405,-9.327513866066515e-10],[0.4801850830196448,0.4321118640487981,1.3805811740241973,0.48007883783317185,0.33211191988600264,0.43882225674984127,5.978064514163633e-10,0.12262500000000001,0.12262500000000001,0.12262500000000001,0.12262500000000001,0.21941112837492063,-0.0006465307372160026,-0.12262329465041477,-0.05367068672070544,-0.11025582925955997,-0.00765113627389374,-0.12238607190844433,-0.044675789501720194,-0.11419704174189643,0.09306803322707283,0.14869776569890306,0.15135881636173137,0.21457673651194836,0.2164292994166377,2.1987963295685884e-9,0.0007839973389210356,0.14869569775938538,0.06624694495353288,0.1360912682204038,0.013388426877902614,0.21415864537399723,0.07885137449251445,0.20155421583501565,-1.3425965166573326e-9],[0.48328598761692326,0.44692194106948313,1.4109829624792634,0.48621996886667446,0.34696499064537417,0.4397652424798077,9.120804068439809e-10,0.12262500000000001,0.12262500000000001,0.12262500000000001,0.12262500000000001,0.21988262123990385,0.003832057408445327,-0.12256510729409142,-0.05449883908028231,-0.10984883692814378,-0.003907352975795376,-0.12256273074142938,-0.04356785415250743,-0.11462431031073236,0.10228001033373471,0.1229844166864958,0.12641999514336177,0.1830460568623966,0.18537180852799603,3.735497262337939e-9,-0.0038432892581769145,0.12292434846972497,0.05618546770991003,0.11324843497588868,0.00583262423565937,0.1829531054378119,0.06586138120374631,0.17327719194397564,-2.446661335084682e-9],[0.4857974779520161,0.4593262840440943,1.43887104233166,0.49151792592430205,0.3594900340815385,0.4381220505131977,1.6430394572375098e-9,0.12262500000000001,0.12262500000000001,0.12262500000000001,0.12262500000000001,0.21906102525659885,0.0075823555191332,-0.12239034898982112,-0.0573749470719366,-0.10837437791093738,-0.0008979222255177372,-0.12262171029422148,-0.04368116291537824,-0.11458117754397272,0.11372630603045028,0.10025801424729198,0.10492257563006219,0.1553618237561186,0.1584120380753722,7.879336675840033e-9,-0.006199322307015487,0.10006616411482908,0.04909216898221141,0.09272920408816786,0.0011376377196457507,0.155357655404056,0.05642912900887264,0.14802069537739476,-5.622356912139384e-9],[0.48795355419108083,0.4695946322708231,1.4647477313927504,0.4962555199038854,0.36993983738758063,0.4332405968061008,3.852654857070622e-9,0.12262500000000001,0.12262500000000001,0.12262500000000001,0.12262500000000001,0.2166202984030504,0.010592419068858024,-0.12216664205773878,-0.06311624757922157,-0.1051343400966764,0.0013383386785105586,-0.12261769069729554,-0.045354805637808006,-0.11392906238857249,0.12940033972706425,0.07999020483841143,0.0865595804468975,0.13116166411506486,0.13526829030038837,2.2712312355145237e-8,-0.006909600187250256,0.07969121121343847,0.04455303344449654,0.07421311968939039,-0.0014315086632021806,0.13115384484518527,0.05003112496854462,0.12567575332113717,-1.756899292074664e-8],[0.48993038698993446,0.47802390930510813,1.4890423083097013,0.5006509729598021,0.3786002247161806,0.42454726070140963,1.0255270624365093e-10,0.12262500000000001,0.12262500000000001,0.12262500000000001,0.12262500000000001,0.21227363035070482,0.012634984961074012,-0.12197232346309796,-0.07184076942595358,-0.099377031783535,0.0027307600840214895,-0.12259459013684308,-0.048584003725276825,-0.11258989818507266,0.14964296330228496,0.0623954068858297,0.07168602843657705,0.11051757827960003,0.11601652891936204,7.602522673466293e-10,-0.00642907258880943,0.062063304804110236,0.0419977935272763,0.05809536976550414,-0.0024611375502033377,0.11049017092019597,0.045965728565882394,0.10652223588158988,-6.328175849307127e-10],[0.4918355176297197,0.4849810443069371,1.5120983942715387,0.504845576182414,0.3858309627945934,0.41266703129957627,1.4259427102984075e-9,0.12262500000000001,0.12262500000000001,0.12262500000000001,0.12262500000000001,0.20633351564978814,0.01352804319326283,-0.12187649996712348,-0.08206848887045558,-0.09111340562847085,0.0034089150295985617,-0.12257760473905017,-0.05269580900254573,-0.11072507239928515,0.17226263377041648,0.048201762011742,0.06083566699494225,0.09397661829760931,0.10104045371892185,1.372107130454081e-8,-0.00531763928269707,0.04790753949951039,0.040715116916631836,0.04520240433774049,-0.0026125041209271735,0.0939402956988393,0.043420252078401736,0.0912351605370694,-1.2149189037015428e-8],[0.4936399756217672,0.49079017558257343,1.533580388166476,0.5087769742372981,0.39194245785716375,0.40123398527212345,1.2840158124171773e-10,0.12262500000000001,0.12262500000000001,0.12262500000000001,0.12262500000000001,0.20061699263606173,0.013746406149601112,-0.12185206929282248,-0.09000048561238838,-0.08328747310638977,0.004000921084081122,-0.1225597127332052,-0.0558698677899723,-0.10915790601822045,0.19004089000110813,0.037660865984382896,0.052745375474913106,0.08040052623785586,0.08847586354663393,1.1327487619859848e-8,-0.004221827176059686,0.037423481751890156,0.03871241092494792,0.035824905659828335,-0.002623251083997869,0.08035771985289776,0.04031098701700973,0.07875914376083594,-1.1196161401544801e-8],[0.4951684135697586,0.49553246187095984,1.5520012998207868,0.5121920043894811,0.39699212786298566,0.3945127493350579,3.508034069600709e-10,0.12262500000000001,0.12262500000000001,0.12262500000000001,0.12262500000000001,0.19725637466752896,0.014435574933316007,-0.12177234591286376,-0.0930096898064511,-0.07991300192312949,0.005159082591121294,-0.12251642435274052,-0.05656186158192176,-0.10880094767946269,0.1972562117863215,0.029556925454406562,0.0439767024351841,0.066245377707616,0.07381591005278504,0.0006929086230556164,-0.003479479810226965,0.029351405917115877,0.03335583644666207,0.028659003593722886,-0.002787077486833968,0.06618672217400491,0.03404823877005506,0.06549431985061192,-0.0006929082720817187],[0.4963030788192288,0.4991938382139529,1.5662139341190575,0.5147273834129111,0.40090576567244685,0.3939667683947184,9.88823026073687e-10,0.12262500000000001,0.12262500000000001,0.12262500000000001,0.12262500000000001,0.1969833841973592,0.01586319453131667,-0.1215946036682682,-0.09223290360824873,-0.08080830356282169,0.006738223545211587,-0.12243972418065031,-0.05525961345995572,-0.10946810100076644,0.19690996528440544,0.022656787103716908,0.033894662916914384,0.050968385136051605,0.05686206542412237,1.9486323355567158e-5,-0.0029309603434213966,0.02246640611188642,0.025494009812746667,0.022336150591807137,-0.002800704823342107,0.050891376268054477,0.025624265332825948,0.050761120747975196,-1.9485334453163227e-5],[0.49630308913155213,0.4991938727573628,1.566214064548448,0.515624027496101,0.40107811784163444,0.36390362774763246,1.097916909004297e-10,0.12262500000000001,0.12262500000000001,0.12262500000000001,0.12262500000000001,0.18195181387381623,0.014607784649474782,-0.11767951117480446,-0.08763259142915424,-0.08195952336155651,0.0065093557172720765,-0.12058528263212744,-0.05304489663023888,-0.10859068920334354,0.18195181170850364,2.1781879009344344e-7,3.1645387634496373e-7,4.775828623735417e-7,5.298748581359486e-7,0.009130193426933648,-2.8125243293332145e-8,2.1582855533502953e-7,2.3272877689972231e-7,2.1418562223722782e-7,-2.6482310195547374e-8,4.76682575528048e-7,2.343717099975003e-7,4.750396424302734e-7,-0.009130193317183614],[0.49630308913154975,0.4991938727573537,1.566214064548427,0.5163394936444273,0.401210194742034,2.8463590432176676e-5,1.1292663190585007e-5,0.12262500000000001,0.12262500000000001,0.12262500000000001,0.12262500000000001,1.4231795216088338e-5,-0.01006384574678634,0.0008657747065965219,-0.00011593947984765739,0.009403861794391614,-0.00019822693539355875,-0.006666614973452943,0.010369675207004634,-0.0036341063885500275,1.4231384934322447e-5,4.897627473596914e-11,4.8978795133757875e-11,4.897426413113958e-11,4.897739883079837e-11,0.0072907442840743665,-3.0808494012481867e-15,-7.006251487902177e-14,-4.489823481004705e-14,-6.98708675732367e-14,-3.2724689686391407e-15,-1.1187987255293888e-13,-4.508985437743806e-14,-1.116882529821825e-13,-0.007274213028374224]],"theta":[[0.0,0.0,0.0,-0.10000001,0.0,0.0,0.0,0.0,-0.10000001,0.0,4.999946885577326,-3.7663092564208815,0.1],[0.0,-8.673617379884035e-19,0.0,-0.10000001,0.0,0.03780151073466458,-0.007729109453794147,0.17726705076246316,-0.05804656741421128,-0.03624482299367869,1.872792204489329,1.0055300963875595,0.1],[0.03780151073466458,-0.007729109453794147,0.17726705076246316,-0.05804656741421128,-0.03624482299367869,0.0824637460299063,-0.010130258066247424,0.36866105656586917,-0.0024748657067421953,-0.06290745352352865,2.491469349048041,4.243185892448537,0.1],[0.0824637460299063,-0.010130258066247422,0.36866105656586917,-0.002474865706742199,-0.06290745352352865,0.1471308772586748,0.014010143935104328,0.5259289672873646,0.07154940188379286,-0.05146840930320457,0.6081398706453323,2.0974844497711382,0.1],[0.1471308772586748,0.01401014393510433,0.5259289672873646,0.07154940188379286,-0.05146840930320457,0.21342779591393402,0.0521596038457254,0.6600519926704298,0.1473114052590043,-0.02286454498525433,-0.33945705517516345,1.2331375923294496,0.1],[0.21342779591393402,0.0521596038457254,0.6600519926704298,0.1473114052590043,-0.02286454498525433,0.2734026944119634,0.09671930806684612,0.7759188408613329,0.21642442542834714,0.014539767450248547,-0.7061053495907039,0.7440842283414071,0.1],[0.2734026944119634,0.09671930806684612,0.7759188408613329,0.21642442542834714,0.014539767450248549,0.32423328447161226,0.1433908796905798,0.8766038091168334,0.27581880308414136,0.055892090911313294,-0.8041954360039156,0.44082020397294386,0.1],[0.32423328447161226,0.1433908796905798,0.8766038091168334,0.27581880308414136,0.055892090911313294,0.3654371785072762,0.1895041177306361,0.9645002737576928,0.3249009139389459,0.09808852108330546,-0.7685212632666758,0.24278177915652144,0.1],[0.3654371785072762,0.1895041177306361,0.9645002737576928,0.3249009139389459,0.09808852108330546,0.39768981350999244,0.23330177922140202,1.0415287607595656,0.3643155916655636,0.13903534101021497,-0.6661528387050843,0.1171631389499268,0.1],[0.39768981350999244,0.23330177922140202,1.0415287607595656,0.3643155916655636,0.13903534101021497,0.42223273677028406,0.2736613967099545,1.1092526370265323,0.3953192273440352,0.17735115288597506,-0.5372515795244697,0.04861271450269555,0.1],[0.42223273677028406,0.2736613967099545,1.1092526370265323,0.3953192273440352,0.17735115288597506,0.4405114725182243,0.30997143596440563,1.1689638144836731,0.4193967830793591,0.21222600157469831,-0.40782668886311235,0.025359627615657132,0.1],[0.4405114725182243,0.30997143596440563,1.1689638144836731,0.4193967830793591,0.21222600157469831,0.45393615508107843,0.34203316308617426,1.221750355378237,0.4380105467560358,0.24330943212261769,-0.2933388963900865,0.03492604525782994,0.1],[0.45393615508107843,0.34203316308617426,1.221750355378237,0.4380105467560358,0.24330943212261769,0.4637384060340826,0.3699502724494905,1.2685462755871735,0.45245011255351775,0.2705894426828985,-0.20057319739901036,0.06459243696118833,0.1],[0.4637384060340826,0.3699502724494905,1.2685462755871735,0.45245011255351775,0.2705894426828985,0.47091055235168944,0.3940129618708736,1.3101596533484177,0.463766776711029,0.2942684555454113,-0.1306587423286154,0.10369928540303519,0.1],[0.47091055235168944,0.3940129618708736,1.3101596533484177,0.463766776711029,0.2942684555454113,0.476203314428073,0.414599368369078,1.3472484980350636,0.47276386246301677,0.3146585345703333,-0.0746768297978525,0.1450537584501994,0.1],[0.476203314428073,0.414599368369078,1.3472484980350636,0.47276386246301677,0.3146585345703333,0.4801850830196448,0.4321118640487981,1.3805811740241973,0.48007883783317185,0.33211191988600264,-0.02805108480803775,0.18254534305426873,0.1],[0.4801850830196448,0.4321118640487981,1.3805811740241973,0.48007883783317185,0.33211191988600264,0.48328598761692326,0.44692194106948313,1.4109829624792634,0.48621996886667446,0.34696499064537417,0.004160136484343324,0.21110754195749237,0.1],[0.48328598761692326,0.44692194106948313,1.4109829624792634,0.48621996886667446,0.34696499064537417,0.4857974779520161,0.4593262840440943,1.43887104233166,0.49151792592430205,0.3594900340815385,0.03694984670495666,0.2349637747492359,0.1],[0.4857974779520161,0.4593262840440943,1.43887104233166,0.49151792592430205,0.3594900340815385,0.48795355419108083,0.4695946322708231,1.4647477313927504,0.4962555199038854,0.36993983738758063,0.06905250133735574,0.2592015338998941,0.1],[0.48795355419108083,0.4695946322708231,1.4647477313927504,0.4962555199038854,0.36993983738758063,0.48993038698993446,0.47802390930510813,1.4890423083097013,0.5006509729598021,0.3786002247161806,0.09702533472897823,0.28860623739065083,0.1],[0.48993038698993446,0.47802390930510813,1.4890423083097013,0.5006509729598021,0.3786002247161806,0.4918355176297197,0.4849810443069371,1.5120983942715387,0.504845576182414,0.3858309627945934,0.10079578291852176,0.3134528223044679,0.1],[0.4918355176297197,0.4849810443069371,1.5120983942715387,0.504845576182414,0.3858309627945934,0.4936399756217672,0.49079017558257343,1.533580388166476,0.5087769742372981,0.39194245785716375,0.075579903153276,0.31615176432085335,0.1],[0.4936399756217672,0.49079017558257343,1.533580388166476,0.5087769742372981,0.39194245785716375,0.4951684135697586,0.49553246187095984,1.5520012998207868,0.5121920043894811,0.39699212786298566,0.032988259131165876,0.3098984133225038,0.1],[0.4951684135697586,0.49553246187095984,1.5520012998207868,0.5121920043894811,0.39699212786298566,0.4963030788192288,0.4991938382139529,1.5662139341190575,0.5147273834129111,0.40090576567244685,-0.05565969570283691,0.01807302434864333,0.1],[0.4963030788192288,0.4991938382139529,1.5662139341190575,0.5147273834129111,0.40090576567244685,0.49630308913155213,0.4991938727573628,1.566214064548448,0.515624027496101,0.40107811784163444,-0.01810955965459437,-0.00399678745197863,0.1]],"iq0":[1,2,3,4,5],"iq1":[6,7,8,9,10],"iu1":[11,12],"iw1":[],"iq2":[1,2,3,4,5],"igamma1":[6,7,8,9,10],"ib1":[11,12,13,14],"nq":5,"nu":2,"nw":0,"nc":5,"nb":4,"nz":35,"nθ":13}