{"H":25,"h":0.1,"kappa":[2.0e-8,2.0e-8,2.0e-8,2.0e-8,2.0e-8,2.0e-8,2.0e-8,2.0e-8,2.0e-8,2.0e-8,2.0e-8,2.0e-8,2.0e-8,2.0e-8,2.0e-8,2.0e-8,2.0e-8,2.0e-8,2.0e-8,2.0e-8,2.0e-8,2.0e-8,2.0e-8,2.0e-8,2.0e-8],"q":[[0.0,0.0,0.0,-0.02,-0.10000001],[0.0,0.0,0.0,-0.02,-0.10000001],[-0.004096272215030606,0.03734185377716157,-0.16526646492253796,-0.040080590630831865,-0.05803777025016046],[0.01704794066621098,0.11426821220730803,-0.3198484449976256,-0.03302684146766546,0.025511388332364243],[0.04553685746953084,0.19151540783060264,-0.4716890190628794,-0.01723768534266242,0.11127785445332389],[0.06914169163407874,0.2513052430517357,-0.6141791673381055,-0.004269257117912596,0.18070947977599158],[0.0829657275192573,0.289920570443194,-0.7414785556958281,0.0008248806094540072,0.2295469237718279],[0.09176013475157242,0.3147485061212013,-0.8524903431052694,0.0025248288572581844,0.2648893695102271],[0.09843715491357861,0.33236971973668383,-0.9551540787300306,-0.00014126806283151457,0.2985674080539326],[0.10340886168398573,0.34529767617668417,-1.0442689281627286,-0.0049452141463632825,0.3327229819471187],[0.10736165231276572,0.3557683505297764,-1.1223997984650274,-0.007490465288860682,0.3639234074684216],[0.111155664020794,0.364616437547592,-1.190474344514965,-0.006031192249575574,0.38877939403280953],[0.1150329453969268,0.37232391914727636,-1.2514818733416972,-0.0013603345310899755,0.406600737848509],[0.11846124983310319,0.3783776921735416,-1.3006760987662664,0.003860150179305754,0.4184805441789589],[0.12142501119089381,0.3831572052103306,-1.3404424012628298,0.008518563106514651,0.427734661173678],[0.12407178298921412,0.3871209679102773,-1.3741446340039938,0.012736833014001173,0.4354446262698097],[0.12732347620786244,0.3914869668747039,-1.412495425290672,0.017920444087690102,0.4440662833516852],[0.1304387544565166,0.39542992824192486,-1.4479613429961282,0.022971931417444275,0.4518203141104919],[0.13043875446004052,0.3954299282431592,-1.4479613430140095,0.022565728363289295,0.45793160089721846],[0.13043875446004052,0.3954299282431592,-1.4479613430140095,0.01944368741877738,0.46309584909925056],[0.13043875446004052,0.3954299282431592,-1.4479613430140095,0.014846696141252414,0.4674349676486007],[0.13043875446004052,0.3954299282431592,-1.4479613430140095,0.009629259699186352,0.4710621608249126],[0.13043875446004052,0.3954299282431593,-1.4479613430140095,0.00435414536546856,0.4740845704365384],[0.13043875446004052,0.3954299282431593,-1.4479613430140095,-0.0006409058849443153,0.47660673560588684],[0.13043875446004052,0.3954299282431593,-1.4479613430140095,-0.005198855066510483,0.4787350018641871]],"u":[[-2.0803656288870016,5.001106162192028],[3.0933671422677493,5.017861513939972],[1.1139240414746592,0.67667690036264],[-0.1544536204686613,-1.3642401830182287],[-0.7232222486468576,-1.8342981983059836],[-0.22513503348937292,-1.0705569810656925],[-0.2717564305216733,0.14148897489095447],[-0.023250155826609387,0.3378751050610731],[0.4387117701709613,-0.02348788780621902],[0.632967110390986,-0.38242911642014654],[0.5720769085398842,-0.4672884769209311],[0.31314391445640055,-0.374293673772224],[0.21376002551398177,-0.05204224419602754],[0.2347755555308293,0.049800166224848175],[0.3929981152969466,0.2913065451887604],[0.2828765218941731,0.09817933732758632],[-0.43538480791093237,-0.10025072394379198],[-0.27158378903569824,-0.09470385846948881],[-0.14749503330130492,-0.08251296526819485],[-0.06204451645411552,-0.0711925373038308],[-0.005767789165240206,-0.060478356468663286],[0.028006308330490948,-0.05002444422773644],[0.04371020688467035,-0.03938989110481944],[0.04391330837936122,-0.028015673418984643],[0.029547511730290493,-0.015190024775934799]],"w":[[-0.0],[-0.0],[0.0],[0.0],[-0.0],[0.0],[0.0],[0.0],[0.0],[-0.0],[0.0],[0.0],[-0.0],[-0.0],[0.0],[0.0],[0.0],[-0.0],[0.0],[0.0],[0.0],[0.0],[0.0],[-0.0],[-0.0]],"gamma":[[0.7820197491323373],[0.9350549154015271],[0.5144951664251008],[0.29358408422096255],[0.20938327678232643],[0.2696218814173095],[0.31240539844792636],[0.31050522534371006],[0.3097563623092772],[0.31008857379713317],[0.31362648252969155],[0.308757820598573],[0.3122251772512365],[0.3145902457629647],[0.3256298181412851],[0.3178024317062531],[0.11880557764839729],[2.583874005599243e-18],[3.308722450212111e-24],[6.246867986000465e-21],[3.0704944337968387e-21],[2.1705219273391446e-21],[6.617444900424222e-24],[4.984485754199724e-9],[2.4458076351967922e-20]],"b":[[-0.05638205000264532,-0.10889422450904676,-0.03448642105983117,-0.11767572852641292,0.08551217847126068,-0.08788946372043416,0.03670013624472465,-0.11700423268056437,-0.20373705335468967],[-0.058216310301270495,-0.10792475055813046,-0.05206653864892024,-0.1110223674273385,-0.0029401395621578012,-0.12258974717049564,-0.0143053232357389,-0.12178771789921636,0.090521290493407],[-0.0644646676547337,-0.10431297735036871,-0.06177597171325738,-0.10592742765913533,-0.01391084708022637,-0.12183340654082568,-0.02678481962196689,-0.1196639630372166,0.007410111149488125],[-0.0687507230533017,-0.10153929619865266,-0.06946553658901511,-0.10105161963769377,-0.008137968345954365,-0.12235466509006372,-0.030105767956109506,-0.11887191990617152,-0.05086575514660112],[-0.07088473701848651,-0.10006120078780804,-0.07702317072993219,-0.09541656768205245,0.013410158807047774,-0.12188953243125908,-0.027517034943786878,-0.11949771177278067,-0.10469074843287428],[-0.07913648705333692,-0.09367127049004477,-0.08792815668611279,-0.08547239230484822,0.03146013339509363,-0.1185206758477563,-0.028975690651148186,-0.11915242316987584,-0.1348109362707538],[-0.09651031366275688,-0.07564819783800558,-0.09938487160012736,-0.07182992345598767,0.04358347855467294,-0.11461837113594477,-0.033710250262592154,-0.11790042255563685,-0.15620269872987247],[-0.1127790070977852,-0.04814337793549254,-0.10673741917795368,-0.060365668610752016,0.049984989277698046,-0.1119749590986238,-0.03805645743554754,-0.11657013622296673,-0.1552526124151345],[-0.12138801459513465,-0.017373150733632516,-0.11080529107653346,-0.052526925730672296,0.051101714157333424,-0.11146975050047425,-0.0419398459694611,-0.11522994328639984,-0.1548781803551131],[-0.1174346808518241,0.0038441171417429136,-0.1138629049820105,-0.04552064255073393,0.04552046906158255,-0.11386297593500759,-0.04832536464799999,-0.11270115128012301,-0.15504428259884834],[-0.11704604410598131,0.01688350946340838,-0.1164264622985482,-0.03849374967399067,0.038493588992551564,-0.11642651659353476,-0.0551068265268122,-0.10954509532511096,-0.15681322879906195],[-0.11678790636436688,0.021206313921919653,-0.1181784737191036,-0.03272214779572071,0.03272214450536528,-0.1181784746733224,-0.0604267490868461,-0.10670285193979584,-0.15437889098359575],[-0.11860063378472935,0.028329678732046306,-0.11938614068550692,-0.027997140015959255,0.027996292395857162,-0.11938633993208017,-0.06462215254214355,-0.104215488055831,-0.1547630267049359],[-0.1175614393136996,0.033827508521219185,-0.12026156364845438,-0.023959273367606976,0.02395925878843775,-0.12026156672731758,-0.06809600892405397,-0.10197952787830064,-0.15728143847710174],[-0.11494152184633431,0.04271878188082395,-0.1211810677325405,-0.018762631126129668,0.018311425544309045,-0.12125006987874386,-0.07260362043885966,-0.09882106484553237,-0.16281204295789756],[-0.1145316538667135,0.04380446665004242,-0.12173251500453983,-0.014767683896122437,0.014537583053825747,-0.12176021147009869,-0.07572646017016278,-0.09644891689034273,-0.15884157385184025],[-0.046457298504920044,-0.0009230339234068222,-0.08145525435450325,-0.024651842481634288,0.017554548180141263,0.0009683356178385027,-0.03117900825200319,-0.07884674613688675,-0.05940278865544311],[-0.0126394112194573,-0.0022551578171371455,-0.04221935564437168,0.006319164777737358,0.006560039964023635,-0.036279124146008424,0.04829872686457078,0.03221511717310684,-1.2983426894632322e-18],[-0.0033083399711667794,-0.015981728995722283,-0.015183109930140312,-0.004636040524808281,0.01995235482827524,0.029677759390359323,-0.0014609049269681386,-0.00905998986982873,-1.6543612251060553e-24],[0.002250272357954945,-0.03432415657809755,0.014332898809381545,-0.009852050573856963,0.04421473598454282,0.03236799921061214,-0.06079790715187338,0.011808207941346245,-1.037085964794484e-19],[-0.032224591052851914,-0.010718817535743306,-0.012155400112802877,-0.017930586706537324,0.054241464134623774,0.020062441470480037,-0.00986147296890179,0.00858696277185471,-3.2084019855216795e-19],[-0.008189966845291873,-0.018279309219169416,-0.02316236217580462,-0.029687309380051548,0.04718921267706425,0.059562851988417764,-0.0158368836559671,-0.011596233389197762,-1.2503662139351566e-20],[0.002223075320388452,-0.015378469235219908,-0.027566671266499813,-0.02435460179398649,0.02884971335497433,0.06018330751116412,-0.00350611740886254,-0.020450236481957453,-8.337980574534519e-22],[0.014857128751167847,-0.018265490843340892,-0.02823853501973767,-0.018329892862877676,0.01535878979005735,0.05655785066844467,-0.001977388685761562,-0.019962468279725813,2.333323946136178e-10],[0.021836452983254914,-0.01879449164107755,-0.022896872926518017,-0.014236339161550893,0.007258192112840774,0.049617247060179205,-0.0061977719261604065,-0.016586415525916054,1.7576337319665658e-17]],"z":[[-0.004096272215030606,0.03734185377716157,-0.16526646492253796,-0.040080590630831865,-0.05803777025016046,0.7820197491323373,1.1496021400351985e-9,0.12262500000000001,0.12262500000000001,0.12262500000000001,0.12262500000000001,0.39100987456616865,-0.05638205000264532,-0.10889422450904676,-0.03448642105983117,-0.11767572852641292,0.08551217847126068,-0.08788946372043416,0.03670013624472465,-0.11700423268056437,-0.20373705335468967,0.2063171413808833,0.5306624150991716,0.33149377491267007,0.5906978580764083,1.9089369954425113e-8,0.09486307341008281,0.18321506216605937,0.1492407534552503,0.5092443333320046,-0.2311661977558624,0.23759274221122686,-0.1767885177106949,0.5636220133771721,1.8344205796686207e-8],[0.01704794066621098,0.11426821220730803,-0.3198484449976256,-0.03302684146766546,0.025511388332364243,0.9350549154015271,4.313510597446964e-10,0.12262500009543964,0.12262500009543964,0.12262500009543964,0.12262500009543964,0.46752745775515286,-0.058216310301270495,-0.10792475055813046,-0.05206653864892024,-0.1110223674273385,-0.0029401395621578012,-0.12258974717049564,-0.0143053232357389,-0.12178771789921636,0.090521290493407,0.6520897767532171,0.9580512347951132,0.6713185999252819,0.9712413469479573,1.6119663986280091e-9,0.30958010663464414,0.5739174439915206,0.40678826914411553,0.8674015621236929,0.01609598850247187,0.671125606500992,0.11330415101194331,0.9646097246331642,-6.09858480289285e-10],[0.04553685746953084,0.19151540783060264,-0.4716890190628794,-0.01723768534266242,0.11127785445332389,0.5144951664251008,1.2229185015119597e-10,0.12262500000001007,0.12262500000001007,0.12262500000001007,0.12262500000001007,0.2572475832125562,-0.0644646676547337,-0.10431297735036871,-0.06177597171325738,-0.10592742765913533,-0.01391084708022637,-0.12183340654082568,-0.02678481962196689,-0.1196639630372166,0.007410111149488125,0.6679668237622137,0.9709487040568515,0.7107955940666596,1.0008956413112042,3.0043436660159896e-10,0.35115400009844605,0.5682169882927874,0.4891441359733596,0.8387367882981935,0.08063420009303991,0.7062071241677009,0.2186243359679534,0.9767269241731071,1.2915514710028e-10],[0.06914169163407874,0.2513052430517357,-0.6141791673381055,-0.004269257117912596,0.18070947977599158,0.29358408422096255,4.206844995183638e-10,0.12262500000000001,0.12262500000000001,0.12262500000000001,0.12262500000000001,0.14679204211048127,-0.0687507230533017,-0.10153929619865266,-0.06946553658901511,-0.10105161963769377,-0.008137968345954365,-0.12235466509006372,-0.030105767956109506,-0.11887191990617152,-0.05086575514660112,0.48225917611462515,0.7672071450954697,0.564809247175967,0.8216096251931279,1.1042597793978505e-9,0.2703826059851302,0.3993333930572579,0.4346133007995513,0.6322326165509813,0.03748338249140676,0.563564087871679,0.20171407730582785,0.7964633113654025,4.531414124457061e-10],[0.0829657275192573,0.289920570443194,-0.7414785556958281,0.0008248806094540072,0.2295469237718279,0.20938327678232643,8.154007598357845e-9,0.12262500000000001,0.12262500000000001,0.12262500000000001,0.12262500000000001,0.10469163839116322,-0.07088473701848651,-0.10006120078780804,-0.07702317072993219,-0.09541656768205245,0.013410158807047774,-0.12188953243125908,-0.027517034943786878,-0.11949771177278067,-0.10469074843287428,0.2528186303779289,0.506424663366072,0.3805313413303816,0.5808207839168672,0.006119082480269768,0.14614460277828034,0.2062983558224492,0.3180952769439199,0.3940575178410781,-0.04161455924034852,0.37824902998808874,0.130336114925291,0.5660081920067176,0.006119074577150314],[0.09176013475157242,0.3147485061212013,-0.8524903431052694,0.0025248288572581844,0.2648893695102271,0.2696218814173095,4.49555076145411e-10,0.12262500000000001,0.12262500000000001,0.12262500000000001,0.12262500000000001,0.13481094070865474,-0.07913648705333692,-0.09367127049004477,-0.08792815668611279,-0.08547239230484822,0.03146013339509363,-0.1185206758477563,-0.028975690651148186,-0.11915242316987584,-0.1348109362707538,0.11996349945182559,0.34109966249064894,0.2677668506067901,0.41672151947800673,0.014843586658574142,0.0774188779191723,0.09163819306318916,0.24458523604003488,0.23775416237609415,-0.06869709139373269,0.25880455118405177,0.09846926672712991,0.4049205204969567,0.014843586215042845],[0.09843715491357861,0.33236971973668383,-0.9551540787300306,-0.00014126806283151457,0.2985674080539326,0.31240539844792636,8.025761528371438e-11,0.12262500000000001,0.12262500000000001,0.12262500000000001,0.12262500000000001,0.15620269922396318,-0.09651031366275688,-0.07564819783800558,-0.09938487160012736,-0.07182992345598767,0.04358347855467294,-0.11461837113594477,-0.033710250262592154,-0.11790042255563685,-0.15620269872987247,0.05367200062173518,0.25894805338452503,0.21476319449296666,0.33210938016118946,0.08237936110773646,0.04224180742544521,0.03311062285993066,0.20987171491495663,0.1516837419602086,-0.07633131167483269,0.2007405303494421,0.09129859581467874,0.31931364944971996,0.08237936101483176],[0.10340886168398573,0.34529767617668417,-1.0442689281627286,-0.0049452141463632825,0.3327229819471187,0.31050522534371006,1.1673578656056214e-10,0.12262500000000001,0.12262500000000001,0.12262500000000001,0.12262500000000001,0.15525261267185503,-0.1127790070977852,-0.04814337793549254,-0.10673741917795368,-0.060365668610752016,0.049984989277698046,-0.1119749590986238,-0.03805645743554754,-0.11657013622296673,-0.1552526124151345,0.018979335925932483,0.19707927003159795,0.17690554585548107,0.26415070628480736,0.14352879603566998,0.01745541894707767,0.007451411658667299,0.1715452204454072,0.09701791564300985,-0.07211108503726486,0.16154121315699685,0.08197871646106468,0.2511077171413394,0.14352879590996395],[0.10736165231276572,0.3557683505297764,-1.1223997984650274,-0.007490465288860682,0.3639234074684216,0.3097563623092772,7.062700369903456e-10,0.12262500000000001,0.12262500000000001,0.12262500000000001,0.12262500000000001,0.1548781811546386,-0.12138801459513465,-0.017373150733632516,-0.11080529107653346,-0.052526925730672296,0.051101714157333424,-0.11146975050047425,-0.0419398459694611,-0.11522994328639984,-0.1548781803551131,0.003022662564545388,0.1591463782790996,0.15537721013345265,0.2223971908705836,0.13678357375560007,0.0029921718612127527,0.00042824191384540077,0.14380640790487653,0.06817100910433509,-0.06475059532927692,0.1412424779575092,0.07606364071438686,0.20898524514799885,0.1367835730493238],[0.111155664020794,0.364616437547592,-1.190474344514965,-0.006031192249575574,0.38877939403280953,0.31008857379713317,2.3932815871959033e-9,0.12262500000000001,0.12262500000000001,0.12262500000000001,0.12262500000000001,0.15504428689856659,-0.1174346808518241,0.0038441171417429136,-0.1138629049820105,-0.04552064255073393,0.04552046906158255,-0.11386297593500759,-0.04832536464799999,-0.11270115128012301,-0.15504428259884834,4.280941907081946e-7,0.13614948291733406,0.1361489198268468,0.19254404607909145,0.08914341951767812,4.2467762968620383e-7,-1.6960666540086466e-8,0.1264210042191056,0.05054117777550284,-0.0505407700585397,0.12642056258080936,0.07587980948293623,0.17696175731697875,0.08914341712377973],[0.1150329453969268,0.37232391914727636,-1.2514818733416972,-0.0013603345310899755,0.406600737848509,0.31362648252969155,2.5921937717283165e-9,0.12262500000000001,0.12262500000000001,0.12262500000000001,0.12262500000000001,0.15681324126484578,-0.11704604410598131,0.01688350946340838,-0.1164264622985482,-0.03849374967399067,0.038493588992551564,-0.11642651659353476,-0.0551068265268122,-0.10954509532511096,-0.15681322879906195,3.9633036262836773e-7,0.12201541149208463,0.12201488249003092,0.17255547445629438,0.03255345654422184,3.886482948606897e-7,-5.8015457557990336e-8,0.1158476877736294,0.038302390883811044,-0.03830206025097374,0.11584724110987697,0.0775452388743608,0.15414969000914558,0.03255345395274993],[0.11846124983310319,0.3783776921735416,-1.3006760987662664,0.003860150179305754,0.4184805441789589,0.308757820598573,5.445724881431702e-11,0.12262500000000001,0.12262500000000001,0.12262500000000001,0.12262500000000001,0.1543789102992865,-0.11678790636436688,0.021206313921919653,-0.1181784737191036,-0.03272214779572071,0.03272214450536528,-0.1181784746733224,-0.0604267490868461,-0.10670285193979584,-0.15437889098359575,6.342656821251159e-9,0.09838845655290385,0.0983884481355344,0.13914228366212217,0.002249113633846547,6.169650464220916e-9,-1.1343371478462992e-9,0.09482077575875392,0.026254692070539216,-0.0262546870352259,0.0948207684547663,0.06856608255387754,0.12107546165964267,0.0022491135795710574],[0.12142501119089381,0.3831572052103306,-1.3404424012628298,0.008518563106514651,0.427734661173678,0.3122251772512365,4.6530291945533116e-10,0.12262500000000001,0.12262500000000001,0.12262500000000001,0.12262500000000001,0.15611258862561825,-0.11860063378472935,0.028329678732046306,-0.11938614068550692,-0.027997140015959255,0.027996292395857162,-0.11938633993208017,-0.06462215254214355,-0.104215488055831,-0.1547630267049359,1.2743339480679546e-6,0.0795337434643438,0.07953203297443741,0.1124764889638174,1.0790609002064952e-8,1.2385630217450052e-6,-2.9728587869637534e-7,0.07743304123167458,0.01815875535300515,-0.018157814075862103,0.07743150538277413,0.05927398859279072,0.09559055802165796,1.0321762355008649e-8],[0.12407178298921412,0.3871209679102773,-1.3741446340039938,0.012736833014001173,0.4354446262698097,0.3145902457629647,2.9133890352527173e-10,0.12262500000000001,0.12262500000000001,0.12262500000000001,0.12262500000000001,0.15729512288148234,-0.1175614393136996,0.033827508521219185,-0.12026156364845438,-0.023959273367606976,0.02395925878843775,-0.12026156672731758,-0.06809600892405397,-0.10197952787830064,-0.15728143847710174,2.0214041036842374e-8,0.06740448351329861,0.06740445674022116,0.09532431567456283,3.125969156608473e-5,1.9100788542164037e-8,-5.365793719416303e-9,0.06610535034846367,0.013169928117052506,-0.013169914382057684,0.0661053258818814,0.052935416865617445,0.07927525936472762,3.125940035053985e-5],[0.12732347620786244,0.3914869668747039,-1.412495425290672,0.017920444087690102,0.4440662833516852,0.3256298181412851,6.267609132427432e-9,0.12262500000000001,0.12262500000000001,0.12262500000000001,0.12262500000000001,0.16281490907064256,-0.11494152184633431,0.04271878188082395,-0.1211810677325405,-0.018762631126129668,0.018311425544309045,-0.12125006987874386,-0.07260362043885966,-0.09882106484553237,-0.16281204295789756,0.0007375084654300371,0.07734459510946959,0.07634159995335103,0.10867235912616093,0.0006975048160423002,0.0006912997428058904,-0.0002569263033727652,0.07643384813412253,0.011834357200589169,-0.011399983761156043,0.07548562208794386,0.06434256463016058,0.08757690559190581,0.0006974985483528187],[0.1304387544565166,0.39542992824192486,-1.4479613429961282,0.022971931417444275,0.4518203141104919,0.3178024317062531,2.1424703623759062e-9,0.12262500000000001,0.12262500000000001,0.12262500000000001,0.12262500000000001,0.15890121585312655,-0.1145316538667135,0.04380446665004242,-0.12173251500453983,-0.014767683896122437,0.014537583053825747,-0.12176021147009869,-0.07572646017016278,-0.09644891689034273,-0.15884157385184025,0.00032076803896916527,0.0712152993809281,0.0707819706964663,0.10040718680012767,5.132008500887906e-5,0.00029960015594529803,-0.00011458664980191924,0.07069698280855323,0.00857643134161331,-0.00839141783546993,0.070282796002806,0.062005964817137986,0.07897381399422122,5.1317943882578254e-5],[0.13043875446004052,0.3954299282431592,-1.4479613430140095,0.022565728363289295,0.45793160089721846,0.11880557764839729,3.4186696768166103e-10,0.12262500000000001,0.12262500000000001,0.12262500000000001,0.12262500000000001,0.059402788824198645,-0.046457298504920044,-0.0009230339234068222,-0.08145525435450325,-0.024651842481634288,0.017554548180141263,0.0009683356178385027,-0.03117900825200319,-0.07884674613688675,-0.05940278865544311,1.2398543200559516e-10,1.4561199656185904e-10,1.959460720404763e-10,1.48518153016054e-10,0.061228588119376884,2.630191579177165e-11,-1.2784146083267654e-11,6.036668877800837e-11,3.4060914328308277e-12,1.0111678275673272e-11,2.128062690296782e-11,4.417645126190978e-11,3.747086441906723e-11,0.06122858773228284],[0.13043875446004052,0.3954299282431592,-1.4479613430140095,0.01944368741877738,0.46309584909925056,2.583874005599243e-18,0.0028250266927287958,0.12262500000000001,0.12262500000000001,0.12262500000000001,0.12262500000000001,1.2919370027996216e-18,-0.0126394112194573,-0.0022551578171371455,-0.04221935564437168,0.006319164777737358,0.006560039964023635,-0.036279124146008424,0.04829872686457078,0.03221511717310684,-1.2983426894632322e-18,3.2081538313379136e-19,6.21480646545791e-19,-3.636935309563964e-19,-1.6338471459147403e-20,0.05472042640779505,1.3474027715937523e-18,-2.7878095953599043e-19,1.1229841219147469e-18,1.5588740284335598e-18,-4.902521646770096e-19,-5.031991956246896e-19,-7.146704007657088e-19,1.334455327055766e-18,0.051636198839940764],[0.13043875446004052,0.3954299282431592,-1.4479613430140095,0.014846696141252414,0.4674349676486007,3.308722450212111e-24,0.007100150584937834,0.12262500000000001,0.12262500000000001,0.12262500000000001,0.12262500000000001,1.6543612251060553e-24,-0.0033083399711667794,-0.015981728995722283,-0.015183109930140312,-0.004636040524808281,0.01995235482827524,0.029677759390359323,-0.0014609049269681386,-0.00905998986982873,-1.6543612251060553e-24,9.740878893424454e-21,4.702108192057686e-21,1.1659937914547478e-20,-6.0371777007182725e-21,0.053140668691825405,3.4923875654718536e-20,-2.2529608151377107e-20,2.6273324206215542e-20,4.190786496408032e-20,-2.9513649159527174e-20,-3.118013375048596e-20,-3.8164148909241883e-20,3.3257352289668537e-20,0.04228407710702765],[0.13043875446004052,0.3954299282431592,-1.4479613430140095,0.009629259699186352,0.4710621608249126,6.246867986000465e-21,0.011943518807522369,0.12262500000000001,0.12262500000000001,0.12262500000000001,0.12262500000000001,3.1499037726019294e-21,0.002250272357954945,-0.03432415657809755,0.014332898809381545,-0.009852050573856963,0.04421473598454282,0.03236799921061214,-0.06079790715187338,0.011808207941346245,-1.037085964794484e-19,-5.957250215977479e-17,4.8166925592309814e-18,6.234820265814753e-17,-1.1122151402379802e-17,0.06333814951725465,1.4756574895295688e-16,-1.3496137633325606e-16,1.2587803116696583e-16,9.666803959671656e-17,-8.406366573624483e-17,-1.5664909205129558e-16,-1.0575138352223588e-16,7.498031932918368e-17,0.03469536144143702],[0.13043875446004052,0.3954299282431593,-1.4479613430140095,0.00435414536546856,0.4740845704365384,3.0704944337968387e-21,0.01682442980982953,0.12262500000000001,0.12262500000000001,0.12262500000000001,0.12262500000000001,1.4823076576950256e-21,-0.032224591052851914,-0.010718817535743306,-0.012155400112802877,-0.017930586706537324,0.054241464134623774,0.020062441470480037,-0.00986147296890179,0.00858696277185471,-3.2084019855216795e-19,1.4042648477316521e-15,1.0786350484396755e-15,9.709932544696518e-16,-7.609269659682172e-16,0.09949626480003297,3.1017324530262057e-15,-1.4664380322070732e-15,2.401988966474102e-15,3.94925294715099e-15,-2.31395851640569e-15,-2.1661815319940666e-15,-3.0137020393537404e-15,3.2495094275116617e-15,0.02886641245952259],[0.13043875446004052,0.3954299282431593,-1.4479613430140095,-0.0006409058849443153,0.47660673560588684,2.1705219273391446e-21,0.02144108917912572,0.12262500000000001,0.12262500000000001,0.12262500000000001,0.12262500000000001,1.1117307432712692e-21,-0.008189966845291873,-0.018279309219169416,-0.02316236217580462,-0.029687309380051548,0.04718921267706425,0.059562851988417764,-0.0158368836559671,-0.011596233389197762,-1.2503662139351566e-20,-2.1092265204599852e-17,4.875061070230683e-17,1.1707938212877195e-16,3.995930868231365e-17,0.07048937499088556,1.0228495577951808e-16,-1.1603089596077526e-16,8.068679683844815e-17,9.143943011758826e-17,-1.0518536533576177e-16,-1.3762905324748397e-16,-1.2678352758555415e-16,6.984126125035098e-17,0.024368782773137886],[0.13043875446004052,0.3954299282431593,-1.4479613430140095,-0.005198855066510483,0.4787350018641871,6.617444900424222e-24,0.02565597544485639,0.12262500000000001,0.12262500000000001,0.12262500000000001,0.12262500000000001,3.308722450212111e-24,0.002223075320388452,-0.015378469235219908,-0.027566671266499813,-0.02435460179398649,0.02884971335497433,0.06018330751116412,-0.00350611740886254,-0.020450236481957453,-8.337980574534519e-22,-1.2657451558837425e-18,1.2514977970131292e-17,3.181318768777713e-17,5.07389940762067e-18,0.07996935083939923,3.442739854234176e-17,-3.2893892540632763e-17,2.550120983422078e-17,3.387786192957277e-17,-3.2344356755044384e-17,-4.182008207593435e-17,-4.127054587675567e-17,2.4951669085548727e-17,0.0209235568987425],[0.1304387544356903,0.3954299281699771,-1.4479613430349743,-0.00931767121349076,0.48058311138244075,4.984485754199724e-9,0.02946934415899715,0.12262500000000001,0.12262500000000001,0.12262500000000001,0.12262500000000001,2.4922428771000736e-9,0.014857128751167847,-0.018265490843340892,-0.02823853501973767,-0.018329892862877676,0.01535878979005735,0.05655785066844467,-0.001977388685761562,-0.019962468279725813,2.333323946136178e-10,2.5941167353978434e-9,1.9120032363197125e-9,3.693792744100438e-9,1.5016181693466087e-9,0.07706887387800436,-3.253090377189765e-11,-9.455778960252947e-10,-2.9746571275022863e-11,-5.208511767235486e-10,-4.57257623073619e-10,-9.427935635284e-10,-4.5447329057696257e-10,-5.180668442268921e-10,0.018495272149867355],[0.13043875443569034,0.3954299281699771,-1.4479613430349743,-0.013141012243168982,0.48227932065293316,2.4458076351967922e-20,0.03301354812891746,0.12262500000000001,0.12262500000000001,0.12262500000000001,0.12262500000000001,1.2334917294390749e-20,0.021836452983254914,-0.01879449164107755,-0.022896872926518017,-0.014236339161550893,0.007258192112840774,0.049617247060179205,-0.0061977719261604065,-0.016586415525916054,1.7576337319665658e-17,6.142757048871071e-16,3.0184368476497735e-16,1.2377661753282753e-15,-7.113229695715516e-16,0.07349380659755775,1.434341081864521e-15,-1.1161934422329969e-15,1.0864904849320711e-15,9.403959891951031e-16,-6.222484554426974e-16,-1.4640439332863284e-15,-9.700992111938249e-16,5.9254560402089e-16,0.017243459132311987]],"theta":[[0.0,0.0,0.0,-0.02,-0.10000001,0.0,0.0,0.0,-0.02,-0.10000001,-2.0803656288870016,5.001106162192028,0.1],[0.0,0.0,0.0,-0.02,-0.10000001,-0.004096272215030606,0.03734185377716157,-0.16526646492253796,-0.040080590630831865,-0.05803777025016046,3.0933671422677493,5.017861513939972,0.1],[-0.004096272215030606,0.03734185377716158,-0.16526646492253796,-0.040080590630831865,-0.058037770250160464,0.01704794066621098,0.11426821220730803,-0.3198484449976256,-0.03302684146766546,0.025511388332364243,1.1139240414746592,0.67667690036264,0.1],[0.01704794066621098,0.11426821220730803,-0.3198484449976256,-0.03302684146766546,0.025511388332364243,0.04553685746953084,0.19151540783060264,-0.4716890190628794,-0.01723768534266242,0.11127785445332389,-0.1544536204686613,-1.3642401830182287,0.1],[0.04553685746953084,0.19151540783060264,-0.4716890190628794,-0.01723768534266242,0.11127785445332389,0.06914169163407874,0.2513052430517357,-0.6141791673381055,-0.004269257117912596,0.18070947977599158,-0.7232222486468576,-1.8342981983059836,0.1],[0.06914169163407874,0.2513052430517357,-0.6141791673381055,-0.004269257117912596,0.18070947977599158,0.0829657275192573,0.289920570443194,-0.7414785556958281,0.0008248806094540072,0.2295469237718279,-0.22513503348937292,-1.0705569810656925,0.1],[0.0829657275192573,0.289920570443194,-0.7414785556958281,0.0008248806094540073,0.2295469237718279,0.09176013475157242,0.3147485061212013,-0.8524903431052694,0.0025248288572581844,0.2648893695102271,-0.2717564305216733,0.14148897489095447,0.1],[0.09176013475157242,0.3147485061212013,-0.8524903431052694,0.0025248288572581844,0.2648893695102271,0.09843715491357861,0.33236971973668383,-0.9551540787300306,-0.00014126806283151457,0.2985674080539326,-0.023250155826609387,0.3378751050610731,0.1],[0.09843715491357861,0.33236971973668383,-0.9551540787300306,-0.00014126806283151425,0.2985674080539326,0.10340886168398573,0.34529767617668417,-1.0442689281627286,-0.0049452141463632825,0.3327229819471187,0.4387117701709613,-0.02348788780621902,0.1],[0.10340886168398573,0.34529767617668417,-1.0442689281627286,-0.0049452141463632825,0.3327229819471187,0.10736165231276572,0.3557683505297764,-1.1223997984650274,-0.007490465288860682,0.3639234074684216,0.632967110390986,-0.38242911642014654,0.1],[0.10736165231276572,0.3557683505297764,-1.1223997984650274,-0.007490465288860682,0.3639234074684216,0.111155664020794,0.364616437547592,-1.190474344514965,-0.006031192249575574,0.38877939403280953,0.5720769085398842,-0.4672884769209311,0.1],[0.111155664020794,0.364616437547592,-1.190474344514965,-0.006031192249575574,0.38877939403280953,0.1150329453969268,0.37232391914727636,-1.2514818733416972,-0.0013603345310899755,0.406600737848509,0.31314391445640055,-0.374293673772224,0.1],[0.1150329453969268,0.37232391914727636,-1.2514818733416972,-0.0013603345310899753,0.406600737848509,0.11846124983310319,0.3783776921735416,-1.3006760987662664,0.003860150179305754,0.4184805441789589,0.21376002551398177,-0.05204224419602754,0.1],[0.11846124983310319,0.3783776921735416,-1.3006760987662664,0.003860150179305754,0.4184805441789589,0.12142501119089381,0.3831572052103306,-1.3404424012628298,0.008518563106514651,0.427734661173678,0.2347755555308293,0.049800166224848175,0.1],[0.12142501119089381,0.3831572052103306,-1.3404424012628298,0.008518563106514651,0.427734661173678,0.12407178298921412,0.3871209679102773,-1.3741446340039938,0.012736833014001173,0.4354446262698097,0.3929981152969466,0.2913065451887604,0.1],[0.12407178298921412,0.3871209679102773,-1.3741446340039938,0.012736833014001173,0.4354446262698097,0.12732347620786244,0.3914869668747039,-1.412495425290672,0.017920444087690102,0.4440662833516852,0.2828765218941731,0.09817933732758632,0.1],[0.12732347620786244,0.3914869668747039,-1.412495425290672,0.017920444087690102,0.4440662833516852,0.1304387544565166,0.39542992824192486,-1.4479613429961282,0.022971931417444275,0.4518203141104919,-0.43538480791093237,-0.10025072394379198,0.1],[0.1304387544565166,0.39542992824192486,-1.4479613429961282,0.022971931417444275,0.4518203141104919,0.13043875446004052,0.3954299282431592,-1.4479613430140095,0.022565728363289295,0.45793160089721846,-0.27158378903569824,-0.09470385846948881,0.1],[0.13043875446004052,0.3954299282431592,-1.4479613430140095,0.022565728363289295,0.45793160089721846,0.13043875446004052,0.3954299282431592,-1.4479613430140095,0.01944368741877738,0.46309584909925056,-0.14749503330130492,-0.08251296526819485,0.1],[0.13043875446004052,0.3954299282431592,-1.4479613430140095,0.01944368741877738,0.46309584909925056,0.13043875446004052,0.3954299282431592,-1.4479613430140095,0.014846696141252414,0.4674349676486007,-0.06204451645411552,-0.0711925373038308,0.1],[0.13043875446004052,0.3954299282431592,-1.4479613430140095,0.014846696141252414,0.4674349676486007,0.13043875446004052,0.3954299282431592,-1.4479613430140095,0.009629259699186352,0.4710621608249126,-0.005767789165240206,-0.060478356468663286,0.1],[0.13043875446004052,0.3954299282431592,-1.4479613430140095,0.009629259699186352,0.4710621608249126,0.13043875446004052,0.3954299282431593,-1.4479613430140095,0.00435414536546856,0.4740845704365384,0.028006308330490948,-0.05002444422773644,0.1],[0.13043875446004052,0.3954299282431593,-1.4479613430140095,0.00435414536546856,0.4740845704365384,0.13043875446004052,0.3954299282431593,-1.4479613430140095,-0.0006409058849443153,0.47660673560588684,0.04371020688467035,-0.03938989110481944,0.1],[0.13043875446004052,0.3954299282431593,-1.4479613430140095,-0.0006409058849443155,0.47660673560588684,0.13043875446004052,0.3954299282431593,-1.4479613430140095,-0.005198855066510483,0.4787350018641871,0.04391330837936122,-0.028015673418984643,0.1],[0.13043875446004052,0.3954299282431593,-1.4479613430140095,-0.005198855066510483,0.4787350018641871,0.1304387544356903,0.3954299281699771,-1.4479613430349743,-0.00931767121349076,0.48058311138244075,0.029547511730290493,-0.015190024775934799,0.1]],"iq0":[1,2,3,4,5],"iq1":[6,7,8,9,10],"iu1":[11,12],"iw1":[],"iq2":[1,2,3,4,5],"igamma1":[6,7,8,9,10],"ib1":[11,12,13,14],"nq":5,"nu":2,"nw":0,"nc":5,"nb":4,"nz":35,"nθ":13}