{"H":24,"h":0.05,"kappa":[2.0e-8,2.0e-8,2.0e-8,2.0e-8,2.0e-8,2.0e-8,2.0e-8,2.0e-8,2.0e-8,2.0e-8,2.0e-8,2.0e-8,2.0e-8,2.0e-8,2.0e-8,2.0e-8,2.0e-8,2.0e-8,2.0e-8,2.0e-8,2.0e-8,2.0e-8,2.0e-8,2.0e-8],"q":[[0.0,0.0,0.0,-0.10000001,0.0],[0.0,0.0,0.0,-0.10000001,0.0],[0.011527518205400107,-0.005202845721016829,0.06181880282813651,-0.08828121964824462,-0.011384782061765695],[0.029522052885964815,-0.01072789468817353,0.13494613967775979,-0.06956740740554697,-0.024192005736360423],[0.05161179767777985,-0.014985048851313805,0.20689946109766572,-0.0462520482224028,-0.03554403826560494],[0.07633643212613249,-0.01743959620846241,0.2751296841416713,-0.019896622980740773,-0.04462790067971472],[0.10267341007997961,-0.01792207462649853,0.3392895731828587,0.008383010893118497,-0.051228614354569525],[0.1298672456339745,-0.01642426657556943,0.39953135266666756,0.03775451996559155,-0.0553504883217558],[0.15734893800930352,-0.013022874361511073,0.4561221292414269,0.06758667001613859,-0.05709939927646947],[0.18468923691789726,-0.007842582752421246,0.5093498914740443,0.0974002874743557,-0.05663442617505186],[0.21156764723950294,-0.0010344413336373392,0.5594977531332846,0.12683530636725077,-0.05414221029020368],[0.2377499858918361,0.007238236440939299,0.6068363050862228,0.15562665869073145,-0.049821064536060916],[0.2630710988491281,0.016809537369110467,0.6516216714417884,0.18358556926400427,-0.04387040361255294],[0.2874209362238444,0.02751760864430305,0.6940956972277926,0.21058443466238974,-0.036483614863415774],[0.31073296986450744,0.03920907535882358,0.7344870146979843,0.236544242750724,-0.027843421031079767],[0.33297434489238714,0.05174165239335918,0.7730124580954584,0.2614238992819567,-0.018119196092184948],[0.35413738291383795,0.0649852158134098,0.8098785707118153,0.28521105303135624,-0.007465908280001854],[0.3742321767646506,0.07882149087960576,0.8452830716338067,0.30791413464967243,0.003975505396850716],[0.3932800794893384,0.09314243006150294,0.8794162122452843,0.3295553898821616,0.016076431625740104],[0.41130791999501326,0.10784727351515913,0.9124619854285533,0.3501647203741153,0.028717549256092777],[0.428342791793365,0.12283819233566245,0.9445991771735801,0.3697741626854384,0.04178438449045563],[0.44440727541478375,0.13801429697554976,0.9760023550045164,0.38841286069396935,0.055161236706597415],[0.45951500489356695,0.15326361746652287,1.006843510506558,0.4061024920723835,0.06872304972595394],[0.47366673076738885,0.16845231394675916,1.0372984929924653,0.4228536564161111,0.08232429461429669]],"u":[[2.775620111940004,-2.456033126067042],[1.7461290750682337,-0.3513055937397589],[1.2307273913594525,0.2753801602315593],[0.8953344122333778,0.4680417715656806],[0.6547589766563298,0.5327375206129878],[0.47414508275455347,0.5492117605053617],[0.33596003376675476,0.5426374722082543],[0.22980471062630858,0.5235250272979743],[0.1486988858602416,0.4975019781424047],[0.08754261122182516,0.46806983139161],[0.04238707750163506,0.4375610642477246],[0.010047606379306906,0.40755190270738306],[-0.012119028883073923,0.3790730365136371],[-0.026350619701612565,0.35272969647334995],[-0.03456767533596938,0.32877393560752566],[-0.03843500020602164,0.3071472751965081],[-0.039408867531409264,0.2875010756477363],[-0.03877657374792953,0.2691964198064105],[-0.03769133958163273,0.2512815707001639],[-0.03720063041038024,0.2324405288523681],[-0.03824993479812733,0.2108940172728686],[-0.04156647738591168,0.18418545833535305],[-0.04693081428317569,0.14857482141982725],[-0.049157441439927396,0.09679890747820075]],"w":[[0.0],[0.0],[0.0],[0.0],[0.0],[0.0],[0.0],[0.0],[0.0],[0.0],[0.0],[0.0],[0.0],[0.0],[0.0],[0.0],[0.0],[0.0],[0.0],[0.0],[0.0],[0.0],[0.0],[0.0]],"gamma":[[0.419973857185557],[0.3349794505023418],[0.3005809982303563],[0.2804292218768696],[0.26654692134241736],[0.2564153945860785],[0.24887598224301336],[0.24324332743510832],[0.2390579821603575],[0.2359907863128878],[0.23379511435422626],[0.2322789295574701],[0.23128713331340103],[0.23068933362731092],[0.23037071917156055],[0.2302245337655845],[0.23014514368458583],[0.23002091103640993],[0.22972611974281051],[0.22911101104426548],[0.22798829203286322],[0.2261120089950826],[0.22313475334456118],[0.21848443060409758]],"b":[[-0.06089260261320565,-0.0071633018948112585,-0.026900894341426843,0.055095957022852846,-0.06112723843706499,-0.0047626865061753286,-0.052390942089228974,0.031849830671700184,0.20541484206380956],[-0.061138409033917394,-0.004616907962849956,-0.03978813893370947,0.046648965143222504,-0.06093477926902219,-0.006795193003582298,-0.05592304013983882,0.02513634207436479,0.1129109061520936],[-0.06103022328251541,-0.005876495162399035,-0.04850562789176414,0.03750234875080858,-0.06059675037811345,-0.009341084619741728,-0.05838119949274888,0.01873119595014279,0.07909220343031866],[-0.060732737395555424,-0.0084116774132887,-0.05387227623260928,0.029274565697572717,-0.06009103391346592,-0.012177428126865356,-0.059927359857422625,0.012958927423681647,0.06419118236079804],[-0.0602448364086035,-0.011392174150852523,-0.057187927905507106,0.022107993571358488,-0.059416534037697526,-0.015129364777605547,-0.06082108175518383,0.007747151377356423,0.055783801856337446],[-0.05956867157564802,-0.014518796982799382,-0.0592431385968618,0.015794716200614036,-0.05858114988579642,-0.018096163623445297,-0.0612399309705364,0.0029821548132793856,0.05025636763961437],[-0.05871312886472258,-0.017663258752272964,-0.06046926129565104,0.010133656343710239,-0.05759631685726294,-0.02102109890405631,-0.061295994707639995,-0.0014224851385291667,0.046312149741256005],[-0.05769110409022194,-0.020759546830734804,-0.06110964025199755,0.0049834151826360865,-0.056475227234262036,-0.023869877668186764,-0.061063126850522315,-0.005524218854803608,0.04336418156501926],[-0.05651825423998602,-0.023767819332509193,-0.06131198422799313,0.00025128037204296495,-0.0552323081835018,-0.026619814005372416,-0.06059382401292722,-0.009360072296571244,0.04109526972507795],[-0.055212278093752384,-0.0266613327462828,-0.06117372490227386,-0.004122854333049907,-0.05388292443197661,-0.029254962525390837,-0.05992843106214819,-0.012953980812115833,0.039314274155332125],[-0.05379223964433443,-0.029421374626348112,-0.06076460561685054,-0.008178340045432202,-0.05244300795628153,-0.03176402534197594,-0.059100088226561626,-0.016321827289035327,0.037898609014131085],[-0.05227782700062086,-0.03203515486676958,-0.06013835165098564,-0.011941574374875521,-0.05092858054235608,-0.03413945055497032,-0.0581373938143276,-0.01947475084450154,0.03676700685727945],[-0.050688566078337036,-0.034494805736602685,-0.05933891008421869,-0.015431016972387386,-0.04935520960402035,-0.036376994038121224,-0.057065822041657215,-0.022421294340198863,0.03586504127336065],[-0.049043054191475026,-0.036796755275286495,-0.05840388612089091,-0.01866034883128514,-0.04773745851190749,-0.038475413896639776,-0.05590846515009901,-0.025168750758074808,0.03515690496200503],[-0.04735828214975636,-0.03894117978880056,-0.05736651669273651,-0.021640362604801004,-0.04608838852019338,-0.04043615797887501,-0.0546864337965548,-0.027723932867094066,0.03462061896690165],[-0.04564910197685076,-0.04093142884832679,-0.056256921787686105,-0.024379936044614046,-0.04441915673449817,-0.04226299742835443,-0.05341912892438169,-0.030093507018410678,0.03424533250205506],[-0.04392787789946789,-0.04277340211245362,-0.055103083035891134,-0.02688629335992638,-0.0427387375076905,-0.043961605523459936,-0.052124533713443146,-0.03228398193050837,0.03403007540288903],[-0.042204338014970276,-0.04447489451529368,-0.05393186095699194,-0.029164651632915532,-0.04105377717511858,-0.04553910220511461,-0.05081964259234729,-0.03430140572524982,0.03398372593894479],[-0.04048562947339843,-0.04604493671515015,-0.05277032160842303,-0.031217233839802166,-0.03936857693533864,-0.047003591395214844,-0.049521142673783936,-0.036150780611017445,0.03412628953458943],[-0.03877657636440577,-0.04749315227015847,-0.05164771877668274,-0.03304142361903773,-0.03768518446710985,-0.04836371910596198,-0.048246514078515934,-0.03783512111374187,0.03449214063006746],[-0.03708014566805471,-0.048829142644672426,-0.05059885920229653,-0.034626261296428304,-0.036003538795810495,-0.04962829477256203,-0.04701593041178013,-0.039353840894542184,0.035137673151333516],[-0.03539810343148984,-0.05006192784039027,-0.04967122621148243,-0.03594428739510581,-0.034321421467546964,-0.05080612619914808,-0.04585625054010694,-0.04069922331820069,0.03616360379008314],[-0.03373156272357669,-0.05119964805162352,-0.048946008948711706,-0.03692574550081537,-0.03263292778526253,-0.05190678583649053,-0.04481262831424837,-0.0418455589406552,0.03779953633207076],[-0.03207950335218396,-0.05225062289197353,-0.04862383913080547,-0.03734895736233116,-0.030918533894725275,-0.05294588321300343,-0.04399495834734326,-0.04270440261013254,0.0407956567957051]],"z":[[0.011527518205400107,-0.005202845721016829,0.06181880282813651,-0.08828121964824462,-0.011384782061765695,0.419973857185557,2.6710697936244727e-9,0.061312500000000006,0.061312500000000006,0.061312500000000006,0.061312500000000006,0.2099869285927785,-0.06089260261320565,-0.0071633018948112585,-0.026900894341426843,0.055095957022852846,-0.06112723843706499,-0.0047626865061753286,-0.052390942089228974,0.031849830671700184,0.20541484206380956,0.10019686506937,0.26162284817464143,0.3473631337130723,0.4231645664100411,1.280927873358376e-6,0.09951066935901245,0.011706264172794937,0.11478718551487063,-0.23509660916932626,0.3463135427011337,0.026982780328653096,0.3615900588569918,-0.21982009301346808,-1.2782599858670874e-6],[0.029522052885964815,-0.01072789468817353,0.13494613967775979,-0.06956740740554697,-0.024192005736360423,0.3349794505023418,1.6635339122215368e-8,0.061312500000000006,0.061312500000000006,0.061312500000000006,0.061312500000000006,0.1674897252511709,-0.061138409033917394,-0.004616907962849956,-0.03978813893370947,0.046648965143222504,-0.06093477926902219,-0.006795193003582298,-0.05592304013983882,0.02513634207436479,0.1129109061520936,0.1958451083906402,0.3615778205806099,0.48814631479982334,0.5750391591292433,8.870527903437416e-8,0.19528902672860113,0.014747375638836466,0.23464233862932365,-0.27510264622582703,0.4851390485932647,0.05410068753955898,0.5244923604939872,-0.23574933432510453,-6.954928848993656e-8],[0.05161179767777985,-0.014985048851313805,0.20689946109766572,-0.0462520482224028,-0.03554403826560494,0.3005809982303563,2.054011861029031e-8,0.061312500000000006,0.061312500000000006,0.061312500000000006,0.061312500000000006,0.15029049911517814,-0.06103022328251541,-0.005876495162399035,-0.04850562789176414,0.03750234875080858,-0.06059675037811345,-0.009341084619741728,-0.05838119949274888,0.01873119595014279,0.07909220343031866,0.27265043297376057,0.417786297069105,0.559602830621846,0.6429327020718989,7.248096383785219e-8,0.27139517974033434,0.02613216315829252,0.3305196494152027,-0.25554279935877183,0.5530701422573986,0.08525663283316082,0.612194611932267,-0.19641832968390355,-4.763772363560666e-8],[0.07633643212613249,-0.01743959620846241,0.2751296841416713,-0.019896622980740773,-0.04462790067971472,0.2804292218768696,2.1596787617323356e-8,0.061312500000000006,0.061312500000000006,0.061312500000000006,0.061312500000000006,0.1402146109384348,-0.060732737395555424,-0.0084116774132887,-0.05387227623260928,0.029274565697572717,-0.06009103391346592,-0.012177428126865356,-0.059927359857422625,0.012958927423681647,0.06419118236079804,0.3292049886051856,0.45551315224855987,0.6007158493166471,0.6782151900847475,6.682280059478617e-8,0.32609207628295944,0.045164770694839686,0.4002369711292412,-0.2174915598270656,0.5887484068048646,0.11930966554112152,0.6628933016511465,-0.1433466649807838,-4.1290124914763496e-8],[0.10267341007997961,-0.01792207462649853,0.3392895731828587,0.008383010893118497,-0.051228614354569525,0.26654692134241736,2.1403415135449588e-8,0.061312500000000006,0.061312500000000006,0.061312500000000006,0.061312500000000006,0.13327346067120868,-0.0602448364086035,-0.011392174150852523,-0.057187927905507106,0.022107993571358488,-0.059416534037697526,-0.015129364777605547,-0.06082108175518383,0.007747151377356423,0.055783801856337446,0.36946168714077354,0.4807852220098933,0.6243435280552019,0.6960296976270064,6.101314540324831e-8,0.36302808334141934,0.0686478365174164,0.4484421541988037,-0.17336104409624561,0.6050369639550813,0.15406190737480083,0.6904510348124657,-0.0879469732388612,-3.621410062471822e-8],[0.1298672456339745,-0.01642426657556943,0.39953135266666756,0.03775451996559155,-0.0553504883217558,0.2564153945860785,2.0398434495290956e-8,0.061312500000000006,0.061312500000000006,0.061312500000000006,0.061312500000000006,0.12820769729303924,-0.05956867157564802,-0.014518796982799382,-0.0592431385968618,0.015794716200614036,-0.05858114988579642,-0.018096163623445297,-0.0612399309705364,0.0029821548132793856,0.05025636763961437,0.3973158404068902,0.49650614069019383,0.6363531605077125,0.7025694437229967,5.4535119359923027e-8,0.3860155329586782,0.09408434833470743,0.4797485237637724,-0.12790501710263766,0.6080048983960233,0.18781733913980175,0.7017378892011175,-0.034172026297543345,-3.0905088992086307e-8],[0.15734893800930352,-0.013022874361511073,0.4561221292414269,0.06758667001613859,-0.05709939927646947,0.24887598224301336,1.8632561089845606e-8,0.061312500000000006,0.061312500000000006,0.061312500000000006,0.061312500000000006,0.12443799112150668,-0.05871312886472258,-0.017663258752272964,-0.06046926129565104,0.010133656343710239,-0.05759631685726294,-0.02102109890405631,-0.061295994707639995,-0.0014224851385291667,0.046312149741256005,0.4157980023973398,0.5048190738370124,0.6401939566198246,0.7012864089611575,4.729648826841238e-8,0.3981700679660529,0.11978546629539744,0.4978762254923499,-0.08343593525936019,0.6013914695208105,0.21949162382169446,0.7010976270471075,0.016270222266936814,-2.5437876526049355e-8],[0.18468923691789726,-0.007842582752421246,0.5093498914740443,0.0974002874743557,-0.05663442617505186,0.24324332743510832,1.7166372752876986e-8,0.061312500000000006,0.061312500000000006,0.061312500000000006,0.061312500000000006,0.12162166371755416,-0.05769110409022194,-0.020759546830734804,-0.06110964025199755,0.0049834151826360865,-0.056475227234262036,-0.023869877668186764,-0.061063126850522315,-0.005524218854803608,0.04336418156501926,0.4271865612072295,0.5074514567143878,0.6381896711944378,0.6944815945585784,4.250350016044033e-8,0.4019549847016723,0.14463931937274033,0.5057724909809308,-0.041245161288405684,0.5878394653628183,0.2484568256519988,0.6916569716420768,0.06257234499085278,-2.1968639957935623e-8],[0.21156764723950294,-0.0010344413336373392,0.5594977531332846,0.12683530636725077,-0.05414221029020368,0.2390579821603575,1.6584690670719995e-8,0.061312500000000006,0.061312500000000006,0.061312500000000006,0.061312500000000006,0.11952899108017875,-0.05651825423998602,-0.023767819332509193,-0.06131198422799313,0.00025128037204296495,-0.0552323081835018,-0.026619814005372416,-0.06059382401292722,-0.009360072296571244,0.04109526972507795,0.43320633345200943,0.5058026660494702,0.6320129774567976,0.6838194342517143,4.103459429220692e-8,0.39933237718362546,0.16793262134797207,0.5057984134598197,-0.002073000872810046,0.5693379994044075,0.27439865762416626,0.6758040356806018,0.10439303540338418,-2.071619298340604e-8],[0.2377499858918361,0.007238236440939299,0.6068363050862228,0.15562665869073145,-0.049821064536060916,0.2359907863128878,1.584897548574715e-8,0.061312500000000006,0.061312500000000006,0.061312500000000006,0.061312500000000006,0.1179953931564439,-0.055212278093752384,-0.0266613327462828,-0.06117372490227386,-0.004122854333049907,-0.05388292443197661,-0.029254962525390837,-0.05992843106214819,-0.012953980812115833,0.039314274155332125,0.4351797526029248,0.5009992816267133,0.6229096278190852,0.670548486197446,3.9347152139826224e-8,0.39188201819147195,0.18923500597636125,0.4998653225618349,0.03368880063634133,0.547428223531492,0.29721831034672425,0.6554115279018548,0.1416721050067043,-1.9492176809094742e-8],[0.2630710988491281,0.016809537369110467,0.6516216714417884,0.18358556926400427,-0.04387040361255294,0.23379511435422626,1.5028137931617407e-8,0.061312500000000006,0.061312500000000006,0.061312500000000006,0.061312500000000006,0.11689755717711313,-0.05379223964433443,-0.029421374626348112,-0.06076460561685054,-0.008178340045432202,-0.05244300795628153,-0.03176402534197594,-0.059100088226561626,-0.016321827289035327,0.037898609014131085,0.4341299173003769,0.4939408969925681,0.6118242618231114,0.6556201310714201,3.7531252756352917e-8,0.38088189662134025,0.20832127514491677,0.4895270025643468,0.0658856560389235,0.5233175157273335,0.3169663810879232,0.63196262167034,0.17453076198192996,-1.831241100042936e-8],[0.2874209362238444,0.02751760864430305,0.6940956972277926,0.21058443466238974,-0.036483614863415774,0.2322789295574701,1.4173940330290677e-8,0.061312500000000006,0.061312500000000006,0.061312500000000006,0.061312500000000006,0.11613946477873505,-0.05227782700062086,-0.03203515486676958,-0.06013835165098564,-0.011941574374875521,-0.05092858054235608,-0.03413945055497032,-0.0581373938143276,-0.01947475084450154,0.03676700685727945,0.4308501391479763,0.48533770352652433,0.5994780360358782,0.6397614895935724,3.566550487636331e-8,0.3673624429264057,0.22511478585642117,0.4760433871417567,0.09452712093593117,0.49795010784689564,0.3337957300717722,0.6066310520622467,0.2032080651512822,-1.7196659488631786e-8],[0.31073296986450744,0.03920907535882358,0.7344870146979843,0.236544242750724,-0.027843421031079767,0.23128713331340103,1.3322632434503425e-8,0.061312500000000006,0.061312500000000006,0.061312500000000006,0.061312500000000006,0.11564356665670052,-0.050688566078337036,-0.034494805736602685,-0.05933891008421869,-0.015431016972387386,-0.04935520960402035,-0.036376994038121224,-0.057065822041657215,-0.022421294340198863,0.03586504127336065,0.42595162918651147,0.47574050932196754,0.5864191052521167,0.6235235458325445,3.38120613045846e-8,0.35214479985626435,0.23964311021839177,0.4604268968852797,0.1197334613334141,0.472054448741242,0.3479252072474071,0.5803365457702574,0.22801555836242945,-1.6163431911467973e-8],[0.33297434489238714,0.05174165239335918,0.7730124580954584,0.2614238992819567,-0.018119196092184948,0.23068933362731092,1.2498392208243662e-8,0.061312500000000006,0.061312500000000006,0.061312500000000006,0.061312500000000006,0.11534466681365546,-0.049043054191475026,-0.036796755275286495,-0.05840388612089091,-0.01866034883128514,-0.04773745851190749,-0.038475413896639776,-0.05590846515009901,-0.025168750758074808,0.03515690496200503,0.4198962570835362,0.4655638555622369,0.573055903882342,0.6073136824578869,3.201840311502053e-8,0.3358694493856179,0.25200113210847624,0.44347790913982965,0.14169348951873606,0.4461770919753581,0.359609591862688,0.5537855517295699,0.24930194927294777,-1.5228836859972088e-8],[0.35413738291383795,0.0649852158134098,0.8098785707118153,0.28521105303135624,-0.007465908280001854,0.23037071917156055,1.1717613467323402e-8,0.061312500000000006,0.061312500000000006,0.061312500000000006,0.061312500000000006,0.11518535958578027,-0.04735828214975636,-0.03894117978880056,-0.05736651669273651,-0.021640362604801004,-0.04608838852019338,-0.04043615797887501,-0.0546864337965548,-0.027723932867094066,0.03462061896690165,0.4130184659770035,0.4551028983138273,0.5596785241999562,0.59141732134118,3.032283190706034e-8,0.3190188908918669,0.2623188751598656,0.42581315367016254,0.16062939886386346,0.42070836718786897,0.36911313793816125,0.5275026299661646,0.2674236616421591,-1.4407495443148368e-8],[0.3742321767646506,0.07882149087960576,0.8452830716338067,0.30791413464967243,0.003975505396850716,0.2302245337655845,1.0993408358592453e-8,0.061312500000000006,0.061312500000000006,0.061312500000000006,0.061312500000000006,0.11511226688279225,-0.04564910197685076,-0.04093142884832679,-0.056256921787686105,-0.024379936044614046,-0.04441915673449817,-0.04226299742835443,-0.05341912892438169,-0.030093507018410678,0.03424533250205506,0.4055385512717443,0.4445444100344284,0.5464709847512552,0.5760110724175407,2.8762009391472988e-8,0.3019363320538481,0.2707322671848717,0.40788911115530013,0.17676595636151454,0.3959026428772053,0.37668504628632377,0.5018554219786573,0.2827187354629666,-1.3714718509104068e-8],[0.3932800794893384,0.09314243006150294,0.8794162122452843,0.3295553898821616,0.016076431625740104,0.23014514368458583,1.0339928387205153e-8,0.061312500000000006,0.061312500000000006,0.061312500000000006,0.061312500000000006,0.11507257184229291,-0.04392787789946789,-0.04277340211245362,-0.055103083035891134,-0.02688629335992638,-0.0427387375076905,-0.043961605523459936,-0.052124533713443146,-0.03228398193050837,0.03403007540288903,0.397568338815388,0.4339719258373488,0.533515733019892,0.5611685023155979,2.737964088839038e-8,0.2848413307429111,0.2773553560505898,0.39002148208111054,0.19030205988709822,0.3718946269064027,0.3825355073887893,0.47707477824460215,0.29548221122529766,-1.3169739912350792e-8],[0.41130791999501326,0.10784727351515913,0.9124619854285533,0.3501647203741153,0.028717549256092777,0.23002091103640993,9.776402473356789e-9,0.061312500000000006,0.061312500000000006,0.061312500000000006,0.061312500000000006,0.11501045551820496,-0.042204338014970276,-0.04447489451529368,-0.05393186095699194,-0.029164651632915532,-0.04105377717511858,-0.04553910220511461,-0.05081964259234729,-0.03430140572524982,0.03398372593894479,0.38910949563446096,0.4233647522257056,0.5207907741137675,0.5468587992193401,2.6236199406997192e-8,0.267842761185446,0.28225245546265904,0.3724012237239615,0.20138282014507333,0.34871239650303165,0.38681091800117445,0.4532708590415471,0.3059412826835888,-1.2800288364534282e-8],[0.428342791793365,0.12283819233566245,0.9445991771735801,0.3697741626854384,0.04178438449045563,0.22972611974281051,9.331055186375049e-9,0.061312500000000006,0.061312500000000006,0.061312500000000006,0.061312500000000006,0.11486305987140526,-0.04048562947339843,-0.04604493671515015,-0.05277032160842303,-0.031217233839802166,-0.03936857693533864,-0.047003591395214844,-0.049521142673783936,-0.036150780611017445,0.03412628953458943,0.38004404084855864,0.41259026338568755,0.5081591021861478,0.5329380146937677,2.5420251781690797e-8,0.2509491997376975,0.28540842013257467,0.35510739224452625,0.21007014018072948,0.3262874796895427,0.3895666126394034,0.4304456721963714,0.31422833268755823,-1.2649110756931245e-8],[0.44440727541478375,0.13801429697554976,0.9760023550045164,0.38841286069396935,0.055161236706597415,0.22911101104426548,9.06766665728038e-9,0.061312500000000006,0.061312500000000006,0.061312500000000006,0.061312500000000006,0.11455550552213274,-0.03877657636440577,-0.04749315227015847,-0.05164771877668274,-0.03304142361903773,-0.03768518446710985,-0.04836371910596198,-0.048246514078515934,-0.03783512111374187,0.03449214063006746,0.3701157898894789,0.40138858358283375,0.4953495698524249,0.5191322522168356,2.5124307644435116e-8,0.23407663615116586,0.2866946471660159,0.3381171180601055,0.21630905652053686,0.30446222679664486,0.39073512907495556,0.4085027087055845,0.3203495384294765,-1.2814720861508677e-8],[0.45951500489356695,0.15326361746652287,1.006843510506558,0.4061024920723835,0.06872304972595394,0.22798829203286322,9.064054358071735e-9,0.061312500000000006,0.061312500000000006,0.061312500000000006,0.061312500000000006,0.11399414601643161,-0.03708014566805471,-0.048829142644672426,-0.05059885920229653,-0.034626261296428304,-0.036003538795810495,-0.04962829477256203,-0.04701593041178013,-0.039353840894542184,0.035137673151333516,0.3588995036720111,0.3893482305748912,0.4819284252178881,0.5050130688973653,2.5593453198796183e-8,0.21705274494067794,0.28582679026550534,0.3213142091296209,0.21988456518447647,0.2829949700217068,0.39008825445444834,0.3872564342106498,0.3241460293734194,-1.3431620560686983e-8],[0.47366673076738885,0.16845231394675916,1.0372984929924653,0.4228536564161111,0.08232429461429669,0.2261120089950826,9.444539935915779e-9,0.061312500000000006,0.061312500000000006,0.061312500000000006,0.061312500000000006,0.1130560044975413,-0.03539810343148984,-0.05006192784039027,-0.04967122621148243,-0.03594428739510581,-0.034321421467546964,-0.05080612619914808,-0.04585625054010694,-0.04069922331820069,0.03616360379008314,0.3457471262122055,0.37587000391283454,0.46726451018893955,0.4899727634057043,2.7216926792547256e-8,0.19961334271490835,0.28230406078196707,0.30450438629919707,0.22035275484319597,0.26156464865367945,0.38719510436625576,0.3664556922379682,0.3252437984274847,-1.4717528202344413e-8],[0.4868482763979013,0.1834093944986085,1.0675799760035132,0.4386665690738948,0.09578218651092935,0.22313475334456118,1.0536491917486888e-8,0.061312500000000006,0.061312500000000006,0.061312500000000006,0.061312500000000006,0.11156737667228059,-0.03373156272357669,-0.05119964805162352,-0.048946008948711706,-0.03692574550081537,-0.03263292778526253,-0.05190678583649053,-0.04481262831424837,-0.0418455589406552,0.03779953633207076,0.3296677209529563,0.36011348302456414,0.45051493495608064,0.4732490073394408,3.095336491892193e-8,0.18136934463979162,0.27529249906241376,0.28748002458482136,0.21688004306652953,0.2397818006356759,0.38140317900744347,0.3458924805807056,0.32299072301155923,-1.717759964901398e-8],[0.4990386674929245,0.19790167901245528,1.0981107380403892,0.4535547258044024,0.10884430321836605,0.21848443060409758,1.3488799374357098e-8,0.061312500000000006,0.061312500000000006,0.061312500000000006,0.061312500000000006,0.10924221530204879,-0.03207950335218396,-0.05225062289197353,-0.04862383913080547,-0.03734895736233116,-0.030918533894725275,-0.05294588321300343,-0.04399495834734326,-0.04270440261013254,0.0407956567957051,0.3089405182987548,0.34092937794441414,0.4307978366052062,0.45428556517930746,3.98340006183041e-8,0.16164173492898828,0.2632796669307205,0.2703738452466803,0.20767960330545904,0.21724179855424974,0.3720117772484125,0.3259739088719418,0.31641171362315107,-2.2166589208099697e-8]],"theta":[[0.0,0.0,0.0,-0.10000001,0.0,0.0,0.0,0.0,-0.10000001,0.0,2.775620111940004,-2.456033126067042,0.0],[0.0,0.0,0.0,-0.10000001,0.0,0.011527518205400107,-0.005202845721016829,0.06181880282813651,-0.08828121964824462,-0.011384782061765695,1.7461290750682337,-0.3513055937397589,0.0],[0.011527518205400107,-0.005202845721016829,0.06181880282813651,-0.08828121964824462,-0.011384782061765695,0.029522052885964815,-0.01072789468817353,0.13494613967775979,-0.06956740740554697,-0.024192005736360423,1.2307273913594525,0.2753801602315593,0.0],[0.029522052885964815,-0.01072789468817353,0.13494613967775979,-0.06956740740554697,-0.024192005736360423,0.05161179767777985,-0.014985048851313805,0.20689946109766572,-0.0462520482224028,-0.03554403826560494,0.8953344122333778,0.4680417715656806,0.0],[0.05161179767777985,-0.014985048851313805,0.20689946109766572,-0.0462520482224028,-0.03554403826560494,0.07633643212613249,-0.01743959620846241,0.2751296841416713,-0.019896622980740773,-0.04462790067971472,0.6547589766563298,0.5327375206129878,0.0],[0.07633643212613249,-0.01743959620846241,0.2751296841416713,-0.01989662298074077,-0.04462790067971472,0.10267341007997961,-0.01792207462649853,0.3392895731828587,0.008383010893118497,-0.051228614354569525,0.47414508275455347,0.5492117605053617,0.0],[0.10267341007997961,-0.01792207462649853,0.3392895731828587,0.008383010893118499,-0.051228614354569525,0.1298672456339745,-0.01642426657556943,0.39953135266666756,0.03775451996559155,-0.0553504883217558,0.33596003376675476,0.5426374722082543,0.0],[0.1298672456339745,-0.01642426657556943,0.39953135266666756,0.03775451996559155,-0.0553504883217558,0.15734893800930352,-0.013022874361511073,0.4561221292414269,0.06758667001613859,-0.05709939927646947,0.22980471062630858,0.5235250272979743,0.0],[0.15734893800930352,-0.013022874361511073,0.4561221292414269,0.06758667001613859,-0.05709939927646947,0.18468923691789726,-0.007842582752421246,0.5093498914740443,0.0974002874743557,-0.05663442617505186,0.1486988858602416,0.4975019781424047,0.0],[0.18468923691789726,-0.007842582752421246,0.5093498914740443,0.0974002874743557,-0.05663442617505186,0.21156764723950294,-0.0010344413336373392,0.5594977531332846,0.12683530636725077,-0.05414221029020368,0.08754261122182516,0.46806983139161,0.0],[0.21156764723950294,-0.0010344413336373388,0.5594977531332846,0.12683530636725077,-0.05414221029020368,0.2377499858918361,0.007238236440939299,0.6068363050862228,0.15562665869073145,-0.049821064536060916,0.04238707750163506,0.4375610642477246,0.0],[0.2377499858918361,0.007238236440939299,0.6068363050862228,0.15562665869073145,-0.049821064536060916,0.2630710988491281,0.016809537369110467,0.6516216714417884,0.18358556926400427,-0.04387040361255294,0.010047606379306906,0.40755190270738306,0.0],[0.2630710988491281,0.016809537369110467,0.6516216714417884,0.18358556926400427,-0.04387040361255294,0.2874209362238444,0.02751760864430305,0.6940956972277926,0.21058443466238974,-0.036483614863415774,-0.012119028883073923,0.3790730365136371,0.0],[0.2874209362238444,0.02751760864430305,0.6940956972277926,0.21058443466238974,-0.036483614863415774,0.31073296986450744,0.03920907535882358,0.7344870146979843,0.236544242750724,-0.027843421031079767,-0.026350619701612565,0.35272969647334995,0.0],[0.31073296986450744,0.03920907535882358,0.7344870146979843,0.236544242750724,-0.027843421031079767,0.33297434489238714,0.05174165239335918,0.7730124580954584,0.2614238992819567,-0.018119196092184948,-0.03456767533596938,0.32877393560752566,0.0],[0.33297434489238714,0.05174165239335918,0.7730124580954584,0.2614238992819567,-0.018119196092184948,0.35413738291383795,0.0649852158134098,0.8098785707118153,0.28521105303135624,-0.007465908280001854,-0.03843500020602164,0.3071472751965081,0.0],[0.35413738291383795,0.0649852158134098,0.8098785707118153,0.28521105303135624,-0.007465908280001854,0.3742321767646506,0.07882149087960576,0.8452830716338067,0.30791413464967243,0.003975505396850716,-0.039408867531409264,0.2875010756477363,0.0],[0.3742321767646506,0.07882149087960576,0.8452830716338067,0.30791413464967243,0.003975505396850716,0.3932800794893384,0.09314243006150294,0.8794162122452843,0.3295553898821616,0.016076431625740104,-0.03877657374792953,0.2691964198064105,0.0],[0.3932800794893384,0.09314243006150294,0.8794162122452843,0.3295553898821616,0.016076431625740104,0.41130791999501326,0.10784727351515913,0.9124619854285533,0.3501647203741153,0.028717549256092777,-0.03769133958163273,0.2512815707001639,0.0],[0.41130791999501326,0.10784727351515913,0.9124619854285533,0.3501647203741153,0.028717549256092777,0.428342791793365,0.12283819233566245,0.9445991771735801,0.3697741626854384,0.04178438449045563,-0.03720063041038024,0.2324405288523681,0.0],[0.428342791793365,0.12283819233566245,0.9445991771735801,0.3697741626854384,0.04178438449045563,0.44440727541478375,0.13801429697554976,0.9760023550045164,0.38841286069396935,0.055161236706597415,-0.03824993479812733,0.2108940172728686,0.0],[0.44440727541478375,0.13801429697554976,0.9760023550045164,0.38841286069396935,0.055161236706597415,0.45951500489356695,0.15326361746652287,1.006843510506558,0.4061024920723835,0.06872304972595394,-0.04156647738591168,0.18418545833535305,0.0],[0.45951500489356695,0.15326361746652287,1.006843510506558,0.4061024920723835,0.06872304972595394,0.47366673076738885,0.16845231394675916,1.0372984929924653,0.4228536564161111,0.08232429461429669,-0.04693081428317569,0.14857482141982725,0.0],[0.47366673076738885,0.16845231394675916,1.0372984929924653,0.4228536564161111,0.08232429461429669,0.4868482763979013,0.1834093944986085,1.0675799760035132,0.4386665690738948,0.09578218651092935,-0.049157441439927396,0.09679890747820075,0.0]],"iq0":[1,2,3,4,5],"iq1":[6,7,8,9,10],"iu1":[11,12],"iw1":[13],"iq2":[1,2,3,4,5],"igamma1":[6],"ib1":[7,8,9,10,11,12,13,14,15],"nq":5,"nu":2,"nw":1,"nc":1,"nb":9,"nz":35,"nθ":13}