{"H":25,"h":0.1,"kappa":[2.0e-8,2.0e-8,2.0e-8,2.0e-8,2.0e-8,2.0e-8,2.0e-8,2.0e-8,2.0e-8,2.0e-8,2.0e-8,2.0e-8,2.0e-8,2.0e-8,2.0e-8,2.0e-8,2.0e-8,2.0e-8,2.0e-8,2.0e-8,2.0e-8,2.0e-8,2.0e-8,2.0e-8,2.0e-8],"q":[[0.0,0.0,0.0,-0.10000001,-0.01],[0.0,0.0,0.0,-0.10000001,-0.01],[0.03421103011885336,-0.0115361905994278,0.2115717395465034,-0.060282496419164076,-0.047791449850900995],[0.09613799798839075,-0.0015625557616881394,0.39510834829084074,0.009787147704998856,-0.05430776343129866],[0.16396621184219323,0.023009058801799744,0.5515694904622926,0.08682364314858526,-0.04244098424733629],[0.22826583431748104,0.05677600291698657,0.685885976896993,0.1605208569676235,-0.018339377296561845],[0.28506490601189705,0.09597685973812894,0.8018002287670156,0.22640722939828054,0.013583503887318658],[0.33295473998735914,0.13774272022309839,0.9022944981499763,0.28281244058596583,0.04991710369829552],[0.37191620013101623,0.17983551069268694,0.9897761151641172,0.3296000797067287,0.08799035226555756],[0.40271407123733094,0.22057775754581277,1.066208368020412,0.3675026693723477,0.12578720558393844],[0.4265090900197325,0.2588211957754623,1.1332105432799089,0.39769716562692736,0.16189800112484057],[0.4445863005665421,0.2938937842620317,1.1921376766296978,0.42151150447989005,0.19545034540162007],[0.45817318805047386,0.3255151616767208,1.2441428145207785,0.44022991993412297,0.2260110817493329],[0.4683364181650589,0.3536939784439732,1.290223463602447,0.45498212128015486,0.25347291797294536],[0.4759425690947082,0.37862638214534994,1.331254938172246,0.46669949562823865,0.2779445885049964],[0.48166295388572083,0.40061020095152716,1.36801418476106,0.47611722389063954,0.29965859208798934],[0.4860021040898425,0.41998056627332647,1.4011974695761098,0.4838012340482918,0.31890182262484446],[0.4893340814230754,0.4370650126925581,1.4314346796570556,0.4901838061190214,0.3359668166563053],[0.4919374201501188,0.45215180893252577,1.4593003122836719,0.49559823108602324,0.35111713931511157],[0.494025116488927,0.46546605239880634,1.4853175194297754,0.5003083069716502,0.36456121397524355],[0.49577446765507777,0.4771513552483128,1.5099991887490152,0.50454171933433,0.37643257402410846],[0.4973769226380498,0.4871723029701352,1.5339644713961937,0.5085511417461914,0.3866926817091245],[0.4986646193029588,0.49500276431043977,1.5540311760547594,0.5118498902690416,0.394767634998259],[0.49974019712897905,0.49989606153277905,1.5690559747149015,0.514428315184891,0.3998703458548232],[0.500130659195748,0.5008058079337254,1.5732039966860965,0.5152334335884974,0.400841880378627]],"u":[[4.7061642001896935,-3.968295899836207],[3.7728810715258363,3.4201534684724226],[1.2048826606920358,2.1480195496040313],[0.05697232986552425,1.5398175480842264],[-0.45855347079693587,1.1112448220000797],[-0.6725322925036767,0.7851010782059804],[-0.7220392837009584,0.5329727298283657],[-0.6779450102293252,0.3456690293682385],[-0.5848216447204662,0.21813204611046544],[-0.47319534216628156,0.1434057186670472],[-0.3632654366812371,0.11163304898310145],[-0.2665936015602903,0.11138504009226224],[-0.18787513022121427,0.1315749920972067],[-0.1270934718924998,0.1628950971661709],[-0.08164496589367065,0.1983561002060128],[-0.04794371865792835,0.23303405483473583],[-0.02232492378255202,0.26336743323942713],[-0.0013602410212074645,0.2865267442215398],[0.019463924448624215,0.3000599393683352],[0.05035833956700175,0.2917519977517333],[0.0012550760705911657,0.22650445781151518],[0.022440931951424048,0.12874884941873788],[-0.024260655897172967,-0.038778294030834104],[-0.042960791827928266,-0.04670837373781622],[-0.011991319554689545,-0.00031816905365761317]],"w":[[-0.0],[-0.0],[0.0],[0.0],[0.0],[0.0],[-0.0],[-0.0],[-0.0],[-0.0],[0.0],[0.0],[0.0],[-0.0],[-0.0],[-0.0],[-0.0],[0.0],[-0.0],[-0.0],[-0.0],[-0.0],[-0.0],[0.0],[-0.0]],"gamma":[[0.678315849737098],[0.7934737627142443],[0.5951292306438345],[0.5028549946105996],[0.4607991783349988],[0.44078720554292616],[0.431671444741953],[0.4285790356461167],[0.42911138039091723],[0.4318983433458462],[0.43602435017607477],[0.44080742277941454],[0.44572555371484235],[0.45039139717222637],[0.45452487127760266],[0.4579050787418694],[0.46029851017465906],[0.4613796765544057],[0.4605652611437176],[0.45524926718559977],[0.4461697974361757],[0.42613686033870396],[0.37396970831908205],[0.050395379164092244],[0.005438403941576228]],"b":[[-0.10887671490324423,-0.05641560250406643,-0.05396396095585155,0.11011258416415894,-0.11840360381643891,-0.03189790078503343,-0.11105826124203251,0.05198992787677021,0.339157662152569],[-0.10864346948094983,-0.05686375965102255,-0.1183992153202957,0.03191420427279402,-0.1108410354660713,-0.05245145832188358,-0.12262491941687506,-0.00014057335032102678,0.013841136636386569],[-0.10321838066417434,-0.06620314580382608,-0.12248048216311873,-0.0059516475044085766,-0.10366556692230174,-0.06550069353056696,-0.11982063913863814,-0.026074989067677832,0.002526835032482362],[-0.09643886948305569,-0.07573925714142848,-0.11928795718563166,-0.02841256564463158,-0.09595258790373876,-0.07635438093899928,-0.11450699152288107,-0.04387527215708556,0.002782059636237089],[-0.08830733766280013,-0.08508057788804306,-0.11386605242823868,-0.04551277535461277,-0.0874319276819286,-0.08597993158421452,-0.10793085807693452,-0.05820498680304854,0.0029006060394187],[-0.07898628838618715,-0.0937979576736858,-0.10707912368511037,-0.059757442102123845,-0.07816770538363559,-0.09448121743804677,-0.10044309152810374,-0.07034256164421655,0.003031651174705023],[-0.06883317336949847,-0.10148342159493569,-0.09937971719678078,-0.07183705468034775,-0.06842565306806388,-0.10175863902496471,-0.09236311767498737,-0.08065943905341029,0.003329813480894041],[-0.05832907060039488,-0.10786384998481185,-0.09122376711479373,-0.0819458048090496,-0.058579986204874486,-0.10772778577948973,-0.08406300173842254,-0.08927654984763084,0.003843833189167591],[-0.04798004008202671,-0.11284859928556217,-0.0830843374093236,-0.09018804514295897,-0.04902340216050106,-0.11239927336455224,-0.07592843997075009,-0.09628999230002898,0.004581771812887654],[-0.038221393638617075,-0.11651616055916088,-0.0753905244585778,-0.09671173366078376,-0.0400888184467252,-0.11588691577260746,-0.0682977438074159,-0.10184453251755864,0.005551911410884703],[-0.029351674194142686,-0.11906036208671539,-0.06846669716301171,-0.10173102761895725,-0.03199842039611762,-0.11837648289540653,-0.06141334206724921,-0.10613808000749167,0.006775767089061334],[-0.02151077567335572,-0.1207235566136813,-0.06250277988535591,-0.10550020426742002,-0.024848398506590708,-0.12008100474264108,-0.05540242888797833,-0.10939589335292553,0.008289687873476366],[-0.014699259476233248,-0.12174079986951211,-0.05756410506927674,-0.10827402454681131,-0.0186258472812798,-0.12120217992186891,-0.05028914959616447,-0.11183868757390843,0.01014570943556028],[-0.008822567811584628,-0.12230720692602304,-0.05363232472329375,-0.11027449530673143,-0.013244847454240165,-0.12190760688068351,-0.046029058073040266,-0.11365833191054177,0.012418931241870214],[-0.003739931253520373,-0.12256795448252787,-0.050661241614742135,-0.11167062796949542,-0.008586089711389059,-0.12232403547874912,-0.042551927870450826,-0.11500532173279636,0.015227457831728143],[0.0006968297876837939,-0.12262301969945259,-0.04863652695963949,-0.11256721893503933,-0.004528895461901831,-0.12254133869822903,-0.03980322610936534,-0.11598531706711981,0.01877408075741124],[0.004618804635927034,-0.12253798251122727,-0.047639578737109375,-0.11299274780115859,-0.0009728452292362058,-0.12262114071144797,-0.037782553321701,-0.11665920127368978,0.023420040936682315],[0.008123913316722861,-0.12235559860125225,-0.04792117613881985,-0.11287360791125359,0.002146777326757656,-0.1226062066474603,-0.03658060550329923,-0.11704165866587694,0.029793286159172094],[0.0112602574785948,-0.12210690818806737,-0.05012303274268462,-0.11191323442400039,0.004835507185955642,-0.12252962257910997,-0.03648646039177124,-0.11707104147160736,0.03921895020269384],[0.01390904300359976,-0.12183361103995716,-0.056453473822862144,-0.10885722596601535,0.006895004578062464,-0.12243099841378006,-0.03857687023943078,-0.11639894999370773,0.05603146790842787],[0.015620966768854157,-0.12162596416840468,-0.06016490387335799,-0.10685071086292686,0.008490238126711363,-0.12233072433135497,-0.03941634917455071,-0.11611736185216141,0.06485184098581774],[0.01539806481809435,-0.12165435627147987,-0.07420570521230303,-0.0976237751156653,0.00811359206209418,-0.12235627325692294,-0.045900432708272876,-0.11371032921135277,0.09373182166003442],[0.005787881554641497,-0.12248829187219308,-0.10444713316962896,-0.06424706753221261,0.0023470674950936024,-0.12260252764494127,-0.06360896879973837,-0.10483696040978234,0.1539708497944638],[-0.014539861052039315,-0.003662720029679588,-0.0035196504713161806,-0.0025512256405083107,-0.005758032920137129,-0.028577322964082268,-0.005161106617167603,-0.024762089038425573,0.02519544096495611],[-0.013396729315425763,0.012007143390099187,0.011254395023952944,0.0045624715630222384,-0.005493522718376366,-0.010374103793068395,0.0071531630933154705,-0.011635095440102949,0.0004957886645189834]],"z":[[0.03421103011885336,-0.0115361905994278,0.2115717395465034,-0.060282496419164076,-0.047791449850900995,0.678315849737098,7.145781260482592e-9,0.12262500000000001,0.12262500000000001,0.12262500000000001,0.12262500000000001,0.339157924868549,-0.10887671490324423,-0.05641560250406643,-0.05396396095585155,0.11011258416415894,-0.11840360381643891,-0.03189790078503343,-0.11105826124203251,0.05198992787677021,0.339157662152569,0.1022957388513606,0.4083084357281597,0.5225230225925634,0.6551959013421987,0.05668989958602064,0.09082677905787999,0.047062826989729085,0.17968556820452652,-0.3666454281249316,0.5045350341725406,0.1359216161363756,0.5933938233191872,-0.2777866389782851,-0.056689892723713664],[0.09613799798839075,-0.0015625557616881394,0.39510834829084074,0.009787147704998856,-0.05430776343129866,0.7934737627142443,8.913166420347962e-12,0.12262500000021746,0.12262500000021746,0.12262500000021746,0.12262500000021746,0.39673688135724605,-0.10864346948094983,-0.05686375965102255,-0.1183992153202957,0.03191420427279402,-0.1108410354660713,-0.05245145832188358,-0.12262491941687506,-0.00014057335032102678,0.013841136636386569,0.4280326058567412,0.5390962319828049,0.7943566881421901,0.8593109935588492,2.2567920532215135e-11,0.3792289284829498,0.19848761034891935,0.5205184167239006,-0.14030440183502743,0.7180209406668966,0.33977709858987026,0.8593104289078475,0.000985086405923467,5.571696759928098e-12],[0.16396621184219323,0.023009058801799744,0.5515694904622926,0.08682364314858526,-0.04244098424733629,0.5951292306438345,5.602178450846319e-11,0.12262500000178733,0.12262500000178733,0.12262500000178733,0.12262500000178733,0.2975646153229358,-0.10321838066417434,-0.06620314580382608,-0.12248048216311873,-0.0059516475044085766,-0.10366556692230174,-0.06550069353056696,-0.11982063913863814,-0.026074989067677832,0.002526835032482362,0.5500916516930919,0.6277530135620109,0.8629789554161696,0.9144428348775118,1.2841047694191663e-10,0.46303420609016416,0.2969850993158788,0.6270131848574322,0.030468213187018128,0.7295510922190248,0.46096407808314693,0.8935300709862929,0.1944471919542863,1.3989073789706535e-11],[0.22826583431748104,0.05677600291698657,0.685885976896993,0.1605208569676235,-0.018339377296561845,0.5028549946105996,1.2137092273224739e-10,0.12262500000101069,0.12262500000101069,0.12262500000101069,0.12262500000101069,0.25142749730587577,-0.09643886948305569,-0.07573925714142848,-0.11928795718563166,-0.02841256564463158,-0.09595258790373876,-0.07635438093899928,-0.11450699152288107,-0.04387527215708556,0.002782059636237089,0.5772543789634944,0.6415845425488353,0.8458501889332746,0.8909941915129864,2.5751873329920955e-10,0.45398376957672626,0.356540818057754,0.6241248478472228,0.14865698597571636,0.6618676016587639,0.5266818963282506,0.8320086799292604,0.31879806424621293,-9.298907840327232e-12],[0.28506490601189705,0.09597685973812894,0.8018002287670156,0.22640722939828054,0.013583503887318658,0.4607991783349988,1.4195612979336296e-10,0.12262500000000001,0.12262500000000001,0.12262500000000001,0.12262500000000001,0.2303995891674994,-0.08830733766280013,-0.08508057788804306,-0.11386605242823868,-0.04551277535461277,-0.0874319276819286,-0.08597993158421452,-0.10793085807693452,-0.05820498680304854,0.0029006060394187,0.5611193391483462,0.6145778588729455,0.7928473086635152,0.8315394679112049,2.94987520015638e-10,0.4040852598463053,0.3893199397553012,0.5706793454002826,0.22810311111356885,0.5653020884880376,0.5559140253092786,0.7318961740420151,0.3946971966675462,-2.7223790236847414e-11],[0.33295473998735914,0.13774272022309839,0.9022944981499763,0.28281244058596583,0.04991710369829552,0.44078720554292616,1.4793978045637215e-10,0.12262500000000001,0.12262500000000001,0.12262500000000001,0.12262500000000001,0.22039360277146308,-0.07898628838618715,-0.0937979576736858,-0.10707912368511037,-0.059757442102123845,-0.07816770538363559,-0.09448121743804677,-0.10044309152810374,-0.07034256164421655,0.003031651174705023,0.5243484217172225,0.5674073727466078,0.7252654177773409,0.7569807035254938,3.1432754891442774e-10,0.3377478955461631,0.4010830666702742,0.495473877934041,0.2765081606412369,0.46232280157520045,0.5588090490581521,0.6200487839630784,0.4342341430291148,-4.436192601262813e-11],[0.37191620013101623,0.17983551069268694,0.9897761151641172,0.3296000797067287,0.08799035226555756,0.431671444741953,1.3595360773042845e-10,0.12262500000000001,0.12262500000000001,0.12262500000000001,0.12262500000000001,0.2158357223709765,-0.06883317336949847,-0.10148342159493569,-0.09937971719678078,-0.07183705468034775,-0.06842565306806388,-0.10175863902496471,-0.09236311767498737,-0.08065943905341029,0.003329813480894041,0.47827743998162464,0.5117296077610418,0.6532263153636573,0.678102131650862,2.9945954988111924e-10,0.2684717959668905,0.3958183981712344,0.4147241079612219,0.29978509922620544,0.3645050949119194,0.5420707101655657,0.5107574069062507,0.44603741122053675,-5.0836791768354337e-11],[0.40271407123733094,0.22057775754581277,1.066208368020412,0.3675026693723477,0.12578720558393844,0.4285790356461167,1.358527126461735e-10,0.12262500000000001,0.12262500000000001,0.12262500000000001,0.12262500000000001,0.21428951782305836,-0.05832907060039488,-0.10786384998481185,-0.09122376711479373,-0.0819458048090496,-0.058579986204874486,-0.10772778577948973,-0.08406300173842254,-0.08927654984763084,0.003843833189167591,0.4291228512563397,0.4542591043560026,0.581982930973337,0.6007570593592529,3.1424574286602063e-10,0.20412099589278498,0.37746660841775165,0.3379345711766535,0.3035647533608962,0.27802285094964047,0.5112801837016201,0.41183642623350897,0.43737832864476467,-4.3376143520226824e-11],[0.4265090900197325,0.2588211957754623,1.1332105432799089,0.39769716562692736,0.16189800112484057,0.42911138039091723,1.2191472931480807e-10,0.12262500000000001,0.12262500000000001,0.12262500000000001,0.12262500000000001,0.21455569019545861,-0.04798004008202671,-0.11284859928556217,-0.0830843374093236,-0.09018804514295897,-0.04902340216050106,-0.11239927336455224,-0.07592843997075009,-0.09628999230002898,0.004581771812887654,0.3804712156257506,0.39885994319644136,0.5144128779702692,0.5281586100737157,2.941768978355605e-10,0.14886869891760288,0.35013776770064853,0.27024680241986204,0.2933528933900832,0.20565357322816827,0.47151587120290767,0.3270316767304274,0.4147309968923423,-3.854921691605093e-11],[0.4445863005665421,0.2938937842620317,1.1921376766296978,0.42151150447989005,0.19545034540162007,0.4318983433458462,1.0511505817939291e-10,0.12262500000000001,0.12262500000000001,0.12262500000000001,0.12262500000000001,0.2159491716729231,-0.038221393638617075,-0.11651616055916088,-0.0753905244585778,-0.09671173366078376,-0.0400888184467252,-0.11588691577260746,-0.0682977438074159,-0.10184453251755864,0.005551911410884703,0.3344166430903585,0.34765639192076075,0.4521051451180583,0.4619843481283717,2.6288484934959876e-10,0.10423543468327229,0.3177569280209181,0.21374106231287213,0.27418921408087055,0.14780314862331984,0.42726255565051796,0.25730877625291965,0.38369484171047036,-3.634554113310154e-11],[0.45817318805047386,0.3255151616767208,1.2441428145207785,0.44022991993412297,0.2260110817493329,0.43602435017607477,9.087703626935469e-11,0.12262500000000001,0.12262500000000001,0.12262500000000001,0.12262500000000001,0.21801217508803739,-0.029351674194142686,-0.11906036208671539,-0.06846669716301171,-0.10173102761895725,-0.03199842039611762,-0.11837648289540653,-0.06141334206724921,-0.10613808000749167,0.006775767089061334,0.29213804074910305,0.3016732908747968,0.395871655086505,0.4029596839392693,2.345128585870243e-10,0.06992652892868607,0.2836457568554869,0.16843689213072172,0.2502714282362588,0.10330085754791413,0.3821561200575225,0.20181122074994978,0.3487817914382945,-3.619996708931191e-11],[0.4683364181650589,0.3536939784439732,1.290223463602447,0.45498212128015486,0.25347291797294536,0.44080742277941454,8.068857279465586e-11,0.12262500000000001,0.12262500000000001,0.12262500000000001,0.12262500000000001,0.22040371138970727,-0.02151077567335572,-0.1207235566136813,-0.06250277988535591,-0.10550020426742002,-0.024848398506590708,-0.12008100474264108,-0.05540242888797833,-0.10939589335292553,0.008289687873476366,0.25421126866943006,0.26123072372465767,0.3460052110139444,0.3511947151542486,2.1451369782436388e-10,0.044593529768991454,0.2502694272216897,0.13315104159668473,0.2247493962956659,0.07011356069501534,0.33882693904938305,0.15867107252270862,0.3133069081233592,-3.7702830003799216e-11],[0.4759425690947082,0.37862638214534994,1.331254938172246,0.46669949562823865,0.2779445885049964,0.44572555371484235,7.52643314503041e-11,0.12262500000000001,0.12262500000000001,0.12262500000000001,0.12262500000000001,0.22286277685742117,-0.014699259476233248,-0.12174079986951211,-0.05756410506927674,-0.10827402454681131,-0.0186258472812798,-0.12120217992186891,-0.05028914959616447,-0.11183868757390843,0.01014570943556028,0.22079118616178836,0.22620184756179665,0.30242802295974675,0.30640045207014205,2.0597537181101558e-10,0.026466600987497497,0.21919914895249865,0.10618639735776163,0.19972912870477147,0.04593662123522465,0.29891894532276275,0.1256564176054888,0.2794489250750356,-4.0871251451560186e-11],[0.48166295388572083,0.40061020095152716,1.36801418476106,0.47611722389063954,0.29965859208798934,0.45039139717222637,7.365531366520041e-11,0.12262500000000001,0.12262500000000001,0.12262500000000001,0.12262500000000001,0.22519569858611319,-0.008822567811584628,-0.12230720692602304,-0.05363232472329375,-0.11027449530673143,-0.013244847454240165,-0.12190760688068351,-0.046029058073040266,-0.11365833191054177,0.012418931241870214,0.1917321635110772,0.19618866453128023,0.264796516349312,0.2680409756738829,2.073128701176391e-10,0.013794658691955295,0.19123527368107204,0.08580676229082633,0.1764289988436015,0.028600933529425877,0.263247377279943,0.1006130371282969,0.24844110244247253,-4.646137443468935e-11],[0.4860021040898425,0.41998056627332647,1.4011974695761098,0.4838012340482918,0.31890182262484446,0.45452487127760266,7.30533453572872e-11,0.12262500000000001,0.12262500000000001,0.12262500000000001,0.12262500000000001,0.22726243563880133,-0.003739931253520373,-0.12256795448252787,-0.050661241614742135,-0.11167062796949542,-0.008586089711389059,-0.12232403547874912,-0.042551927870450826,-0.11500532173279636,0.015227457831728143,0.1666749074023363,0.17063914265694147,0.23258258753802732,0.23543969987756147,2.1094816375721818e-10,0.005083406324242114,0.16659737009320022,0.07049778516600963,0.15539555750101888,0.016285218916423462,0.23201174893496773,0.08169959775819097,0.2208099363427864,-5.718529978849533e-11],[0.4893340814230754,0.4370650126925581,1.4314346796570556,0.4901838061190214,0.3359668166563053,0.4579050787418694,7.032188320751889e-11,0.12262500000000001,0.12262500000000001,0.12262500000000001,0.12262500000000001,0.2289525393709347,0.0006968297876837939,-0.12262301969945259,-0.04863652695963949,-0.11256721893503933,-0.004528895461901831,-0.12254133869822903,-0.03980322610936534,-0.11598531706711981,0.01877408075741124,0.14510303111406692,0.14891416202285582,0.2051287506701018,0.2078421092256496,2.0917503357048488e-10,-0.0008245636070144738,0.1451006882069711,0.05906354931767363,0.13670012725297298,0.0075759973469836745,0.20498880113165924,0.06746411027167179,0.19658824017766108,-7.412854308365502e-11],[0.4919374201501188,0.45215180893252577,1.4593003122836719,0.49559823108602324,0.35111713931511157,0.46029851017465906,5.865021399906992e-11,0.12262500000000001,0.12262500000000001,0.12262500000000001,0.12262500000000001,0.23014925508732953,0.004618804635927034,-0.12253798251122727,-0.047639578737109375,-0.11299274780115859,-0.0009728452292362058,-0.12262114071144797,-0.037782553321701,-0.11665920127368978,0.023420040936682315,0.12636549953322673,0.1303108604689781,0.1816667615717254,0.18443289605485802,1.8349718452227487e-10,-0.004759694655370799,0.12627582811016355,0.05062552155994737,0.12007488047387113,0.0014412529809216198,0.1816610443254817,0.05682646919623979,0.1754600966891893,-9.957607448403221e-11],[0.494025116488927,0.46546605239880634,1.4853175194297754,0.5003083069716502,0.36456121397524355,0.4613796765544057,6.886925574365034e-11,0.12262500000000001,0.12262500000000001,0.12262500000000001,0.12262500000000001,0.23068983827720285,0.008123913316722861,-0.12235559860125225,-0.04792117613881985,-0.11287360791125359,0.002146777326757656,-0.1226062066474603,-0.03658060550329923,-0.11704165866587694,0.029793286159172094,0.1096823979420856,0.11407009423086095,0.16131058529519515,0.16432547858319843,2.1939103686321705e-10,-0.007266465229560824,0.10944143128648151,0.04457796676440567,0.104999006045163,-0.002824039988242303,0.161285863280448,0.049020392005724174,0.15684343803912945,-1.372380124688027e-10],[0.49577446765507777,0.4771513552483128,1.5099991887490152,0.50454171933433,0.37643257402410846,0.4605652611437176,9.172287808665491e-11,0.12262500000000001,0.12262500000000001,0.12262500000000001,0.12262500000000001,0.2302826305718588,0.0112602574785948,-0.12210690818806737,-0.05012303274268462,-0.11191323442400039,0.004835507185955642,-0.12252962257910997,-0.03648646039177124,-0.11707104147160736,0.03921895020269384,0.09411424422127658,0.09940030916308473,0.1431000497884644,0.14663067465522764,2.8706652308113914e-10,-0.008642206997202827,0.09371661107594202,0.040629929080630366,0.09071730983635462,-0.005642905757615432,0.14298874715377521,0.04362923032021776,0.13998944591418783,-2.0536638160652918e-10],[0.4973769226380498,0.4871723029701352,1.5339644713961937,0.5085511417461914,0.3866926817091245,0.45524926718559977,2.4043383363673065e-10,0.12262500000000001,0.12262500000000001,0.12262500000000001,0.12262500000000001,0.22762463359279989,0.01390904300359976,-0.12183361103995716,-0.056453473822862144,-0.10885722596601535,0.006895004578062464,-0.12243099841378006,-0.03857687023943078,-0.11639894999370773,0.05603146790842787,0.07764402787180259,0.08491142875880596,0.12523912967935608,0.12986991674544282,7.108712603124756e-10,-0.008806965469356531,0.07714293450569605,0.039091092542247664,0.0753779619191473,-0.007041992882807761,0.12504099251730025,0.04085606512879643,0.12327601993075148,-4.1817949076182207e-10],[0.4986646193029588,0.49500276431043977,1.5540311760547594,0.5118498902690416,0.394767634998259,0.4461697974361757,4.3353494965689104e-10,0.12262500000000001,0.12262500000000001,0.12262500000000001,0.12262500000000001,0.22308489871808784,0.015620966768854157,-0.12162596416840468,-0.06016490387335799,-0.10685071086292686,0.008490238126711363,-0.12233072433135497,-0.03941634917455071,-0.11611736185216141,0.06485184098581774,0.05905828625358354,0.06645269460436917,0.09894234537812395,0.10352616653246813,1.3902512325273244e-9,-0.007523323615093749,0.058577134372697605,0.03260444567943843,0.057904323138862075,-0.006850512381258213,0.0987049036672298,0.03327725691327397,0.09803209243339427,-8.478926179294748e-10],[0.49974019712897905,0.49989606153277905,1.5690559747149015,0.514428315184891,0.3998703458548232,0.42613686033870396,1.748364797717677e-9,0.12262500000000001,0.12262500000000001,0.12262500000000001,0.12262500000000001,0.21306843016935198,0.01539806481809435,-0.12165435627147987,-0.07420570521230303,-0.0976237751156653,0.00811359206209418,-0.12235627325692294,-0.045900432708272876,-0.11371032921135277,0.09373182166003442,0.03420509121195428,0.042559167490457996,0.06412442010956014,0.06894371445145347,9.196596869163261e-9,-0.004295146252869251,0.033934344920708064,0.02575440556288704,0.03388204771032147,-0.004242849042482655,0.06398389673646435,0.025806702773273633,0.06393159952607774,-7.263213953145194e-9],[0.500130659195748,0.5008058079337254,1.5732039966860965,0.5152334335884974,0.400841880378627,0.37396970831908205,3.2604084223003743e-10,0.12262500000000001,0.12262500000000001,0.12262500000000001,0.12262500000000001,0.18698485415954103,0.005787881554641497,-0.12248829187219308,-0.10444713316962896,-0.06424706753221261,0.0023470674950936024,-0.12260252764494127,-0.06360896879973837,-0.10483696040978234,0.1539708497944638,0.0049449788372150656,0.009465826054750527,0.01323791247337666,0.01550455980904593,1.7454853397371176e-8,-0.00023340224474645884,0.004939467024850568,0.008062617652302161,0.004959441097028645,-0.00025337631692453467,0.013235486921899188,0.008042643580124085,0.013255460994077265,-1.7091752568101774e-8],[0.5001306592981102,0.5008058081366824,1.5732039972334857,0.5153582037596586,0.40084177220812467,0.050395379164092244,4.091231031233734e-7,0.12262500000000001,0.12262500000000001,0.12262500000000001,0.12262500000000001,0.025197689582046122,-0.014539861052039315,-0.003662720029679588,-0.0035196504713161806,-0.0025512256405083107,-0.005758032920137129,-0.028577322964082268,-0.005161106617167603,-0.024762089038425573,0.02519544096495611,2.55193768625815e-8,2.5565103500195356e-8,2.6440008061893273e-8,2.6489671609776893e-8,0.0012480629516635367,4.775158934411548e-10,1.4809011487489084e-9,1.5722911650923653e-9,1.4834639207794997e-9,4.749531218575455e-10,2.5756764208470347e-9,1.5697283935087957e-9,2.5782391924306044e-9,-0.0012476940647210598],[0.5001306593075628,0.5008058080984433,1.57320399723387,0.5153582338053985,0.40078408652840486,0.005438403941576228,5.809466573039574e-5,0.12262500000000001,0.12262500000000001,0.12262500000000001,0.12262500000000001,0.002719201970788113,-0.013396729315425763,0.012007143390099187,0.011254395023952944,0.0045624715630222384,-0.005493522718376366,-0.010374103793068395,0.0071531630933154705,-0.011635095440102949,0.0004957886645189834,9.022561443317303e-8,9.089388094186271e-8,9.314865008970522e-8,9.322046613266297e-8,0.0001462744676236079,9.41431581300431e-11,-3.8277561776082387e-10,9.491207985846836e-11,-3.827743511289436e-10,9.414189149816946e-11,-3.8200669603241515e-10,9.491081322659802e-11,-3.8200542940052165e-10,1.0885711077215564e-6]],"theta":[[0.0,0.0,0.0,-0.10000001,-0.01,0.0,0.0,0.0,-0.10000001,-0.01,4.7061642001896935,-3.968295899836207,0.1],[0.0,0.0,-2.7755575615628914e-17,-0.10000001,-0.010000000000000002,0.03421103011885336,-0.0115361905994278,0.2115717395465034,-0.060282496419164076,-0.047791449850900995,3.7728810715258363,3.4201534684724226,0.1],[0.03421103011885336,-0.0115361905994278,0.2115717395465034,-0.060282496419164076,-0.047791449850900995,0.09613799798839075,-0.0015625557616881394,0.39510834829084074,0.009787147704998856,-0.05430776343129866,1.2048826606920358,2.1480195496040313,0.1],[0.09613799798839075,-0.0015625557616881398,0.39510834829084074,0.009787147704998861,-0.05430776343129866,0.16396621184219323,0.023009058801799744,0.5515694904622926,0.08682364314858526,-0.04244098424733629,0.05697232986552425,1.5398175480842264,0.1],[0.16396621184219323,0.023009058801799744,0.5515694904622926,0.08682364314858526,-0.04244098424733629,0.22826583431748104,0.05677600291698657,0.685885976896993,0.1605208569676235,-0.018339377296561845,-0.45855347079693587,1.1112448220000797,0.1],[0.22826583431748104,0.05677600291698657,0.685885976896993,0.1605208569676235,-0.01833937729656184,0.28506490601189705,0.09597685973812894,0.8018002287670156,0.22640722939828054,0.013583503887318658,-0.6725322925036767,0.7851010782059804,0.1],[0.28506490601189705,0.09597685973812894,0.8018002287670156,0.22640722939828054,0.01358350388731866,0.33295473998735914,0.13774272022309839,0.9022944981499763,0.28281244058596583,0.04991710369829552,-0.7220392837009584,0.5329727298283657,0.1],[0.33295473998735914,0.13774272022309839,0.9022944981499763,0.28281244058596583,0.04991710369829552,0.37191620013101623,0.17983551069268694,0.9897761151641172,0.3296000797067287,0.08799035226555756,-0.6779450102293252,0.3456690293682385,0.1],[0.37191620013101623,0.17983551069268694,0.9897761151641172,0.3296000797067287,0.08799035226555756,0.40271407123733094,0.22057775754581277,1.066208368020412,0.3675026693723477,0.12578720558393844,-0.5848216447204662,0.21813204611046544,0.1],[0.40271407123733094,0.22057775754581277,1.066208368020412,0.3675026693723477,0.12578720558393844,0.4265090900197325,0.2588211957754623,1.1332105432799089,0.39769716562692736,0.16189800112484057,-0.47319534216628156,0.1434057186670472,0.1],[0.4265090900197325,0.2588211957754623,1.1332105432799089,0.39769716562692736,0.16189800112484057,0.4445863005665421,0.2938937842620317,1.1921376766296978,0.42151150447989005,0.19545034540162007,-0.3632654366812371,0.11163304898310145,0.1],[0.4445863005665421,0.2938937842620317,1.1921376766296978,0.42151150447989005,0.19545034540162007,0.45817318805047386,0.3255151616767208,1.2441428145207785,0.44022991993412297,0.2260110817493329,-0.2665936015602903,0.11138504009226224,0.1],[0.45817318805047386,0.3255151616767208,1.2441428145207785,0.44022991993412297,0.2260110817493329,0.4683364181650589,0.3536939784439732,1.290223463602447,0.45498212128015486,0.25347291797294536,-0.18787513022121427,0.1315749920972067,0.1],[0.4683364181650589,0.3536939784439732,1.290223463602447,0.45498212128015486,0.25347291797294536,0.4759425690947082,0.37862638214534994,1.331254938172246,0.46669949562823865,0.2779445885049964,-0.1270934718924998,0.1628950971661709,0.1],[0.4759425690947082,0.37862638214534994,1.331254938172246,0.46669949562823865,0.2779445885049964,0.48166295388572083,0.40061020095152716,1.36801418476106,0.47611722389063954,0.29965859208798934,-0.08164496589367065,0.1983561002060128,0.1],[0.48166295388572083,0.40061020095152716,1.36801418476106,0.47611722389063954,0.29965859208798934,0.4860021040898425,0.41998056627332647,1.4011974695761098,0.4838012340482918,0.31890182262484446,-0.04794371865792835,0.23303405483473583,0.1],[0.4860021040898425,0.41998056627332647,1.4011974695761098,0.4838012340482918,0.31890182262484446,0.4893340814230754,0.4370650126925581,1.4314346796570556,0.4901838061190214,0.3359668166563053,-0.02232492378255202,0.26336743323942713,0.1],[0.4893340814230754,0.4370650126925581,1.4314346796570556,0.4901838061190214,0.3359668166563053,0.4919374201501188,0.45215180893252577,1.4593003122836719,0.49559823108602324,0.35111713931511157,-0.0013602410212074645,0.2865267442215398,0.1],[0.4919374201501188,0.45215180893252577,1.4593003122836719,0.49559823108602324,0.35111713931511157,0.494025116488927,0.46546605239880634,1.4853175194297754,0.5003083069716502,0.36456121397524355,0.019463924448624215,0.3000599393683352,0.1],[0.494025116488927,0.46546605239880634,1.4853175194297754,0.5003083069716502,0.36456121397524355,0.49577446765507777,0.4771513552483128,1.5099991887490152,0.50454171933433,0.37643257402410846,0.05035833956700175,0.2917519977517333,0.1],[0.49577446765507777,0.4771513552483128,1.5099991887490152,0.50454171933433,0.37643257402410846,0.4973769226380498,0.4871723029701352,1.5339644713961937,0.5085511417461914,0.3866926817091245,0.0012550760705911657,0.22650445781151518,0.1],[0.4973769226380498,0.4871723029701352,1.5339644713961937,0.5085511417461914,0.3866926817091245,0.4986646193029588,0.49500276431043977,1.5540311760547594,0.5118498902690416,0.394767634998259,0.022440931951424048,0.12874884941873788,0.1],[0.4986646193029588,0.49500276431043977,1.5540311760547594,0.5118498902690416,0.394767634998259,0.49974019712897905,0.49989606153277905,1.5690559747149015,0.514428315184891,0.3998703458548232,-0.024260655897172967,-0.038778294030834104,0.1],[0.49974019712897905,0.49989606153277905,1.5690559747149015,0.514428315184891,0.3998703458548232,0.500130659195748,0.5008058079337254,1.5732039966860965,0.5152334335884974,0.400841880378627,-0.042960791827928266,-0.04670837373781622,0.1],[0.500130659195748,0.5008058079337254,1.5732039966860965,0.5152334335884974,0.400841880378627,0.5001306592981102,0.5008058081366824,1.5732039972334857,0.5153582037596586,0.40084177220812467,-0.011991319554689545,-0.00031816905365761317,0.1]],"iq0":[1,2,3,4,5],"iq1":[6,7,8,9,10],"iu1":[11,12],"iw1":[],"iq2":[1,2,3,4,5],"igamma1":[6],"ib1":[7,8,9,10,11,12,13,14,15],"nq":5,"nu":2,"nw":0,"nc":1,"nb":9,"nz":35,"nθ":13}