{"H":25,"h":0.05,"kappa":[2.0e-8,2.0e-8,2.0e-8,2.0e-8,2.0e-8,2.0e-8,2.0e-8,2.0e-8,2.0e-8,2.0e-8,2.0e-8,2.0e-8,2.0e-8,2.0e-8,2.0e-8,2.0e-8,2.0e-8,2.0e-8,2.0e-8,2.0e-8,2.0e-8,2.0e-8,2.0e-8,2.0e-8,2.0e-8],"q":[[0.0,0.0,0.0,-0.12500001,-0.01],[0.0,0.0,0.0,-0.12500001,-0.01],[0.04798090437339028,0.0026376417490047285,0.09907745810604486,-0.07541976934624191,-0.01964909753772751],[0.09372995795178887,0.0048352064242500855,0.20202988751337092,-0.026732931440128876,-0.029986031303885677],[0.12874287170417184,0.006288905669182138,0.2806616517664906,0.023766032719061043,-0.0808166035421735],[0.17129921421032324,0.01821472715206382,0.3925093960991884,0.07658117360109794,-0.079775520984442],[0.21414441502512033,0.038288262406216404,0.4007267974480415,0.10678765148392272,-0.028743551387409416],[0.25590214260012034,0.054433272038554685,0.5022296350265756,0.16552991389433055,-0.04068383659322139],[0.2881989239355579,0.06811420519342858,0.5655021622318297,0.2039819000360721,-0.03246394050629289],[0.3281283557167826,0.09655186703006464,0.6279135664239754,0.25030591164923044,-0.009024555836993147],[0.35728205883904124,0.12544113305263271,0.7636459495407225,0.48514629904721523,0.07481381386594281],[0.37811136658249317,0.14606150401160986,0.8438856556177334,0.5189872174889621,0.051345505520482816],[0.39045681259060455,0.15827233839501303,0.8816184262142518,0.5725992971593867,0.04810419502024705],[0.3941954400239468,0.16196860323403495,0.889797345180196,0.6298301384648536,0.044808668599962395],[0.3941954400239468,0.16196860323403495,0.889797345180196,0.5716396382784263,0.1319292214999915],[0.38790776839728386,0.17294454937341372,1.0126625544306005,0.5411947289485469,0.18333058549530043],[0.36960064225503686,0.1933962410348409,1.2984612979328916,0.5150377485460608,0.25312496690553016],[0.3577667788875124,0.20892652007629683,1.4365246293808251,0.45100317523040084,0.3957146313145395],[0.35230810809127816,0.2157789250860721,1.4891089288910468,0.3893239877786231,0.4651379462504315],[0.3523081038897569,0.21577893016962313,1.4891089516411058,0.3199471326603111,0.5693710579520832],[0.3523081038897569,0.21577893016962313,1.4891089516411058,0.28272041669646475,0.6648430720812897],[0.3523081039727036,0.21577893033915826,1.4891089515182505,0.35044938827934374,0.7561935167460822],[0.35230810400038237,0.21577893080710472,1.4891089531044126,0.29996814497599733,0.8163309734588051],[0.3523081040704408,0.21577893100965026,1.4891089531254782,0.25934014868260163,0.8563079251088908],[0.3523081040704408,0.21577893100965026,1.4891089531254782,0.23425107730079928,0.8815657886444717]],"u":[[2.190421288846776,-0.12698606268664114],[0.17568279484695618,-0.010685231444193921],[0.05992627715363108,-0.8142436011592555],[0.42470631713932094,1.3111944787487206],[-0.22434558459588283,1.2668055705789016],[0.7711195447103942,-1.2517032039643123],[-0.3731657340541782,0.44811159761450553],[0.5081798495253118,0.7406045684178448],[3.7175919709798886,1.3780073285704981],[-4.01998937926255,-2.146133560968206],[0.39542321249726653,0.40453997521604945],[0.07237523266596568,-0.0010843182980706523],[-2.3084268298378854,1.808321586406266],[0.3623922480581139,-0.4265113199861671],[-0.2205449075299719,0.604205209781369],[-0.7575519786041802,1.4559054568840124],[0.04710771520668722,-1.4633269920103018],[-0.15395335441509683,0.6961959343376476],[0.6430027830893126,-0.17522195144890507],[2.0991137507837614,-0.08243139150653178],[-2.3642042979791764,-0.6242597640890253],[0.19706494071033553,-0.4032101020850565],[0.3107784982318673,-0.2943817622900937],[0.265033907958955,-0.26437016839188665],[0.22332761418929317,-0.24133273366153496]],"w":[[0.0],[0.0],[0.0],[0.0],[0.0],[0.0],[0.0],[0.0],[0.0],[0.0],[0.0],[0.0],[0.0],[0.0],[0.0],[0.0],[0.0],[0.0],[0.0],[0.0],[0.0],[0.0],[0.0],[0.0],[0.0]],"gamma":[[1.1994653030411682],[0.19023059443408324],[0.021545043283098395],[0.4544811066693941],[0.3139273199081331],[0.1793817660099871],[0.05162308079758302],[0.5401051974083626],[0.15927151385454405],[1.1954180553315333e-10],[2.158167533569361e-8],[1.0472300564656911e-10],[6.564505341220828e-21],[0.31795025486561834],[0.3645096079826558],[2.160719069641436e-7],[3.0467528659815915e-9],[1.2241386727910794e-9],[7.610061635487855e-23],[2.188444048817277e-9],[5.066824393175964e-9],[8.42802109933944e-10],[7.213014941462401e-22],[3.308722450212111e-24],[9.53869173080619e-10]],"b":[[-0.05856181829752809,-0.018158636423302583,-0.06000672426961098,0.012586328496364948,-0.05965963625784307,-0.014140383284373692,-0.06097020923262195,0.006469638149445307,0.05290922692536468],[-0.05865981034949039,-0.01783954314129932,-0.059283915021815216,0.01564097410150399,-0.0592393105040785,-0.015809071538523504,-0.06100482982430702,0.006134605978712161,0.03582857008181243],[-0.059189484163855,-0.015994612233753182,-0.05905107587466256,0.01649827549160531,-0.059087865346201085,-0.016366026548383393,-0.061078123227687006,0.005355886400927457,0.010772521640735857],[-0.05155978745994699,-0.033178471532858814,-0.061147082006182484,0.00450077973081836,-0.0538154973966886,-0.029378817130239532,-0.06099184074401539,-0.006262429137010491,-0.10795725012926619],[-0.05503546758787516,-0.02702443270355688,-0.05595543404585489,-0.025064158801676704,-0.05508671817537893,-0.026919809368621817,-0.05597288940633675,-0.025025153493606466,-0.15696365995029157],[-0.049745486878441665,-0.035841445100338265,-0.061192813354244945,-0.0038291315296471997,-0.05131541426081715,-0.03355519202947716,-0.05989960446117147,-0.013086635869402103,0.08969088278852658],[-0.05109168759372396,-0.0338948685466616,-0.06051321205202359,-0.009867817513295603,-0.05130281597526178,-0.03357445052967365,-0.05895100048938732,-0.01685236471935324,-0.020425247173839773],[-0.04433064140160362,-0.04235583651575172,-0.05458345438120661,-0.027926137585142525,-0.04558835709564064,-0.0409990773502633,-0.05358387829799032,-0.029799171680761568,-0.14694666207495846],[-0.01973396674146516,-0.05804992000636732,-0.05809319111771019,-0.01960621844811958,-0.03212065125789617,-0.05222534268853958,-0.05283121934560948,-0.03111406303610777,0.07963575692700522],[-0.026355198968191093,-0.055359065588802575,-0.0562779607464159,-0.024331333495272327,-0.0327264592537222,-0.051847869006286434,-0.05112828847001099,-0.0338396331811705,-5.551124687500794e-11],[-0.031594564094893945,-0.05254527328819722,-0.05402644030996074,-0.028989067210356177,-0.03431300753136484,-0.050811808748165696,-0.04974321069430439,-0.03584460057632512,4.952039978158028e-9],[-0.03595063959839439,-0.049666629859292905,-0.051179057239771675,-0.03376280044358191,-0.03667782829124514,-0.049132062256162685,-0.04832884633109268,-0.037729898431495025,1.467352647173298e-11],[-0.01663447945644357,-0.019953037953044397,-0.01425282957276397,-0.01623155306534067,-0.021220463166371994,-0.01878969084951707,-0.022664776471261108,-0.018951014912527073,-1.4293680984916318e-19],[0.05865956821605338,-0.017840339465787124,0.022700554061851362,0.056955311425718594,0.02105409044493604,-0.057584268087629356,-0.03564807618325679,-0.04988423919296362,0.1589751273585857],[0.061308484611999475,-0.000701691124886505,-0.00632888774616784,0.06098498040978726,0.0346588018921582,-0.05057657666679947,-0.023724002991833065,-0.05653666366008558,0.18225480385182596],[0.06076062552880834,-0.0082077657241719,0.03975200596296596,0.01930835780280765,0.037160492712214624,-0.048768014393414015,-0.00820774836883376,-0.06076062699306748,9.574716236215526e-8],[0.0603070590523984,-0.011058081244828028,0.029425395398503935,-0.05378996955503069,0.03888187668370883,-0.047406984961896076,-0.001110477637850817,-0.06130244232390329,9.001043693509085e-10],[0.038576917747050826,-0.01944567660810084,0.023129696925901708,-0.031309304569967285,0.033656559024960474,-0.03899815154214962,0.013810159280759491,-0.047294864826720316,4.109108704046846e-10],[-0.006002209246257452,-0.007778911763244257,0.001352699715032967,0.006927493709825388,0.006341138528555503,-0.003130589768447746,-0.001691544966906066,0.003981906150846108,-4.863822001811803e-22],[0.0013092046283692531,-0.0015442354455859866,0.003304197200309869,0.002528281786154263,-0.002963357385653251,-0.0020274602051956656,-0.0016500426333456474,0.0010434194735812288,-3.555358727154435e-10],[-0.0006939433109840052,-0.004085320794141367,0.0005994322203561516,0.0027609289975384574,0.001476859249287058,-0.0026231415266161962,-0.0013823490093491234,0.003947544339080012,-2.7511957956892513e-11],[0.0014571028003848947,-0.0032878932249095242,0.0005360916681264755,0.0024656121563567607,-0.0012921897856764,-0.002748341978642178,-0.000701004346563477,0.0035706185714855323,-2.4556767831682726e-10],[0.001785083738875846,-0.001992745573314874,0.00015111620714404822,0.0015242809599705456,-0.0018053068336761357,-0.002040124466812163,-0.00013089451351246058,0.002508585029245806,-6.048344638987738e-21],[0.0005438164749611103,-0.00065184634293616,5.184748058861799e-5,0.00048043115146124705,-0.0005361775264180944,-0.0007529432590445657,-5.9486429131689465e-5,0.0009243584505194746,0.0],[-8.52688278787552e-5,-0.0004881377613285118,-0.00029110918106916125,0.00020857477815818207,0.00034538458508884994,-0.00012588171143435278,3.099770009817364e-5,0.0004054578344601203,-4.109128500400544e-10]],"z":[[0.04798090437339028,0.0026376417490047285,0.09907745810604486,-0.07541976934624191,-0.01964909753772751,1.1994653030411682,1.0942180980781432e-10,0.06131250008921687,0.06131250008921687,0.06131250008921687,0.06131250008921687,0.5997326515681062,-0.05856181829752809,-0.018158636423302583,-0.06000672426961098,0.012586328496364948,-0.05965963625784307,-0.014140383284373692,-0.06097020923262195,0.006469638149445307,0.05290922692536468,0.7777257275993751,0.7990530114412532,1.1687066615378223,1.1830061990050755,3.1428622638278066e-10,0.742834373353842,0.23033538742208504,0.7820355350448241,-0.16403087913386913,1.137200639909796,0.2695365491130671,1.1764018016007782,-0.12482971744288704,5.584250307888872e-11],[0.09372995795178887,0.0048352064242500855,0.20202988751337092,-0.026732931440128876,-0.029986031303885677,0.19023059443408324,6.568656067144309e-10,0.061312500000000006,0.061312500000000006,0.061312500000000006,0.061312500000000006,0.09511529721704162,-0.05865981034949039,-0.01783954314129932,-0.059283915021815216,0.01564097410150399,-0.0592393105040785,-0.015809071538523504,-0.06100482982430702,0.006134605978712161,0.03582857008181243,0.7023340579765033,0.7804009215656557,1.1130165328256567,1.1638549186879843,2.0407411339740614e-9,0.6719475253113877,0.2043517834115162,0.7545805816613628,-0.19908225275167718,1.075381561474581,0.2869848397614915,1.1580146178245563,-0.11644919640170194,-1.3649475377098877e-9],[0.12874287170417184,0.006288905669182138,0.2806616517664906,0.023766032719061043,-0.0808166035421735,0.021545043283098395,7.910075930180656e-11,0.061312500000000006,0.061312500000000006,0.061312500000000006,0.061312500000000006,0.010772521641549198,-0.059189484163855,-0.015994612233753182,-0.05905107587466256,0.01649827549160531,-0.059087865346201085,-0.016366026548383393,-0.061078123227687006,0.005355886400927457,0.010772521640735857,0.5237219119960569,0.6154071665740924,0.8382214419192808,0.8983632479474347,0.8939404796582046,0.5055874383909789,0.1366235090842494,0.5927087508620511,-0.16559685175803962,0.8078077992332678,0.2237448215553217,0.8949291117043401,-0.0784755392869673,-0.8939404795789616],[0.17129921421032324,0.01821472715206382,0.3925093960991884,0.07658117360109794,-0.079775520984442,0.4544811066693941,7.250380867523543e-12,0.0613125000000663,0.0613125000000663,0.0613125000000663,0.0613125000000663,0.22724055333473236,-0.05155978745994699,-0.033178471532858814,-0.061147082006182484,0.00450077973081836,-0.0538154973966886,-0.029378817130239532,-0.06099184074401539,-0.006262429137010491,-0.10795725012926619,0.6645912098213272,0.7319831394625916,1.1076883020924502,1.149387321523123,3.259296208095868e-11,0.5588775784237444,0.3596349934341112,0.7300082863465646,-0.05373284204164988,0.9722454138995056,0.5307657013569314,1.1433761218223255,0.11739786588117021,2.6192460495254217e-11],[0.21414441502512033,0.038288262406216404,0.4007267974480415,0.10678765148392272,-0.028743551387409416,0.3139273199081331,2.923197134400699e-11,0.061312500000000006,0.061312500000000006,0.061312500000000006,0.061312500000000006,0.15696365995406655,-0.05503546758787516,-0.02702443270355688,-0.05595543404585489,-0.025064158801676704,-0.05508671817537893,-0.026919809368621817,-0.05597288940633675,-0.025025153493606466,-0.15696365995029157,0.9306366357610624,0.9293855699684798,0.9634569600160677,0.9622485664584155,0.6892644348184225,0.8353602023234975,0.4101924915364184,0.8481822298425749,0.3799268911106077,0.8656258027493082,0.4230145190554956,0.8784478302683856,0.39274891862968486,0.6892644347916926],[0.25590214260012034,0.054433272038554685,0.5022296350265756,0.16552991389433055,-0.04068383659322139,0.1793817660099871,4.33244905826503e-10,0.061312500000000006,0.061312500000000006,0.061312500000000006,0.061312500000000006,0.08969088300499355,-0.049745486878441665,-0.035841445100338265,-0.061192813354244945,-0.0038291315296471997,-0.05131541426081715,-0.03355519202947716,-0.05989960446117147,-0.013086635869402103,0.08969088278852658,0.6895905406895586,0.7564174199491562,1.0936970437340696,1.1370160171173618,0.40210365808620396,0.5594946738213877,0.40311390838450645,0.7549408357622589,0.04724031496815348,0.9153682672377407,0.5985600703253776,1.110814429178612,0.24268647690902467,-0.4021036576626161],[0.2881989239355579,0.06811420519342858,0.5655021622318297,0.2039819000360721,-0.03246394050629289,0.05162308079758302,3.7101816673068293e-10,0.061312500000000006,0.061312500000000006,0.061312500000000006,0.061312500000000006,0.02581154039879151,-0.05109168759372396,-0.0338948685466616,-0.06051321205202359,-0.009867817513295603,-0.05130281597526178,-0.03357445052967365,-0.05895100048938732,-0.01685236471935324,-0.020425247173839773,0.5655627506821195,0.6149152564169535,0.8186170314369641,0.8534596603287349,1.62410915690446e-8,0.4712832680556591,0.31265525119599924,0.6068990386102294,0.0989663044443859,0.6849722148072726,0.44827102175056954,0.820587985361843,0.2345820749989562,1.596764874086022e-8],[0.3281283557167826,0.09655186703006464,0.6279135664239754,0.25030591164923044,-0.009024555836993147,0.5401051974083626,1.4446354104290868e-10,0.06131250000193663,0.06131250000193663,0.06131250000193663,0.06131250000193663,0.27005259870521287,-0.04433064140160362,-0.04235583651575172,-0.05458345438120661,-0.027926137585142525,-0.04558835709564064,-0.0409990773502633,-0.05358387829799032,-0.029799171680761568,-0.14694666207495846,0.8633790589315399,0.8659401794653687,1.1112689352738767,1.1132599164252093,1.5880198454916287e-9,0.62424705384766,0.5964386095399075,0.7709032628177207,0.39441165495588754,0.8262740084316799,0.743094818509968,0.9729302174017406,0.5410678639259482,1.4992065847778737e-9],[0.35728205883904124,0.12544113305263271,0.7636459495407225,0.48514629904721523,0.07481381386594281,0.15927151385454405,1.0816055224001e-11,0.061312500000000006,0.061312500000000006,0.061312500000000006,0.061312500000000006,0.07963575692727203,-0.01973396674146516,-0.05804992000636732,-0.05809319111771019,-0.01960621844811958,-0.03212065125789617,-0.05222534268853958,-0.05283121934560948,-0.03111406303610777,0.07963575692700522,0.6190781149300658,0.6065729078830667,1.12892172551954,1.1221128475083146,3.390135446238626,0.19925572974725475,0.5861355359733436,0.5747238469231899,0.19396698775344393,0.5914242779671545,0.9616036531492788,0.9668923951430897,0.5694351049293792,-3.3901354462278075],[0.37811136658249317,0.14606150401160986,0.8438856556177334,0.5189872174889621,0.051345505520482816,1.1954180553315333e-10,0.04321168382640734,0.061312500000000006,0.061312500000000006,0.061312500000000006,0.061312500000000006,5.977090276657832e-11,-0.026355198968191093,-0.055359065588802575,-0.0562779607464159,-0.024331333495272327,-0.0327264592537222,-0.051847869006286434,-0.05112828847001099,-0.0338396331811705,-5.551124687500794e-11,0.4420656281640791,0.46830638594119234,0.7556133293896248,0.7712589416399911,0.7933771340096656,0.19002206054512596,0.3991411230009898,0.42985245104759184,0.1858433248556298,0.403319858690486,0.6389715135034557,0.6431502491929518,0.4256737153580957,0.7558926561032514],[0.39045681259060455,0.15827233839501303,0.8816184262142518,0.5725992971593867,0.04810419502024705,2.158167533569361e-8,0.08562817753302783,0.061312500000000006,0.061312500000000006,0.061312500000000006,0.061312500000000006,1.0790837667846381e-8,-0.031594564094893945,-0.05254527328819722,-0.05402644030996074,-0.028989067210356177,-0.03431300753136484,-0.050811808748165696,-0.04974321069430439,-0.03584460057632512,4.952039978158028e-9,0.2730004983223392,0.29184327011136646,0.4228703465840257,0.4352729629238169,0.26147302550835144,0.14067819228824607,0.2339634793331858,0.25716212849710524,0.13798595979408243,0.23665571182734943,0.35044741554204495,0.35313964803620856,0.2544698960029416,-0.12737000256073597],[0.3941954400239468,0.16196860323403495,0.889797345180196,0.6298301384648536,0.044808668599962395,1.0472300564656911e-10,0.13183533542854634,0.061312500000000006,0.061312500000000006,0.061312500000000006,0.061312500000000006,5.236150282329117e-11,-0.03595063959839439,-0.049666629859292905,-0.051179057239771675,-0.03376280044358191,-0.03667782829124514,-0.049132062256162685,-0.04832884633109268,-0.037729898431495025,1.467352647173298e-11,0.08828335661950991,0.09246555271118805,0.12096364805107944,0.12404890785181165,0.6832413243803617,0.051765026011247696,0.07151456558188522,0.07718327986539723,0.05091777412484132,0.07236181746829161,0.09693281943603475,0.09778007132244114,0.07633602797899085,-0.5228827044773388],[0.3941954400239468,0.16196860323403495,0.889797345180196,0.5716396382784263,0.1319292214999915,6.564505341220828e-21,0.031826828121064875,0.061312500000000006,0.061312500000000006,0.061312500000000006,0.061312500000000006,3.282252670610414e-21,-0.01663447945644357,-0.019953037953044397,-0.01425282957276397,-0.01623155306534067,-0.021220463166371994,-0.01878969084951707,-0.022664776471261108,-0.018951014912527073,-1.4293680984916318e-19,4.032363872875141e-17,-4.58985978293424e-18,5.565715853554079e-17,1.1313236741324452e-17,0.6670013419314199,7.875315296876459e-18,4.902759047605899e-17,-2.7870242700863464e-17,6.760011133358961e-18,5.014292110935609e-17,1.3282045713208866e-17,1.4397336641836563e-17,-2.8985560099270764e-17,-0.6325467879666918],[0.38790776839728386,0.17294454937341372,1.0126625544306005,0.5411947289485469,0.18333058549530043,0.31795025486561834,1.2483374260416349e-11,0.061312500000000006,0.061312500000000006,0.061312500000000006,0.061312500000000006,0.15897512743280917,0.05865956821605338,-0.017840339465787124,0.022700554061851362,0.056955311425718594,0.02105409044493604,-0.057584268087629356,-0.03564807618325679,-0.04988423919296362,0.1589751273585857,0.485332728310265,0.12816885409136064,0.5942318282700959,0.36604762494978016,0.1568843713001433,-0.4643328568221781,0.141219174337287,-0.04745368408297051,-0.1190605015013441,-0.204053180983547,0.5580983470764945,0.2128259917556606,0.2978186712378635,-0.1568843712833187],[0.36960064225503686,0.1933962410348409,1.2984612979328916,0.5150377485460608,0.25312496690553016,0.3645096079826558,1.73466158862848e-11,0.061312500000000006,0.061312500000000006,0.061312500000000006,0.061312500000000006,0.1822548039913279,0.061308484611999475,-0.000701691124886505,-0.00632888774616784,0.06098498040978726,0.0346588018921582,-0.05057657666679947,-0.023724002991833065,-0.05653666366008558,0.18225480385182596,1.0704930894218638,0.29683224700498184,1.3496382528614002,0.8738863438700409,0.18397696012527295,-1.0704229822560418,0.01225126196009827,0.030640048423504845,-0.2952466261825579,-0.7629250941133856,1.1133142926396449,0.33813793656616103,0.8058164044969887,-0.1839769601049751],[0.3577667788875124,0.20892652007629683,1.4365246293808251,0.45100317523040084,0.3957146313145395,2.160719069641436e-7,0.07258869499640899,0.061312500000000006,0.061312500000000006,0.061312500000000006,0.061312500000000006,1.0803595348207857e-7,0.06076062552880834,-0.0082077657241719,0.03975200596296596,0.01930835780280765,0.037160492712214624,-0.048768014393414015,-0.00820774836883376,-0.06076062699306748,9.574716236215526e-8,0.5522540814447966,9.528141954434204e-7,0.7810043854839638,0.5522529855421027,0.9731793105679736,-0.5472832300336223,0.07392899989477857,-6.86416149184299e-7,-3.818540144016384e-7,-0.4733538482848294,0.6212115435122517,0.07392869533264378,0.5472821617634588,-0.8293453932952739],[0.35230810809127816,0.2157789250860721,1.4891089288910468,0.3893239877786231,0.4651379462504315,3.0467528659815915e-9,0.12654788773653006,0.061312500000000006,0.061312500000000006,0.061312500000000006,0.061312500000000006,1.5233764329911664e-9,0.0603070590523984,-0.011058081244828028,0.029425395398503935,-0.05378996955503069,0.03888187668370883,-0.047406984961896076,-0.001110477637850817,-0.06130244232390329,9.001043693509085e-10,0.2262834595617072,0.026956059696192265,0.323909158666118,0.233322882226925,1.1108454502348797,-0.22257272356760344,0.04081159210339745,-0.012936907832577465,0.02364879255258689,-0.20540992401679287,0.2504474078384234,0.004225891718233096,0.23328460828761285,-0.9582229792602045],[0.3523081038897569,0.21577893016962313,1.4891089516411058,0.3199471326603111,0.5693710579520832,1.2241386727910794e-9,0.22477251166532292,0.061312500000000006,0.061312500000000006,0.061312500000000006,0.061312500000000006,6.120693363961882e-10,0.038576917747050826,-0.01944567660810084,0.023129696925901708,-0.031309304569967285,0.033656559024960474,-0.03899815154214962,0.013810159280759491,-0.047294864826720316,4.109108704046846e-10,1.5140415811789088e-7,6.931363192191693e-8,1.97990991773212e-7,1.4539860506913423e-7,1.8381419099936798,-1.359112312290085e-7,6.331099666166187e-8,-4.567040081790394e-8,4.979021360742586e-8,-1.2239044817477335e-7,1.535518270727656e-7,-3.2149617763675555e-8,1.4003104401853381e-7,-1.5530109870520463],[0.3523081038897569,0.21577893016962313,1.4891089516411058,0.28272041669646475,0.6648430720812897,7.610061635487855e-23,0.31688862326873846,0.061312500000000006,0.061312500000000006,0.061312500000000006,0.061312500000000006,3.970466940254533e-23,-0.006002209246257452,-0.007778911763244257,0.001352699715032967,0.006927493709825388,0.006341138528555503,-0.003130589768447746,-0.001691544966906066,0.003981906150846108,-4.863822001811803e-22,3.3297156324142165e-17,5.2076194402125224e-17,-4.6951300964101885e-18,9.355783304889167e-18,1.4661017885613918,-9.081398893026957e-17,9.996422591795028e-17,-1.041250786091464e-16,-6.088582012704768e-17,7.003606559332967e-17,8.665316457000943e-17,5.672498584062019e-17,-7.419689822539593e-17,-0.8978505361126601],[0.3523081039727036,0.21577893033915826,1.4891089515182505,0.35044938827934374,0.7561935167460822,2.188444048817277e-9,0.41346087746489224,0.061312500000000006,0.061312500000000006,0.061312500000000006,0.061312500000000006,1.0942220244085855e-9,0.0013092046283692531,-0.0015442354455859866,0.003304197200309869,0.002528281786154263,-0.002963357385653251,-0.0020274602051956656,-0.0016500426333456474,0.0010434194735812288,-3.555358727154435e-10,1.584129370111087e-8,1.6365680920362687e-8,2.5189616879603706e-8,2.675334001329846e-8,1.6053661457760922,1.3564390860742242e-9,4.261160092369405e-9,7.884769640493443e-10,3.0882072942082294e-9,2.5293918842357175e-9,3.693197970344697e-9,1.9614297622107714e-9,2.520245172183045e-9,1.2009848682821278],[0.35230810400038237,0.21577893080710472,1.4891089531044126,0.29996814497599733,0.8163309734588051,5.066824393175964e-9,0.4692787077214266,0.061312500000000006,0.061312500000000006,0.061312500000000006,0.061312500000000006,2.5334121965881407e-9,-0.0006939433109840052,-0.004085320794141367,0.0005994322203561516,0.0027609289975384574,0.001476859249287058,-0.0026231415266161962,-0.0013823490093491234,0.003947544339080012,-2.7511957956892513e-11,7.163594949254134e-8,5.951082314187209e-8,4.726332863249847e-8,4.0403871076735075e-8,1.8075559500778278,-4.54737928759706e-9,8.495931311212888e-9,1.4165732359035247e-9,4.2579745288761184e-9,-3.0942250525977384e-10,1.4459883834713579e-8,5.654530018240983e-9,1.0221927052376862e-8,-1.1043982519862037],[0.3523081040704408,0.21577893100965026,1.4891089531254782,0.25934014868260163,0.8563079251088908,8.42802109933944e-10,0.5058072735286419,0.061312500000000006,0.061312500000000006,0.061312500000000006,0.061312500000000006,4.2140105496703815e-10,0.0014571028003848947,-0.0032878932249095242,0.0005360916681264755,0.0024656121563567607,-0.0012921897856764,-0.002748341978642178,-0.000701004346563477,0.0035706185714855323,-2.4556767831682726e-10,1.5508219944253228e-8,1.3354100973590357e-8,9.945734020793166e-9,7.82116239276119e-9,1.7524001183184417,8.72541108737206e-10,4.604791815637608e-9,8.472867598184243e-10,3.5222844136238646e-9,1.955048510750579e-9,4.579537466719091e-9,1.9297941618318503e-9,3.4970300647055593e-9,-0.875088728305473],[0.3523081040704408,0.21577893100965026,1.4891089531254782,0.23425107730079928,0.8815657886444717,7.213014941462401e-22,0.528933809038979,0.061312500000000006,0.061312500000000006,0.061312500000000006,0.061312500000000006,5.062345348824529e-22,0.001785083738875846,-0.001992745573314874,0.00015111620714404822,0.0015242809599705456,-0.0018053068336761357,-0.002040124466812163,-0.00013089451351246058,0.002508585029245806,-6.048344638987738e-21,1.7653341878993934e-16,-1.4190819421384124e-16,3.145107977933694e-16,-9.770699747123726e-17,1.5253384449710008,-3.097346569364882e-16,3.4312976468004646e-16,-3.566329852541622e-16,-2.2901494492710535e-16,2.624101188451126e-16,2.962315620938256e-16,2.1551186331933252e-16,-2.7591335927156305e-16,-0.5413245165913518],[0.3523081040704408,0.21577893100965026,1.4891089531254782,0.22241370131694466,0.8936051437604582,3.308722450212111e-24,0.5399672079710546,0.061312500000000006,0.061312500000000006,0.061312500000000006,0.061312500000000006,0.0,0.0005438164749611103,-0.00065184634293616,5.184748058861799e-5,0.00048043115146124705,-0.0005361775264180944,-0.0007529432590445657,-5.9486429131689465e-5,0.0009243584505194746,0.0,3.890649966843576e-17,-4.887205405111942e-17,7.081123970641026e-17,-3.0518319156886623e-17,1.1230294104911664,-7.143309423859293e-17,8.121898499223007e-17,-8.299097626352484e-17,-6.076423781189218e-17,7.055014180041912e-17,6.966108807804713e-17,5.899224488623619e-17,-7.232213472607512e-17,-0.2556032907834136],[0.35230810429318943,0.2157789316205821,1.4891089526953294,0.22174270603261576,0.8935778622383933,9.53869173080619e-10,0.5398852727641873,0.061312500048672704,0.061312500048672704,0.061312500048672704,0.061312500048672704,5.028605198380259e-10,-8.52688278787552e-5,-0.0004881377613285118,-0.00029110918106916125,0.00020857477815818207,0.00034538458508884994,-0.00012588171143435278,3.099770009817364e-5,0.0004054578344601203,-4.109128500400544e-10,2.3835716331195022e-8,2.27768847243394e-8,2.00498441659348e-8,1.8629967317900453e-8,0.7964142657466824,5.1884492466935754e-9,1.324110685125855e-8,3.442872997651418e-9,1.2952112541112869e-8,5.477443556838939e-9,1.1495530602216604e-8,3.7318673077969406e-9,1.120653629207177e-8,-0.013330660580799295]],"theta":[[0.0,0.0,0.0,-0.12500001,-0.01,0.0,0.0,0.0,-0.12500001,-0.01,2.190421288846776,-0.12698606268664114,0.05],[0.0,0.0,0.0,-0.12500001,-0.01,0.04798090437339028,0.0026376417490047285,0.09907745810604486,-0.07541976934624191,-0.01964909753772751,0.17568279484695618,-0.010685231444193921,0.05],[0.04798090437339028,0.0026376417490047285,0.09907745810604486,-0.07541976934624191,-0.01964909753772751,0.09372995795178887,0.0048352064242500855,0.20202988751337092,-0.026732931440128876,-0.029986031303885677,0.05992627715363108,-0.8142436011592555,0.05],[0.09372995795178887,0.0048352064242500855,0.20202988751337092,-0.026732931440128876,-0.029986031303885677,0.12874287170417184,0.006288905669182138,0.2806616517664906,0.023766032719061043,-0.0808166035421735,0.42470631713932094,1.3111944787487206,0.05],[0.12874287170417184,0.006288905669182138,0.2806616517664906,0.02376603271906104,-0.0808166035421735,0.17129921421032324,0.01821472715206382,0.3925093960991884,0.07658117360109794,-0.079775520984442,-0.22434558459588283,1.2668055705789016,0.05],[0.17129921421032324,0.01821472715206382,0.3925093960991884,0.07658117360109794,-0.07977552098444199,0.21414441502512033,0.038288262406216404,0.4007267974480415,0.10678765148392272,-0.028743551387409416,0.7711195447103942,-1.2517032039643123,0.05],[0.21414441502512033,0.038288262406216404,0.4007267974480415,0.10678765148392272,-0.028743551387409416,0.25590214260012034,0.054433272038554685,0.5022296350265756,0.16552991389433055,-0.04068383659322139,-0.3731657340541782,0.44811159761450553,0.05],[0.25590214260012034,0.054433272038554685,0.5022296350265756,0.16552991389433055,-0.04068383659322139,0.2881989239355579,0.06811420519342858,0.5655021622318297,0.2039819000360721,-0.03246394050629289,0.5081798495253118,0.7406045684178448,0.05],[0.2881989239355579,0.06811420519342858,0.5655021622318297,0.2039819000360721,-0.03246394050629289,0.3281283557167826,0.09655186703006464,0.6279135664239754,0.25030591164923044,-0.009024555836993147,3.7175919709798886,1.3780073285704981,0.05],[0.3281283557167826,0.09655186703006464,0.6279135664239754,0.25030591164923044,-0.009024555836993145,0.35728205883904124,0.12544113305263271,0.7636459495407225,0.48514629904721523,0.07481381386594281,-4.01998937926255,-2.146133560968206,0.05],[0.35728205883904124,0.12544113305263271,0.7636459495407225,0.48514629904721523,0.07481381386594281,0.37811136658249317,0.14606150401160986,0.8438856556177334,0.5189872174889621,0.051345505520482816,0.39542321249726653,0.40453997521604945,0.05],[0.37811136658249317,0.14606150401160986,0.8438856556177334,0.5189872174889621,0.051345505520482816,0.39045681259060455,0.15827233839501303,0.8816184262142518,0.5725992971593867,0.04810419502024705,0.07237523266596568,-0.0010843182980706523,0.05],[0.39045681259060455,0.15827233839501303,0.8816184262142518,0.5725992971593867,0.04810419502024705,0.3941954400239468,0.16196860323403495,0.889797345180196,0.6298301384648536,0.044808668599962395,-2.3084268298378854,1.808321586406266,0.05],[0.3941954400239468,0.16196860323403495,0.889797345180196,0.6298301384648536,0.044808668599962395,0.3941954400239468,0.16196860323403495,0.889797345180196,0.5716396382784263,0.1319292214999915,0.3623922480581139,-0.4265113199861671,0.05],[0.3941954400239468,0.16196860323403495,0.889797345180196,0.5716396382784263,0.1319292214999915,0.38790776839728386,0.17294454937341372,1.0126625544306005,0.5411947289485469,0.18333058549530043,-0.2205449075299719,0.604205209781369,0.05],[0.38790776839728386,0.17294454937341372,1.0126625544306005,0.5411947289485469,0.18333058549530043,0.36960064225503686,0.1933962410348409,1.2984612979328916,0.5150377485460608,0.25312496690553016,-0.7575519786041802,1.4559054568840124,0.05],[0.36960064225503686,0.1933962410348409,1.2984612979328916,0.5150377485460608,0.25312496690553016,0.3577667788875124,0.20892652007629683,1.4365246293808251,0.45100317523040084,0.3957146313145395,0.04710771520668722,-1.4633269920103018,0.05],[0.3577667788875124,0.20892652007629683,1.4365246293808251,0.45100317523040084,0.3957146313145395,0.35230810809127816,0.2157789250860721,1.4891089288910468,0.3893239877786231,0.4651379462504315,-0.15395335441509683,0.6961959343376476,0.05],[0.35230810809127816,0.2157789250860721,1.4891089288910468,0.3893239877786231,0.4651379462504315,0.3523081038897569,0.21577893016962313,1.4891089516411058,0.3199471326603111,0.5693710579520832,0.6430027830893126,-0.17522195144890507,0.05],[0.3523081038897569,0.21577893016962313,1.4891089516411058,0.3199471326603111,0.5693710579520832,0.3523081038897569,0.21577893016962313,1.4891089516411058,0.28272041669646475,0.6648430720812897,2.0991137507837614,-0.08243139150653178,0.05],[0.3523081038897569,0.21577893016962313,1.4891089516411058,0.28272041669646475,0.6648430720812897,0.3523081039727036,0.21577893033915826,1.4891089515182505,0.35044938827934374,0.7561935167460822,-2.3642042979791764,-0.6242597640890253,0.05],[0.3523081039727036,0.21577893033915826,1.4891089515182505,0.35044938827934374,0.7561935167460822,0.35230810400038237,0.21577893080710472,1.4891089531044126,0.29996814497599733,0.8163309734588051,0.19706494071033553,-0.4032101020850565,0.05],[0.35230810400038237,0.21577893080710472,1.4891089531044126,0.29996814497599733,0.8163309734588051,0.3523081040704408,0.21577893100965026,1.4891089531254782,0.25934014868260163,0.8563079251088908,0.3107784982318673,-0.2943817622900937,0.05],[0.3523081040704408,0.21577893100965026,1.4891089531254782,0.25934014868260163,0.8563079251088908,0.3523081040704408,0.21577893100965026,1.4891089531254782,0.23425107730079928,0.8815657886444717,0.265033907958955,-0.26437016839188665,0.05],[0.3523081040704408,0.21577893100965026,1.4891089531254782,0.23425107730079928,0.8815657886444717,0.3523081040704408,0.21577893100965026,1.4891089531254782,0.22241370131694466,0.8936051437604582,0.22332761418929317,-0.24133273366153496,0.05]],"iq0":[1,2,3,4,5],"iq1":[6,7,8,9,10],"iu1":[11,12],"iw1":[],"iq2":[1,2,3,4,5],"igamma1":[6],"ib1":[7,8,9,10,11,12,13,14,15],"nq":5,"nu":2,"nw":0,"nc":1,"nb":9,"nz":35,"nθ":13}